34 128
34 0.0038582839 -0.04160121 0.21545614 -0.10807603 -0.008456098 -0.1945184 0.06736298 0.074775465 -0.04084309 0.0661646 0.23397076 -0.09842954 -0.06875039 -0.043013547 0.043620262 -0.22035775 0.07027974 0.17824632 -0.15479887 -0.027436748 0.10840704 0.08129504 0.08647046 0.10837172 -0.090098806 0.14403433 -0.020775856 0.19523524 0.037135296 -0.03645773 -0.31320742 0.049380295 0.011197026 -0.0062067835 -0.10191351 -0.01233884 0.19256589 -0.025119264 0.12212547 0.021466723 -0.044392914 0.1811719 -0.17032516 -0.09087457 -0.041285686 0.021206468 -0.029530672 -0.13036068 0.033010162 0.0005204306 0.037848976 0.0793011 0.15067057 0.17283818 0.047468536 0.07448094 0.047661882 -0.050598264 -0.089504 0.14799932 0.13099839 -0.09029848 0.08213128 0.04913404 0.049713265 -0.034345623 -0.018338794 0.002536422 -0.091706865 -0.11616542 0.11893828 -0.105319455 -0.17511581 -0.0910383 0.053763486 -0.159193 -0.015195011 -0.10206786 -0.057695042 0.12112061 0.038817167 -0.112080276 0.13967334 0.17829432 -0.0102144675 0.04018214 0.16813986 -0.13955754 0.097959235 0.13923231 -0.12883368 -0.001296216 -0.0067160893 0.11186358 0.16094941 0.02003427 -0.3155999 -0.3422056 -0.014751351 -0.093762964 -0.25274387 -0.022304447 0.10782966 0.13704868 0.11641734 -0.052004904 3.9964332e-05 -0.23069395 0.041656684 -0.08217134 0.07050365 -0.028522767 0.07352038 0.12249644 0.017800381 0.040082604 0.02413102 0.049844965 0.054737747 0.05778112 -0.043981537 -0.11810687 0.07542038 0.15638734 -0.04423935 -0.24878886 -0.0847799 -0.022169037
1 0.11257708 -0.1261174 0.45590463 -0.11876249 -0.018981386 -0.14753391 0.13257237 -0.1404758 0.031117141 -0.07947665 0.14422823 0.0007712046 0.017454725 -0.1486694 0.04949059 -0.20585518 0.029006219 0.17801395 -0.005968591 -0.103234224 0.0646687 0.123727664 0.023428135 0.009227696 -0.15059058 0.18475094 0.011002074 0.10207386 0.03462366 0.07996405 -0.19840315 0.107034445 -0.007687699 0.08554994 -0.11528771 -0.122549415 0.09522612 -0.0044518234 0.06554482 -0.029965593 0.08113089 0.16329744 -0.18141803 0.06043468 0.080428556 -0.113017365 -0.011866316 -0.20616148 -0.05082902 0.041600388 0.15376075 -0.048517104 -0.024104081 0.088454805 -0.21444796 -0.0014690942 -0.04808354 -0.03261112 -0.10365494 0.1503202 0.13660227 -0.052097995 0.06037663 0.041675758 -0.16363564 -0.27105784 -0.18592252 -0.071750835 0.11008627 -0.03804475 0.120834745 -0.07903707 -0.1973382 -0.05576753 -0.037191145 -0.050345276 0.03423252 -0.12249856 -0.013269449 0.10185091 -0.021064011 -0.059994806 0.29283932 0.20543909 -0.074144304 -0.06250515 0.11009695 -0.1918981 0.1621836 0.13321003 -0.24673794 0.0364866 -0.1635729 0.080957614 0.093741894 -0.035150863 -0.043606233 -0.1678541 -0.09571414 -0.08143365 -0.0434806 -0.021898607 0.10644046 0.044130363 -0.03174672 -0.014717977 0.0461457 -0.1437045 0.13798502 0.14925468 0.0831387 0.005145666 0.054878183 0.16393168 -0.2624892 -0.009076066 -0.01665365 -0.039167427 0.046888575 0.09196414 -0.021778977 -0.10464974 0.027949154 0.1915594 -0.08466058 -0.19835876 -0.2895882 0.03242978
33 0.028463155 -0.058534026 0.24406508 -0.11432988 0.002928373 -0.17958663 0.08365719 0.0323923 -0.028132906 0.043021422 0.20561665 -0.07338069 -0.047918975 -0.06069889 0.060654756 -0.20140985 0.066051915 0.17027503 -0.113747865 -0.022185104 0.09599037 0.08544885 0.057351224 0.08699974 -0.10108281 0.14036222 -0.014374295 0.16696143 0.046199862 -0.0123201655 -0.2770147 0.05383148 0.010827285 0.01720655 -0.10738717 -0.026555428 0.16468045 -0.015027502 0.108455405 0.016517162 -0.009892714 0.16779886 -0.14925674 -0.05473254 -0.020024477 0.0011437759 -0.02153741 -0.14661787 0.01895734 0.0021255384 0.063507915 0.054073177 0.12519725 0.14328338 -0.001633995 0.063897714 0.027222663 -0.040693387 -0.079852946 0.12801495 0.13284694 -0.0807822 0.06933019 0.05189661 0.013500589 -0.08550326 -0.045622338 -0.011941855 -0.054631036 -0.097767524 0.12191616 -0.098512955 -0.17477317 -0.07494965 0.03375735 -0.13481581 -0.016994188 -0.10588173 -0.04492997 0.12920335 0.034043923 -0.11050971 0.15473095 0.18135928 -0.012997923 0.020565236 0.15403025 -0.15054633 0.11897458 0.13234742 -0.15037987 0.0030470707 -0.041825492 0.10570427 0.13852012 0.012974878 -0.25584093 -0.30266976 -0.032054346 -0.09835657 -0.19812997 -0.022289578 0.10461238 0.10478908 0.077232525 -0.033774402 0.013829231 -0.21187885 0.06280823 -0.031101711 0.07367781 -0.0050659687 0.07086362 0.11651058 -0.03734011 0.016660329 0.009797977 0.030263752 0.052832577 0.061869282 -0.044136994 -0.109055586 0.054502107 0.17090243 -0.060562287 -0.23644887 -0.11645735 -0.0089290505
3 0.02743816 -0.06715169 0.27997568 -0.11163656 -0.004949148 -0.17602052 0.06733133 0.0051602907 -0.017582877 0.027633913 0.20583679 -0.06632855 -0.041281946 -0.0826273 0.041364595 -0.21600384 0.05148944 0.17255616 -0.11075515 -0.044019215 0.088314734 0.09023904 0.072308294 0.088138305 -0.10818559 0.16507259 -0.013605624 0.1657016 0.03137535 -0.006468672 -0.26679778 0.0591799 -0.0075558876 0.030557863 -0.100276195 -0.04750865 0.16241352 -0.02665982 0.11865395 0.017947678 -0.0063967416 0.17269197 -0.16809934 -0.0471993 -0.014978168 -0.016984053 -0.010416142 -0.14817403 0.009276874 -0.004517596 0.07816139 0.032554463 0.104464345 0.15536213 -0.036139723 0.061405055 0.0136287045 -0.04405074 -0.09817999 0.15647691 0.13864158 -0.08392078 0.084010124 0.05809689 6.0279475e-05 -0.09959852 -0.058252167 -0.0192993 -0.02460612 -0.10180479 0.11632112 -0.117680825 -0.18611209 -0.085700564 0.022573428 -0.1370416 -0.005512244 -0.11320082 -0.040533107 0.12839411 0.019512964 -0.10323355 0.18629156 0.19329523 -0.0347202 0.019275134 0.14304721 -0.14621066 0.11354245 0.13666913 -0.16012537 0.014168014 -0.049352575 0.1083891 0.14534195 -0.014075913 -0.24582304 -0.29737118 -0.034125976 -0.096353255 -0.20397815 -0.033255607 0.10858882 0.11940632 0.06535309 -0.042600762 0.013562197 -0.22036324 0.07860547 -0.021999983 0.076614246 -0.027644712 0.079907455 0.13665645 -0.06384341 0.019902997 0.001178452 0.022465292 0.058066238 0.056514364 -0.054640543 -0.11876017 0.06266076 0.18135922 -0.07342026 -0.25062028 -0.14607738 -0.020001505
2 0.07731102 -0.118429154 0.3836181 -0.12021592 -0.021583948 -0.15654634 0.10256851 -0.096443534 0.0004819848 -0.047193605 0.16728409 -0.014672137 -0.018281855 -0.12417994 0.048849713 -0.21758108 0.037777193 0.17222022 -0.037487894 -0.09497158 0.06458305 0.09505991 0.042376526 0.04740691 -0.12352085 0.17713282 0.005382915 0.11539656 0.03353585 0.035317346 -0.21749094 0.08605843 -0.0007422447 0.05948473 -0.1056268 -0.09253024 0.11420772 -0.018817969 0.078766175 -0.017604783 0.060073264 0.16998038 -0.18675764 0.026244842 0.05311914 -0.09284307 -0.013601939 -0.1850603 -0.018145608 0.030062197 0.13471 -0.028516766 0.019475738 0.106666 -0.15454341 0.02668251 -0.034034707 -0.047876865 -0.09497612 0.16759127 0.13941653 -0.04959818 0.06492292 0.059633125 -0.12278335 -0.2006054 -0.13317508 -0.052401017 0.06964296 -0.06133864 0.12357233 -0.099041395 -0.17966399 -0.07834849 -0.018461064 -0.06368329 0.022900285 -0.11393264 -0.013565882 0.10786145 -0.01181919 -0.070705324 0.25996312 0.19389996 -0.06915914 -0.04061288 0.113726124 -0.17177363 0.1386809 0.12329392 -0.21098188 0.031495262 -0.11682642 0.0824003 0.11100497 -0.02717049 -0.11046411 -0.20469925 -0.07075169 -0.0786175 -0.087917976 -0.014362626 0.099938676 0.07129091 0.018647378 -0.01925756 0.037525944 -0.1693136 0.122442976 0.08621428 0.083276905 -0.0058199298 0.06294587 0.14848082 -0.19340707 -0.0042710155 -0.014037766 -0.022960227 0.052771 0.08796472 -0.028880289 -0.100270204 0.030427862 0.17609899 -0.07759234 -0.1979701 -0.2373217 0.0057846718
4 0.08087845 -0.11966719 0.40146822 -0.12222379 -0.013815762 -0.13130736 0.08753005 -0.12359329 0.00033821852 -0.04802666 0.1620485 -0.0127092665 -0.025809132 -0.12656224 0.022859767 -0.22330979 0.028822111 0.15611786 -0.043776605 -0.10779614 0.06041389 0.09199792 0.06297239 0.041346066 -0.12433276 0.18130004 -0.0042259265 0.1147369 0.0027899032 0.031325947 -0.19107896 0.08963928 -0.0074867033 0.07151071 -0.10172418 -0.12431453 0.11520623 -0.022529704 0.07919831 -0.0027269202 0.06858128 0.15688285 -0.20075175 0.019587716 0.042504635 -0.10035833 0.0127937 -0.1766962 -0.032796293 0.033268612 0.12956184 -0.028109752 3.247225e-05 0.106616005 -0.17874388 0.030337835 -0.029552562 -0.056783594 -0.097428545 0.19906144 0.14948389 -0.05418282 0.07684561 0.070326194 -0.13194491 -0.20735028 -0.13063328 -0.061276037 0.06908511 -0.06094252 0.11564638 -0.102645755 -0.16195415 -0.08294398 -0.021690248 -0.068908125 0.03653025 -0.11616494 -0.02230931 0.09483341 -0.010392419 -0.053937685 0.25777203 0.18799038 -0.09495075 -0.0251102 0.10427311 -0.15996623 0.1214926 0.13356014 -0.22332095 0.033797976 -0.117904425 0.066927135 0.09923879 -0.048808914 -0.1046145 -0.20477922 -0.091373645 -0.06905891 -0.08335185 -0.02342152 0.1078853 0.08727416 0.015248608 -0.034706876 0.032471646 -0.16929041 0.14207068 0.09216137 0.0627577 -0.020914283 0.072538815 0.14369285 -0.21252619 0.006485654 -0.028720211 -0.018378746 0.04842497 0.08013369 -0.03479582 -0.10656678 0.034825545 0.1859995 -0.082141526 -0.18099397 -0.25982204 0.010308665
32 0.021466367 -0.052883305 0.23793171 -0.11904157 0.0033668235 -0.18816128 0.06979414 0.050517317 -0.012118868 0.044827346 0.20756127 -0.099157475 -0.05195205 -0.056709778 0.049792364 -0.20769459 0.06757154 0.17956448 -0.11736004 -0.011743333 0.10718412 0.083985716 0.067526415 0.087827034 -0.109152 0.15437679 -0.014541807 0.17090043 0.05792421 -0.017166656 -0.2957116 0.05802937 -0.009460864 0.01789336 -0.095722914 -0.0046266173 0.17553416 -0.0054180776 0.11555397 0.010373503 -0.03358 0.17714667 -0.15176605 -0.06772475 -0.009435252 0.009226204 -0.023478962 -0.1543893 0.011902385 -0.0023515108 0.04369689 0.062854685 0.13741753 0.16674735 0.028021593 0.06157358 0.03191246 -0.0247924 -0.089493535 0.10690164 0.12348268 -0.08994338 0.09042834 0.04407308 0.039058406 -0.05546986 -0.037787635 -0.011253051 -0.06348549 -0.09759829 0.11493941 -0.106991 -0.18470939 -0.065315045 0.038950775 -0.1420021 -0.023789331 -0.09557372 -0.053240266 0.1281497 0.031015616 -0.11185211 0.14842175 0.17069052 0.00472822 0.013736607 0.15978298 -0.14815463 0.11088974 0.12783746 -0.13580708 -0.0085737575 -0.040605776 0.10579209 0.15477051 0.020019876 -0.27970666 -0.3075744 -0.025077123 -0.097471885 -0.22385772 -0.0232139 0.09105052 0.11798757 0.09638584 -0.030080894 -0.0035796033 -0.23087429 0.039583307 -0.054361347 0.066472344 -0.014130065 0.06891279 0.11465861 -0.014372499 0.028377233 0.024477312 0.028160185 0.056798384 0.06329108 -0.036453456 -0.103641555 0.05475368 0.16602555 -0.042971455 -0.24733968 -0.08918992 -0.0037478765
24 0.014762577 -0.03396617 0.21986972 -0.122483864 -0.00414049 -0.20219752 0.06494113 0.07852464 -0.028025597 0.058514364 0.21813935 -0.10078884 -0.0558717 -0.0513004 0.060982693 -0.21642219 0.068466544 0.185452 -0.14103436 -0.0020841376 0.11094389 0.076361544 0.07580564 0.09775043 -0.10285761 0.15349066 -0.020403916 0.18448946 0.06875289 -0.025795477 -0.3257186 0.06342442 -0.0033487612 -0.000751163 -0.0943215 0.0028552471 0.18898547 0.00054219394 0.11310207 0.021718375 -0.037834845 0.18405251 -0.15206581 -0.07393241 -0.023993073 0.030722715 -0.036200736 -0.15601932 0.026119083 -0.0047633247 0.040099785 0.08101614 0.1616509 0.17810898 0.04781672 0.08175784 0.039504435 -0.02348064 -0.08626864 0.10743784 0.12204577 -0.09388853 0.09181729 0.04903148 0.054045316 -0.037426203 -0.017575968 -0.009369738 -0.08668985 -0.11975937 0.11278766 -0.11484875 -0.18831404 -0.076236516 0.049943622 -0.15163021 -0.030517394 -0.105776064 -0.05566379 0.12981626 0.041877873 -0.12199168 0.14618887 0.17564629 0.01308066 0.024883926 0.16623889 -0.13992175 0.11346132 0.12703076 -0.14074892 -0.0067727524 -0.017309327 0.1225816 0.15050188 0.033714935 -0.30270424 -0.3238318 -0.0049974155 -0.11165192 -0.2509057 -0.020669911 0.108293585 0.12929429 0.11042598 -0.038693227 0.006614809 -0.24800746 0.029069657 -0.07629498 0.07337157 -0.008988513 0.07098011 0.11204857 0.015158021 0.028743278 0.032086194 0.03382524 0.06393135 0.070238814 -0.03668245 -0.11474659 0.06586997 0.16331978 -0.048142515 -0.26580322 -0.07563237 -0.020400943
14 0.04145046 -0.07492263 0.30850962 -0.112166956 -0.0031486896 -0.14838156 0.07814531 -0.038737368 -0.0034480435 0.0050625005 0.1831348 -0.04040916 -0.032258745 -0.09629614 0.034107003 -0.20850536 0.043054126 0.16222827 -0.08404502 -0.05930936 0.067021355 0.0834354 0.060203373 0.06461338 -0.11879713 0.16146669 -0.007744725 0.14145485 0.018210871 0.012627719 -0.22772495 0.06980779 -0.011420159 0.038317923 -0.100751854 -0.070979334 0.13157733 -0.021552993 0.10024713 0.0023722064 0.01641061 0.16807973 -0.18071279 -0.026764223 0.012977352 -0.049645275 -0.004391248 -0.15026385 -0.009271621 0.021234095 0.09708213 0.016764125 0.070401534 0.123918 -0.09088984 0.049215723 0.0006729015 -0.03809241 -0.08645851 0.16750185 0.12790923 -0.06323576 0.06912684 0.059324276 -0.047561165 -0.13656257 -0.08705895 -0.034341734 0.007060227 -0.07751406 0.11033535 -0.10176801 -0.16179556 -0.07980614 0.007286213 -0.109514244 0.015768945 -0.101659074 -0.03211091 0.118927844 0.0106687 -0.08720964 0.20323585 0.18558122 -0.055922586 -0.008020576 0.13391455 -0.14841278 0.11708331 0.12565441 -0.1751475 0.013137344 -0.07681263 0.082668744 0.11551013 -0.028312668 -0.18060152 -0.2542644 -0.054359503 -0.08972096 -0.15449741 -0.031986948 0.09629244 0.10424323 0.04683489 -0.03546736 0.019024318 -0.19369222 0.095282935 0.026742008 0.07209752 -0.018315073 0.07123426 0.13702485 -0.12337798 0.007839147 -0.011393336 0.005469309 0.05539263 0.0716355 -0.042610295 -0.10858662 0.057652347 0.17102942 -0.07083372 -0.20730567 -0.17452778 -0.013099523
28 0.037123717 -0.054689094 0.25594372 -0.11427074 -0.0068670027 -0.17673099 0.07543353 0.020571765 -0.014207785 0.031570107 0.20038208 -0.08335994 -0.046683863 -0.05973885 0.05826557 -0.2048073 0.050988898 0.18122673 -0.11486333 -0.024365418 0.100794666 0.09373093 0.06687494 0.08770353 -0.11459954 0.16230145 -0.015117096 0.1574396 0.05001356 0.0007189815 -0.29437107 0.06522824 0.0026234281 0.01870716 -0.104789644 -0.03180688 0.17325668 -0.0035272632 0.10891967 0.0066022337 -0.024020437 0.17964546 -0.15383591 -0.05414512 -0.01309151 -0.007887899 -0.033760607 -0.16254768 0.010690249 0.002610496 0.07278362 0.043531563 0.11999364 0.15616123 -0.015393938 0.06863102 0.027328532 -0.035619628 -0.09580774 0.12042981 0.12035088 -0.08358957 0.0764651 0.041996483 0.008995045 -0.083810806 -0.049487785 -0.022734795 -0.042712327 -0.095718555 0.113629945 -0.09313194 -0.18208067 -0.06485062 0.02460892 -0.12135123 -0.016459301 -0.091560476 -0.051983964 0.123625584 0.027976066 -0.10241087 0.16582619 0.16788633 -0.017619714 0.00057336333 0.1501477 -0.14683698 0.11150273 0.13091993 -0.15200578 0.0017543661 -0.05566808 0.09683085 0.14843705 0.007947443 -0.24857341 -0.2817845 -0.026631108 -0.101870276 -0.19432445 -0.026855396 0.10018924 0.106902815 0.07467821 -0.03159124 0.01906894 -0.20618667 0.047951788 -0.030763876 0.07930849 -0.011401689 0.066207275 0.12455301 -0.03887314 0.021221848 0.0072076893 0.023711164 0.06272358 0.07473123 -0.0296637 -0.11039623 0.055283338 0.16466038 -0.0448815 -0.2425829 -0.12741934 -0.007456321
7 0.14349364 -0.15140426 0.51146173 -0.117439546 -0.033247553 -0.151449 0.15339278 -0.18337813 0.043205574 -0.12047969 0.12661253 0.0026216342 0.041258287 -0.16507502 0.067373805 -0.20533648 0.030974358 0.18187658 0.017773107 -0.11316762 0.062467482 0.14325297 -0.0056900913 -0.012318082 -0.16877925 0.18311054 0.004092895 0.06818743 0.034658927 0.09961543 -0.19885364 0.12423373 -0.0017198947 0.09435875 -0.10232621 -0.12429725 0.087780386 0.004840623 0.039376624 -0.037394922 0.09959647 0.15812254 -0.17216389 0.1068064 0.11069835 -0.13751553 -0.021593185 -0.23772617 -0.056151975 0.06516169 0.17592283 -0.056015037 -0.050186336 0.060245045 -0.25401998 -0.010281078 -0.06713447 -0.01526416 -0.11167395 0.14749135 0.12971433 -0.04573113 0.057682097 0.03914667 -0.20698123 -0.31863192 -0.21172303 -0.09392649 0.14940429 -0.020551346 0.13395843 -0.067718126 -0.22127217 -0.048623126 -0.040085636 -0.028144503 0.04613768 -0.13516626 -0.0030889453 0.095146984 -0.015000239 -0.05011119 0.34068862 0.22486754 -0.07789509 -0.07880594 0.09679647 -0.20177159 0.17337157 0.12522914 -0.27175185 0.04790952 -0.199195 0.088169105 0.09830603 -0.011939501 -0.009850394 -0.1366006 -0.11965898 -0.091715 0.004305863 -0.022841193 0.117239 0.034736518 -0.04488208 -0.003873026 0.07178449 -0.12949646 0.15434591 0.18791132 0.090716735 0.027135553 0.055427168 0.17630225 -0.32297814 -0.022529235 -0.02154274 -0.06662863 0.03546843 0.12165005 0.004905404 -0.095722966 0.015151233 0.1924606 -0.065961555 -0.17971316 -0.3240243 0.06606179
6 0.15360034 -0.16152628 0.51228666 -0.13635539 -0.03230164 -0.16634963 0.14371586 -0.16073683 0.04898981 -0.11438271 0.1381689 -0.00938347 0.03260643 -0.14988881 0.068887904 -0.21589594 0.026822696 0.18921226 0.004848983 -0.11375163 0.08165692 0.13234025 -0.004946311 -0.0035043112 -0.16801411 0.18315896 0.002978615 0.07684267 0.048386544 0.09972016 -0.2124952 0.12571205 0.013741332 0.093893945 -0.10666225 -0.11763744 0.0970431 0.0074356273 0.039826285 -0.031285778 0.08552838 0.16949056 -0.18029451 0.09537425 0.1025419 -0.14534011 -0.019946208 -0.24173881 -0.046957258 0.06516417 0.16620345 -0.04985491 -0.04435068 0.06792055 -0.23897383 0.0022189056 -0.052384976 -0.018265765 -0.11527873 0.14536092 0.13449997 -0.048168514 0.05274152 0.0277289 -0.18776764 -0.30244303 -0.2043233 -0.0950913 0.13618293 -0.024980407 0.13983779 -0.070519336 -0.22585052 -0.052006785 -0.029846964 -0.04625426 0.040811058 -0.1346675 -0.0021602304 0.098281704 -0.015969777 -0.06928686 0.3363184 0.22101732 -0.07302643 -0.071400315 0.10447782 -0.21502809 0.17263836 0.13806947 -0.2718624 0.055265795 -0.19242547 0.09423972 0.105356 -0.0043176105 -0.035932567 -0.1644046 -0.1232819 -0.09210748 -0.016773226 -0.015411391 0.10853419 0.027601827 -0.03824338 -0.0039043464 0.056374025 -0.14789402 0.14308834 0.18304607 0.08773251 0.023070078 0.056869727 0.18158972 -0.3075766 -0.019131644 -0.027368812 -0.0590252 0.039815992 0.12330696 4.833506e-06 -0.110840335 0.011038689 0.19494095 -0.06624381 -0.17776659 -0.3185083 0.06982605
9 0.059662927 -0.077718005 0.2864586 -0.107686475 -0.0010226822 -0.18030179 0.08446333 0.0032860744 -0.004508114 0.012032923 0.17804632 -0.07752135 -0.027912626 -0.0851625 0.056540795 -0.20729046 0.06344299 0.17972706 -0.091572344 -0.03602615 0.09753287 0.09198425 0.055360384 0.073647514 -0.11433332 0.15189803 -0.011007905 0.14485537 0.055213165 0.006385726 -0.2695833 0.07702547 0.0035559232 0.035375576 -0.10701531 -0.04131341 0.14968699 -0.008787004 0.09576653 0.010679338 0.00072090386 0.16689421 -0.15582581 -0.02511117 0.00403757 -0.027001444 -0.02584705 -0.16218022 -0.0032790685 0.018196411 0.07147323 0.026541054 0.09783178 0.13819338 -0.045444105 0.050750528 0.0058524054 -0.034513153 -0.09417366 0.12507224 0.12821098 -0.06395379 0.07765591 0.047820378 -0.019421704 -0.12877981 -0.07430404 -0.03347709 -0.007940389 -0.08280101 0.11633774 -0.08783791 -0.18701264 -0.06820845 0.017087316 -0.119205445 -0.010893809 -0.09797193 -0.048638653 0.123748474 0.014060596 -0.096902415 0.1913853 0.17284384 -0.01273508 0.0008941747 0.1420573 -0.15488179 0.1235693 0.1342734 -0.16436332 0.0018609108 -0.07511493 0.103174314 0.13415493 0.008891447 -0.20806941 -0.2706266 -0.043010756 -0.09287914 -0.16014087 -0.028642252 0.09478634 0.08803737 0.058173925 -0.034348525 0.012077945 -0.19719307 0.076785155 0.009908879 0.069538616 -0.008953013 0.07442828 0.13418725 -0.09306328 0.010474576 0.0071306815 0.009183189 0.054508757 0.07849573 -0.033002034 -0.11262128 0.040922284 0.17100966 -0.048842493 -0.2235799 -0.14698857 0.010121997
30 0.015192828 -0.034957226 0.18853992 -0.1046207 0.006998303 -0.18407868 0.07029645 0.08687093 -0.027903723 0.060428344 0.20795332 -0.11308535 -0.047946244 -0.045292944 0.067195095 -0.20494312 0.071851596 0.16552407 -0.14553389 -0.011477886 0.09909755 0.076693095 0.05976285 0.09723756 -0.09921642 0.13232966 -0.010713284 0.18227118 0.06552333 -0.020333782 -0.30848578 0.056069773 -0.0018404317 -0.0015601496 -0.1023398 0.00734812 0.1776721 -0.0017892027 0.11223682 0.017364856 -0.037913613 0.16426776 -0.13610527 -0.0722318 -0.035685807 0.022320172 -0.032924257 -0.14406474 0.035072908 -0.0075857793 0.038017467 0.067795254 0.15909354 0.16229752 0.062300682 0.065591864 0.049403254 -0.03322151 -0.088611856 0.099654414 0.115699105 -0.08783923 0.07856954 0.03725837 0.06256226 -0.034904324 -0.019797167 -0.0021197293 -0.09483826 -0.11605641 0.11816082 -0.09394468 -0.18703797 -0.0662457 0.056325264 -0.15565324 -0.022012658 -0.103875585 -0.05159325 0.12918714 0.042698547 -0.122447714 0.12620915 0.16184062 0.0141093545 0.03397316 0.16599154 -0.13064404 0.111912586 0.12472769 -0.116399765 -0.005789612 -0.009332352 0.11881608 0.1513623 0.0378544 -0.30421072 -0.32601058 -0.016226534 -0.10167759 -0.23070197 -0.027166031 0.09755064 0.12069352 0.11030193 -0.04577115 -0.0019009556 -0.2346771 0.034923635 -0.0651746 0.07525125 -0.007082918 0.08064306 0.11866189 0.022420762 0.037742667 0.020544076 0.045348093 0.05959594 0.060018193 -0.02935324 -0.10528086 0.06723944 0.16050419 -0.032026194 -0.24574889 -0.05783848 -0.009915236
8 0.065470055 -0.087108925 0.32399714 -0.10924392 -0.010149516 -0.1591141 0.09149621 -0.047838707 0.006511874 -0.018129084 0.16357826 -0.04192176 -0.016629294 -0.10073538 0.05186681 -0.19346814 0.04319877 0.16052711 -0.06959407 -0.06026102 0.08048752 0.09776527 0.055476546 0.05761099 -0.114232995 0.16719738 0.002996044 0.13507451 0.045126814 0.01429709 -0.23590991 0.07151063 0.0016716796 0.04394868 -0.10996691 -0.059725415 0.13686042 -0.01484164 0.09239025 -0.002447811 0.024672257 0.16173099 -0.1633624 -0.009843068 0.023187105 -0.04491819 -0.008977549 -0.17342906 -0.011968039 0.011230127 0.102461725 0.010849636 0.0562579 0.12406064 -0.096676975 0.040801782 -0.001495674 -0.033282213 -0.09494374 0.13263834 0.123494945 -0.06307833 0.073289365 0.057655983 -0.059165873 -0.1473352 -0.08782054 -0.041514512 0.019464534 -0.06758024 0.12049465 -0.09085471 -0.18140173 -0.0595521 0.0067854724 -0.08761193 0.0034833346 -0.1066748 -0.02645908 0.10765653 0.013580273 -0.080677465 0.21508688 0.17776708 -0.041970897 -0.009140343 0.11561393 -0.1627513 0.1191082 0.12210686 -0.18595624 0.021380901 -0.077278815 0.09046165 0.11708689 -0.010140025 -0.16473632 -0.24113849 -0.049457572 -0.09048964 -0.12944207 -0.016566997 0.102878034 0.08804088 0.04149637 -0.030461919 0.026255973 -0.18351308 0.09884336 0.04280911 0.07365675 -0.004031609 0.058051653 0.13696632 -0.121222675 0.0047995253 -3.8026366e-05 -0.008213468 0.05249438 0.07442278 -0.026901089 -0.1037564 0.04209736 0.16975524 -0.060236562 -0.21253443 -0.18451034 -0.0013495556
26 0.023813266 -0.041236755 0.23282748 -0.116702884 -0.010104949 -0.17699958 0.071124196 0.033662356 -0.011930519 0.05051138 0.19710347 -0.094129644 -0.039366383 -0.057410963 0.045608576 -0.19671585 0.05383052 0.1744532 -0.12254998 -0.022231858 0.1042479 0.09626451 0.0711626 0.09318195 -0.10658917 0.14962578 -0.017734867 0.15676217 0.0604086 -0.008125877 -0.30198604 0.058511358 -0.013535035 0.0070303483 -0.09385056 -0.007840783 0.17279072 -0.0015224448 0.114828765 0.010098383 -0.028353445 0.16189347 -0.14616771 -0.062258746 -0.014528444 0.01830527 -0.037154656 -0.15637724 0.009993179 -0.003709303 0.04817956 0.062262997 0.13147256 0.15123135 0.00723087 0.06838593 0.03220823 -0.020521538 -0.09048206 0.10640491 0.113015205 -0.083756626 0.08243233 0.04787984 0.03724632 -0.068020575 -0.038026825 -0.021275155 -0.055120725 -0.1045498 0.106873795 -0.09233413 -0.18691699 -0.05611472 0.026990006 -0.14072205 -0.02795997 -0.08501938 -0.04449037 0.13184442 0.0358822 -0.10305263 0.148762 0.17662084 0.0025613918 0.018139193 0.14803787 -0.14045678 0.113590404 0.120914996 -0.13631457 -0.0053413347 -0.035467464 0.10778589 0.1453881 0.012153226 -0.26237404 -0.2846055 -0.027843272 -0.09839441 -0.20909885 -0.018920856 0.09041402 0.1219449 0.081632994 -0.03724348 0.013327457 -0.21891621 0.036854073 -0.04807117 0.0715696 -0.019516917 0.06660689 0.12045447 -0.02567505 0.026516609 0.021168076 0.036366865 0.059411824 0.069014445 -0.030432355 -0.107231945 0.051270943 0.16868414 -0.0471743 -0.24979429 -0.109294996 -0.01373535
25 0.022504786 -0.033830155 0.22558315 -0.12443721 -0.0005678109 -0.18990555 0.062989935 0.06337122 -0.017941702 0.051732745 0.19976921 -0.10238436 -0.049475953 -0.045506977 0.06326558 -0.2139492 0.055390812 0.18182002 -0.13114896 -0.013640456 0.10827444 0.07636267 0.07753574 0.09788461 -0.10688312 0.15186705 -0.008911967 0.18283404 0.06477154 -0.01469531 -0.30868793 0.057211556 -0.010788426 0.0072309147 -0.101311445 -0.010974573 0.17128383 0.0054885866 0.11595482 0.014038332 -0.035727076 0.1818665 -0.15521489 -0.0667254 -0.021357663 0.028800301 -0.02523608 -0.1552668 0.023976333 -0.007749516 0.036975708 0.066605024 0.14742371 0.16986062 0.037568413 0.084338754 0.029414212 -0.01895302 -0.09181824 0.10779908 0.11785901 -0.07992242 0.08995962 0.053923715 0.056642275 -0.04925093 -0.029922698 -0.02292228 -0.064475775 -0.11376186 0.10721217 -0.10014924 -0.18372011 -0.07271819 0.037866496 -0.1417563 -0.02328601 -0.0868361 -0.05808495 0.13187908 0.04407655 -0.10884138 0.14533947 0.16320467 0.011000276 0.015713496 0.15760888 -0.14878698 0.10513901 0.11603305 -0.13883802 -0.0131229665 -0.029414626 0.11182577 0.14837883 0.018624628 -0.29207844 -0.31363165 -0.014834461 -0.105932035 -0.23823234 -0.024630127 0.10569712 0.13156596 0.09044612 -0.03447377 -2.8916955e-05 -0.24356593 0.0382631 -0.060931195 0.06752956 -0.01942091 0.067810334 0.12069396 -0.010342551 0.03550657 0.02096548 0.032235067 0.06994162 0.070327766 -0.039351594 -0.10595603 0.06197479 0.17085107 -0.04673071 -0.25720215 -0.08916719 -0.023909694
20 0.042788494 -0.060597178 0.26957375 -0.0983657 -0.011054514 -0.16410603 0.083683334 0.0013517273 -0.016628942 0.010512074 0.17616655 -0.067571655 -0.03553451 -0.06614318 0.059152015 -0.20014992 0.05089559 0.15822244 -0.09458089 -0.0397611 0.07932216 0.09062865 0.04769432 0.07235584 -0.10350684 0.14911608 -0.0039466545 0.15158014 0.042445257 9.3693234e-05 -0.24937733 0.06638277 -0.00046247724 0.01958467 -0.098693125 -0.046749387 0.14492309 -0.0048944694 0.09318338 0.011310625 -0.00794641 0.16164076 -0.14674203 -0.026327975 0.007498109 -0.017273821 -0.026615622 -0.14388053 0.011792216 0.018985178 0.061718766 0.04064019 0.09530314 0.13074268 -0.044976883 0.054505322 0.00473522 -0.032712515 -0.08288718 0.12956424 0.12537614 -0.07314209 0.0664584 0.05113373 -0.011227556 -0.10708856 -0.07517091 -0.032516323 -0.021736559 -0.085912034 0.11314718 -0.096056536 -0.17594358 -0.072672166 0.031076472 -0.11376519 -0.010632412 -0.096090935 -0.037640538 0.11611594 0.018757386 -0.09824497 0.18021694 0.1712448 -0.030579675 -0.0001938096 0.13484898 -0.14263852 0.1169253 0.12230433 -0.16181915 0.009391027 -0.059924513 0.103677675 0.12062411 0.010569623 -0.20898098 -0.26286513 -0.045612883 -0.088211484 -0.17215587 -0.026338877 0.09820374 0.103909574 0.05462044 -0.027390912 0.023088504 -0.19945414 0.06424034 0.0031169117 0.07482969 -0.008446639 0.0718889 0.12418725 -0.07270775 0.013363868 0.0021916933 0.011068444 0.051903445 0.06265401 -0.030639436 -0.10171727 0.050642613 0.16815414 -0.054355506 -0.22110619 -0.13169165 -0.0065892064
31 0.03626648 -0.07285685 0.27608123 -0.11337452 -0.0029720557 -0.1700605 0.076543614 -0.0022304298 -0.014588428 0.017728593 0.1939808 -0.06155903 -0.031838525 -0.08511957 0.0597128 -0.20967393 0.06303954 0.17281291 -0.092510164 -0.050484143 0.08162717 0.0948011 0.056129757 0.078730635 -0.10495785 0.15582326 -0.0006627692 0.15339574 0.03610935 -0.0047566844 -0.26229554 0.060858257 0.008056245 0.031147845 -0.110299885 -0.039049797 0.15837333 -0.0086417785 0.10413861 0.001505356 0.00021922553 0.16226278 -0.16879208 -0.034398932 0.0020590401 -0.022862595 -0.014934997 -0.15682778 0.0074407784 0.016595362 0.0699796 0.03947109 0.10162054 0.14996476 -0.039649818 0.051543675 0.006593243 -0.036568165 -0.09323877 0.14592004 0.13271877 -0.071300685 0.08069517 0.045952775 -0.012597226 -0.10406243 -0.07169631 -0.02564574 -0.026980499 -0.09415704 0.12340426 -0.10339579 -0.17366593 -0.07114539 0.021357719 -0.11514708 -0.010779727 -0.1080368 -0.039424565 0.121208236 0.02015592 -0.09776563 0.17878205 0.18742527 -0.0337269 0.009879821 0.14376101 -0.160672 0.11535292 0.12339389 -0.17151432 0.01725559 -0.05121635 0.10391479 0.13412198 0.0108026415 -0.22235933 -0.27638835 -0.039093416 -0.09974371 -0.18364407 -0.03348819 0.10856685 0.105857484 0.059577063 -0.040629193 0.016088953 -0.20334803 0.074897304 -0.0013458472 0.06990436 -0.009020511 0.07219373 0.13702436 -0.08519263 0.010921479 0.00024489345 0.012651627 0.046862073 0.0740626 -0.040504444 -0.11308407 0.05515099 0.16436037 -0.05850877 -0.23291607 -0.13495259 0.0016122314
29 0.0456367 -0.060609773 0.27565813 -0.11980112 0.002788957 -0.1807973 0.0866723 0.01027077 -0.014508144 0.016653007 0.1933494 -0.0760668 -0.028631631 -0.07696709 0.06360345 -0.20305328 0.06338317 0.16683781 -0.09352943 -0.02714885 0.09354887 0.08770531 0.061432008 0.0835042 -0.103797816 0.15894681 -0.0040091076 0.15843605 0.054465953 0.0010443463 -0.2682033 0.065336265 0.0003981439 0.026705299 -0.10808405 -0.044300795 0.14856969 -0.0017324623 0.09388199 0.0029699905 -0.000506863 0.16714132 -0.15459622 -0.031565152 0.003283807 -0.012246998 -0.018825663 -0.1561575 0.012756484 0.010321835 0.06524335 0.042783685 0.106901325 0.140976 -0.032513395 0.060627725 0.02001893 -0.023291081 -0.086765274 0.1171115 0.12067282 -0.07036058 0.07748295 0.042299643 0.0024409518 -0.10718459 -0.057417322 -0.037079737 -0.017858755 -0.08587943 0.11657972 -0.099472135 -0.17870872 -0.06890283 0.018479401 -0.11366713 -0.0059130355 -0.09841835 -0.047962267 0.12515849 0.024676293 -0.09665058 0.16875952 0.17664337 -0.013891939 0.011019858 0.13335067 -0.15690008 0.11216059 0.12347643 -0.16694163 -0.0015583456 -0.057546318 0.10245235 0.12394888 0.0061457977 -0.2234004 -0.26723444 -0.035354212 -0.095943734 -0.18357576 -0.031174809 0.09967632 0.10807005 0.0697952 -0.032960594 0.014742353 -0.21343672 0.066881835 -0.011209135 0.07603116 -0.010777633 0.06518901 0.11963857 -0.072105244 0.012083962 0.0070519233 0.009401586 0.054458883 0.07027569 -0.04074314 -0.11010437 0.05042886 0.16687134 -0.061235342 -0.23344392 -0.14477336 -0.005209212
11 0.14334847 -0.15049492 0.50157154 -0.11617611 -0.020192208 -0.146674 0.15067019 -0.17659557 0.032078058 -0.1179914 0.12585925 -0.0061516524 0.019644154 -0.15940256 0.059198458 -0.21283406 0.02167235 0.18233587 0.0016632502 -0.11301028 0.0751869 0.14088294 0.011210795 0.0012911037 -0.16551238 0.18993178 0.012502736 0.09102831 0.026470458 0.092869736 -0.2035536 0.11199234 0.007495767 0.09037424 -0.11277954 -0.13878514 0.07930108 0.0027691897 0.042830065 -0.026052881 0.08281704 0.15768252 -0.1893355 0.09660164 0.100499906 -0.13213792 -0.005485175 -0.22121626 -0.062658794 0.06424172 0.15839912 -0.049124815 -0.039323237 0.07160213 -0.25234982 -0.0060574203 -0.050480366 -0.03426103 -0.10872187 0.1506977 0.14250739 -0.046188705 0.06311385 0.033967547 -0.20260783 -0.3104806 -0.20593409 -0.0825698 0.13423981 -0.015626429 0.13433583 -0.06910803 -0.20620082 -0.0505777 -0.040408712 -0.029255338 0.034174915 -0.12746893 -0.007841981 0.09145054 -0.012938021 -0.056314707 0.3256233 0.21591738 -0.08580353 -0.074883744 0.09993312 -0.2025306 0.16984077 0.1283003 -0.25824133 0.048230782 -0.18528049 0.08445898 0.09125098 -0.020939322 -0.019180447 -0.148114 -0.12404777 -0.09265754 -0.009757491 -0.027848238 0.109118916 0.036782764 -0.04476013 -0.011424315 0.066047646 -0.14019647 0.14665943 0.1786939 0.08293395 0.008193918 0.056340434 0.17558314 -0.3066934 -0.022956384 -0.019945284 -0.05390672 0.040107206 0.112596534 -0.00816265 -0.09760882 0.02017446 0.20251846 -0.07412933 -0.18772946 -0.32157242 0.062440805
5 0.13487305 -0.149461 0.50281596 -0.1286584 -0.028021539 -0.1618737 0.13742228 -0.17367478 0.040105116 -0.10111062 0.14677608 -0.00087620306 0.024050685 -0.15044774 0.055433348 -0.21556294 0.035800394 0.18446244 0.0024280008 -0.122868456 0.07846637 0.13829513 0.018729243 -0.0058628116 -0.1611202 0.19281252 0.0007523802 0.08368204 0.03716145 0.0821209 -0.21134365 0.12335448 -0.0018728634 0.09932571 -0.111604765 -0.12524754 0.09242619 -0.010016524 0.044132024 -0.028124068 0.08275118 0.16312408 -0.18040073 0.07477927 0.085437216 -0.13842233 -0.020845825 -0.23025899 -0.051656786 0.065444954 0.17138009 -0.055633865 -0.046834435 0.07381277 -0.25009122 -0.0042544976 -0.059595548 -0.029687272 -0.1175271 0.16431038 0.14147122 -0.044318747 0.056900445 0.032069888 -0.18514694 -0.29980844 -0.19198224 -0.08291817 0.13614662 -0.024894364 0.12923695 -0.069588006 -0.2145985 -0.064584665 -0.03211229 -0.045137923 0.038023487 -0.1310391 -0.016004832 0.095090635 -0.018306034 -0.05976954 0.32287428 0.2210518 -0.078894965 -0.07656105 0.09886843 -0.20673561 0.15732236 0.12989043 -0.26055384 0.039141525 -0.18708287 0.081675425 0.10541924 -0.024311488 -0.0262578 -0.16807035 -0.12294453 -0.08498804 -0.011602623 -0.02031551 0.113539614 0.04326482 -0.030900855 -0.020639706 0.06160153 -0.13724752 0.1552694 0.17502473 0.07679633 0.0074079065 0.065349564 0.17295264 -0.30519795 -0.00905915 -0.030965216 -0.046195485 0.045833785 0.10308904 -0.008168494 -0.099526264 0.018371979 0.19621478 -0.0663624 -0.17548339 -0.323803 0.05943506
17 0.16477905 -0.16235672 0.5269675 -0.12786752 -0.022659486 -0.15461941 0.1584904 -0.17686008 0.05304434 -0.13267438 0.121863164 0.004291585 0.038719475 -0.16029754 0.076704964 -0.20335257 0.03437174 0.17586541 0.009960095 -0.114731334 0.07646058 0.14221083 -0.006061602 -0.014687976 -0.17864142 0.1988049 0.012627884 0.06713279 0.04118175 0.10797829 -0.20491748 0.11594692 0.0067877118 0.10865714 -0.12059305 -0.1310887 0.07727708 0.0017531097 0.04114625 -0.03770657 0.09227822 0.16112462 -0.18224283 0.111987695 0.11298612 -0.15422763 -0.018031 -0.23319502 -0.06663752 0.058317613 0.16574283 -0.06704152 -0.04748495 0.069046125 -0.26315084 -0.013946609 -0.05743362 -0.016554363 -0.11332226 0.13990118 0.12985432 -0.04275511 0.04622805 0.035002496 -0.20886154 -0.3282992 -0.22137766 -0.09152012 0.14172 -0.020311972 0.14228334 -0.06813248 -0.22225773 -0.052542996 -0.042357825 -0.024566356 0.037652735 -0.13959844 -0.0053733545 0.08864105 -0.024085771 -0.06440915 0.34742463 0.22933613 -0.088291764 -0.091276795 0.09282032 -0.21172383 0.18381314 0.13036986 -0.2774098 0.046468362 -0.20809817 0.08757548 0.091485634 -0.01866897 0.0010691173 -0.12945186 -0.12256746 -0.09517164 0.012855842 -0.028869923 0.106856644 0.021456422 -0.052936256 -0.004505994 0.06626036 -0.13133074 0.1615314 0.20368458 0.08435876 0.030455474 0.05456717 0.17869654 -0.33225268 -0.016381405 -0.033848476 -0.068207435 0.04758096 0.113907285 -0.0004053405 -0.10882752 0.016493643 0.20667008 -0.07905515 -0.18288651 -0.3265599 0.06909113
16 0.012875654 -0.043233268 0.192224 -0.10332272 0.0014049003 -0.18904984 0.067411385 0.074845456 -0.036624953 0.065591924 0.20855276 -0.10570257 -0.05307028 -0.0376408 0.06367192 -0.2019383 0.074460804 0.16341938 -0.12937792 -0.00090884615 0.09859066 0.07100097 0.06110323 0.1010143 -0.0991458 0.13972315 -0.014603956 0.18478236 0.048635714 -0.03367836 -0.2994646 0.044436034 0.0080962 0.0059322217 -0.09561396 0.0027288094 0.16744746 -0.013541317 0.103525355 0.02436237 -0.040637057 0.17822957 -0.15141319 -0.07007926 -0.02722177 0.019364968 -0.02594409 -0.13278463 0.028906643 0.0032540776 0.04048165 0.07682414 0.15792891 0.15479171 0.044725507 0.06959998 0.041404657 -0.032280304 -0.08089066 0.119377695 0.12071784 -0.08403656 0.08626619 0.048683465 0.05672248 -0.03355179 -0.02295718 -0.009709252 -0.08387325 -0.120000474 0.116025925 -0.11429821 -0.17739978 -0.0828825 0.05830466 -0.15601194 -0.01824762 -0.10748558 -0.06043832 0.12752162 0.035962183 -0.11697718 0.13079602 0.16455479 0.0026704676 0.024633266 0.16594195 -0.1411204 0.11078982 0.1260054 -0.12576567 -0.010954417 -0.008598695 0.11969849 0.14648837 0.038289633 -0.30165684 -0.33175856 -0.011116665 -0.09887105 -0.2382943 -0.034437064 0.10074783 0.11810782 0.10806072 -0.036926232 -0.008231079 -0.2259349 0.040631272 -0.061966687 0.06655116 -0.009745947 0.08227682 0.10721446 0.0060037617 0.034539856 0.028840728 0.032908954 0.05839697 0.061000016 -0.040631447 -0.109042525 0.054137845 0.1624369 -0.040402558 -0.24803765 -0.06762331 -0.016268851
13 0.060274895 -0.09087591 0.33115306 -0.10489053 -0.011034611 -0.13950428 0.086747974 -0.061419405 -0.013521736 -0.0153279975 0.1678765 -0.030609509 -0.039223723 -0.10597213 0.03865978 -0.20516253 0.046489745 0.1544658 -0.06599061 -0.070267506 0.07411737 0.08966362 0.06607566 0.061461587 -0.11678177 0.15952748 -0.010915398 0.13185735 0.015248299 0.008681143 -0.20589742 0.07287677 -0.001739923 0.04327533 -0.11002728 -0.09454173 0.1353224 -0.025423847 0.095931716 -0.00041584985 0.040073786 0.16259977 -0.17807028 -0.012871222 0.019908093 -0.062118743 0.0035246182 -0.14967987 -0.012247662 0.025424728 0.10279248 -0.0064506875 0.054884125 0.12238576 -0.114626125 0.045341425 -0.013344876 -0.042307448 -0.092042305 0.1755952 0.13808893 -0.06439404 0.06823465 0.06418124 -0.071974546 -0.16211544 -0.10068962 -0.040624954 0.02492639 -0.07767652 0.12007466 -0.099973515 -0.15782057 -0.07622745 -0.0046982146 -0.09194072 0.013751546 -0.118616246 -0.023221841 0.11474982 0.010759661 -0.08003089 0.20671423 0.18872005 -0.06859205 -0.0032604143 0.12527023 -0.14873908 0.12541625 0.12971334 -0.18907599 0.02145981 -0.07699512 0.07829259 0.11251489 -0.029623644 -0.15225255 -0.23140463 -0.06697125 -0.07523306 -0.13379452 -0.024095794 0.10866813 0.094518386 0.0292121 -0.037496697 0.032090776 -0.17134875 0.11062456 0.04025662 0.06597456 -0.025391817 0.065704115 0.13778293 -0.14600873 0.00287278 -0.0030042 0.008141631 0.054238454 0.06643949 -0.049446218 -0.111059695 0.04605678 0.16463985 -0.079649724 -0.19824155 -0.1955007 -0.0094071515
19 0.03571645 -0.067787126 0.25243706 -0.11787579 -0.0018930926 -0.18475623 0.07295339 0.035172574 -0.014067292 0.029683974 0.21140245 -0.07514547 -0.052426986 -0.0656589 0.056115855 -0.20582238 0.059984278 0.16958106 -0.11019984 -0.037049174 0.09293064 0.08359803 0.069576606 0.08144043 -0.10162958 0.15276149 -0.012019453 0.17209236 0.04861419 -0.0052652736 -0.28362787 0.055908427 0.010084492 0.01583868 -0.097486176 -0.03167385 0.16023938 -0.018296652 0.10941688 0.014541258 -0.015791355 0.16768584 -0.16691308 -0.0583655 -0.004434126 -0.012762219 -0.019491335 -0.1539736 0.012912477 0.012732335 0.058194682 0.045446128 0.12029382 0.15994494 0.0002799969 0.05981918 0.025093557 -0.03330023 -0.09380911 0.13737874 0.124531135 -0.07971536 0.08489745 0.05433076 0.007607702 -0.07930877 -0.043614313 -0.011711183 -0.055365857 -0.09676877 0.12066903 -0.10639977 -0.1734772 -0.07989602 0.03355456 -0.1392189 -0.015490659 -0.10430501 -0.051191002 0.11697796 0.031975336 -0.10919629 0.16087301 0.18350351 -0.0076137814 0.01731985 0.15163465 -0.14939731 0.11408091 0.13755786 -0.15840955 0.0035920632 -0.04016008 0.1053581 0.14446305 0.016118966 -0.2464061 -0.29668444 -0.022995813 -0.10053401 -0.19884151 -0.029019967 0.09909222 0.1116413 0.078866236 -0.04130744 0.010337187 -0.2110892 0.055486187 -0.037670497 0.068734 -0.007862855 0.06600722 0.13041453 -0.042388067 0.026220635 0.012090733 0.01911894 0.05739211 0.071686484 -0.042962153 -0.11151058 0.056863297 0.17241985 -0.047982026 -0.24114086 -0.11341136 -0.012752658
27 0.017943302 -0.043165725 0.2304805 -0.11847633 -0.0008729733 -0.18693043 0.06657223 0.05445242 -0.033621933 0.05052774 0.21061148 -0.090747364 -0.06197293 -0.0576479 0.051387902 -0.2023242 0.07317145 0.17030463 -0.126506 -0.017722607 0.08647797 0.07436357 0.06392429 0.103180744 -0.10417391 0.13860698 -0.009446843 0.17238022 0.03948967 -0.02470752 -0.28427693 0.05083444 -0.005312635 0.008118798 -0.10372767 -0.011294276 0.17053077 -0.012201474 0.11014436 0.012860286 -0.02245729 0.17263776 -0.14946242 -0.063844554 -0.030314129 0.0020601042 -0.013585481 -0.14878888 0.01669678 -0.0043182042 0.061234776 0.055755146 0.14328542 0.15022494 0.024228077 0.056181025 0.04111431 -0.037160885 -0.081747524 0.119647324 0.13214377 -0.075234495 0.07293471 0.03935295 0.034176566 -0.062220506 -0.045244835 -0.007568712 -0.07042322 -0.11178001 0.12604092 -0.10805945 -0.17566167 -0.08017055 0.036933623 -0.14257546 -0.022242997 -0.10747268 -0.05712472 0.13182478 0.035806715 -0.113224335 0.15350214 0.16041167 -0.0038140996 0.029308561 0.15272786 -0.14535879 0.10418521 0.13235666 -0.13981338 0.0043039913 -0.01875896 0.11092855 0.13803802 0.0226126 -0.27366492 -0.31010804 -0.013558859 -0.10592749 -0.21373427 -0.027570952 0.08702467 0.112549305 0.09905796 -0.041575395 -0.003536482 -0.21270333 0.04685252 -0.05544961 0.07257369 -0.011546104 0.08180976 0.11803969 -0.0052664946 0.014792863 0.018479161 0.033790056 0.056941457 0.05791409 -0.036585003 -0.10929911 0.05127958 0.15344906 -0.046884187 -0.23768528 -0.08312165 -0.015265911
21 0.04266532 -0.0656175 0.27103686 -0.118255064 -0.0018694517 -0.17147486 0.07975922 0.010984982 -0.021015992 0.02860648 0.18915005 -0.069451824 -0.04429856 -0.06728012 0.06036872 -0.20491768 0.065000586 0.16789378 -0.09429665 -0.029366633 0.08872952 0.08313778 0.049821753 0.0842282 -0.106741324 0.14939387 -0.012772649 0.16004996 0.048995372 -0.0027702614 -0.26129478 0.06865623 0.0066137468 0.028312743 -0.097616754 -0.03793912 0.15612993 -0.016126895 0.09394989 0.018018207 -0.014002299 0.16276172 -0.16156073 -0.035797082 0.003848066 -0.022988463 -0.015483543 -0.15241115 0.0023625384 0.01083593 0.065173484 0.038867433 0.10366063 0.13705896 -0.021995265 0.062781006 0.01394232 -0.030912876 -0.08826257 0.1329881 0.120975345 -0.073077224 0.07930097 0.054626405 -0.00087503815 -0.09336994 -0.055850197 -0.02854445 -0.0334557 -0.09496172 0.121309854 -0.093991354 -0.17768253 -0.072668664 0.033377785 -0.121396 -0.0073429584 -0.109539226 -0.035775475 0.109977044 0.02022329 -0.103481196 0.16799869 0.17424113 -0.027312797 0.0106024 0.13839169 -0.15075454 0.117667936 0.12971045 -0.15607972 0.0070718736 -0.043724284 0.10232754 0.1377441 0.018490104 -0.2358668 -0.2867399 -0.03000395 -0.09287594 -0.18282509 -0.023590965 0.09638555 0.09860909 0.06440715 -0.029103065 0.010691027 -0.2099653 0.06361352 -0.008705088 0.06892554 -0.0144060105 0.06972315 0.12405675 -0.066437185 0.015595518 0.011777787 0.015929004 0.04815634 0.071485065 -0.030756252 -0.113628805 0.04624219 0.16941193 -0.059531234 -0.22231303 -0.13575202 0.0032280635
10 0.040493757 -0.07329495 0.2743257 -0.10988221 0.0004448993 -0.1594227 0.0810538 0.0016497851 -0.006033219 0.013339319 0.17604159 -0.0645279 -0.029641012 -0.07154283 0.04955975 -0.20447202 0.060231853 0.17393412 -0.09406323 -0.03819141 0.081389725 0.09270635 0.058422156 0.0706866 -0.10501417 0.15313907 -0.005441764 0.13822225 0.047584277 0.0033281515 -0.25518396 0.07126447 -0.0014372292 0.03619447 -0.09909191 -0.03899159 0.14433198 -0.0166211 0.08677711 0.010052174 -0.00463485 0.16476084 -0.15098539 -0.034615617 0.0029050778 -0.028057354 -0.026362523 -0.1555224 0.009844767 0.0063537136 0.07088462 0.037756164 0.10050949 0.14021422 -0.04804176 0.052521717 0.003886826 -0.024633814 -0.08337257 0.12255475 0.12957083 -0.07758636 0.07614509 0.049567815 -0.0109204175 -0.106225714 -0.07287435 -0.023816878 -0.022208514 -0.09126622 0.11763704 -0.10369353 -0.17792183 -0.06659608 0.026988281 -0.11989236 -0.0090601565 -0.10723151 -0.04212513 0.11675011 0.023355033 -0.100396715 0.17985556 0.18273342 -0.022276063 0.0004908701 0.14213867 -0.14923774 0.11828429 0.13229918 -0.1545807 0.013457802 -0.057564195 0.098906375 0.13492769 0.011124739 -0.21229328 -0.26816478 -0.039744154 -0.10002912 -0.16499716 -0.032858957 0.095366456 0.09691488 0.06049911 -0.02883008 0.008429655 -0.19395775 0.07497457 0.0035343675 0.07910327 -0.007438013 0.07414684 0.13525262 -0.08000363 0.010621492 0.010174973 0.005666086 0.05531887 0.06588651 -0.035743315 -0.10738579 0.0540426 0.16615133 -0.057501268 -0.22467628 -0.14062499 -0.0018581527
23 0.010707009 -0.0464976 0.2053841 -0.10658889 0.0015580046 -0.17539683 0.06678041 0.062587224 -0.034422494 0.06052704 0.21100801 -0.100817166 -0.050675154 -0.03715178 0.052071936 -0.20452593 0.062473923 0.17245933 -0.13086766 -0.011620925 0.104995675 0.06928828 0.05538287 0.09681038 -0.09942152 0.1303327 -0.02257966 0.1718553 0.052992553 -0.023342546 -0.29260182 0.06027169 0.012429392 -0.0019608485 -0.087251715 -0.011073872 0.17008717 -0.008534897 0.10523849 0.016503662 -0.035791907 0.16899374 -0.15576854 -0.073730074 -0.031886786 0.019307721 -0.03034315 -0.14615647 0.029071221 -0.001223112 0.04174822 0.07451905 0.1424932 0.16521508 0.033466518 0.06501233 0.03053504 -0.030480755 -0.0887937 0.12059942 0.12510283 -0.09032167 0.085870385 0.05086507 0.040176295 -0.039107405 -0.03233172 0.00065089617 -0.07610307 -0.10979961 0.106557526 -0.10408872 -0.17637369 -0.07229107 0.05588324 -0.14793259 -0.031689797 -0.105387755 -0.05512196 0.12178176 0.036663353 -0.11559609 0.1421945 0.16612467 0.009160343 0.02957214 0.15228955 -0.14141394 0.099618874 0.12305105 -0.13399108 0.0040796804 -0.020323792 0.11957031 0.14709339 0.025564477 -0.28253996 -0.31216097 -0.015592436 -0.10225515 -0.22981384 -0.023715297 0.09058423 0.10917636 0.093481824 -0.031667188 0.0025330957 -0.21775012 0.046542317 -0.06807265 0.07454187 -0.00958862 0.07815013 0.11114544 0.010687272 0.024663331 0.02715862 0.038533196 0.05324147 0.06759364 -0.029529098 -0.106679186 0.06575541 0.1605181 -0.043957192 -0.2363558 -0.073339924 -0.014765673
22 0.0661454 -0.093178175 0.34352344 -0.11428686 -0.013499138 -0.15124191 0.09410914 -0.068550155 0.004960508 -0.025099674 0.16913782 -0.034329455 -0.017717563 -0.104704276 0.04080357 -0.2016072 0.03803965 0.16629018 -0.065234 -0.06996599 0.073744684 0.094060324 0.053236578 0.04950178 -0.12061742 0.15723282 0.00054224127 0.13301083 0.021684472 0.032034993 -0.21839944 0.072486505 -0.001760482 0.05296054 -0.10779326 -0.08030851 0.1262105 -0.0130566945 0.085545376 -0.00033885945 0.030631334 0.15535887 -0.1661178 -0.0041010124 0.02474212 -0.065590605 -0.00442532 -0.16922283 -0.012078149 0.025451398 0.1019027 -0.0070498525 0.035017602 0.11703863 -0.12422032 0.039261855 -0.01552779 -0.046998404 -0.09592605 0.16150534 0.1273389 -0.053777568 0.062667236 0.043186557 -0.08310507 -0.16334215 -0.11153933 -0.0518544 0.02698043 -0.0625975 0.11840733 -0.09791881 -0.17426015 -0.0694342 0.0002084336 -0.091952294 0.019613197 -0.11422476 -0.024546217 0.10942344 0.008454391 -0.06951576 0.22611742 0.1832318 -0.0614649 -0.016667435 0.111353114 -0.16024719 0.124689996 0.115687124 -0.19146848 0.01777932 -0.09118678 0.08731522 0.1126603 -0.016864441 -0.1447352 -0.21918352 -0.07243541 -0.081252225 -0.119878344 -0.02240201 0.10284828 0.088527866 0.026102034 -0.027460318 0.03486423 -0.17643933 0.099091016 0.05424739 0.06541751 -0.0065993085 0.06860303 0.14206646 -0.14207168 0.0012042715 -0.008497828 -0.013339697 0.045299858 0.06535801 -0.030431425 -0.10025377 0.036510732 0.1760734 -0.0638954 -0.19576734 -0.20184816 0.004345622
18 0.06677908 -0.0931228 0.35664234 -0.1170709 -0.009303758 -0.15297318 0.09314761 -0.06368076 -0.0029696354 -0.020659184 0.16574137 -0.04075939 -0.02594418 -0.10814124 0.043833707 -0.21336217 0.04242472 0.17264108 -0.061277743 -0.07489428 0.0732468 0.10006377 0.050342586 0.049616124 -0.123743564 0.16521734 -0.0012259934 0.1303056 0.020107009 0.03387374 -0.2274421 0.07891692 -0.0030734083 0.048489325 -0.10720965 -0.094167255 0.12572709 -0.022612387 0.07990695 -0.010257828 0.042029485 0.16199374 -0.18301009 0.008604029 0.024941633 -0.069594376 -0.010204522 -0.17465296 -0.021379482 0.021814 0.11379035 0.0038611798 0.04161889 0.118681505 -0.12161036 0.032943692 -0.009670993 -0.036264833 -0.09192387 0.16761243 0.12613149 -0.06031785 0.077835925 0.051062543 -0.090810224 -0.17413235 -0.1151807 -0.048815124 0.037244305 -0.058773864 0.11681775 -0.08975081 -0.17973252 -0.065946355 -0.009178982 -0.0936656 0.011799855 -0.116063304 -0.030210368 0.10628076 0.0039809523 -0.074700214 0.23368566 0.18774788 -0.058949314 -0.023347052 0.12857692 -0.15526819 0.12519892 0.12901911 -0.19974622 0.020345693 -0.10554463 0.08502114 0.11252945 -0.02416909 -0.142597 -0.22413485 -0.07721557 -0.08058904 -0.11289596 -0.019760503 0.10153874 0.093863204 0.032887593 -0.028294515 0.032523736 -0.18409541 0.101744235 0.06065977 0.07722335 -0.0137133105 0.057690166 0.14854772 -0.16682342 0.013032771 -0.005418018 -0.013425009 0.05335943 0.0848844 -0.038438994 -0.11213446 0.050629556 0.1806293 -0.061757647 -0.214409 -0.2163338 0.014265904
15 0.006117019 -0.037687514 0.18560603 -0.1177302 -0.00081199536 -0.17854148 0.06043173 0.07451346 -0.028909765 0.06646214 0.21320623 -0.104580976 -0.061185095 -0.04334449 0.055328134 -0.2087953 0.08036704 0.17854162 -0.1376187 -0.00977493 0.10499554 0.07247659 0.0664187 0.09988432 -0.093990505 0.13830411 -0.024036622 0.18024397 0.06048203 -0.035290707 -0.29438224 0.049410827 -0.00064672786 -0.005488825 -0.0959258 0.003307194 0.17318712 -0.014897647 0.10733547 0.029739391 -0.045038536 0.17458405 -0.15244283 -0.08845531 -0.034973938 0.028088564 -0.023013081 -0.14314248 0.022183025 -0.010180906 0.03200804 0.07551839 0.16205652 0.17174166 0.06269022 0.07657642 0.04086998 -0.03235255 -0.085339494 0.10851882 0.13022451 -0.090286076 0.07820923 0.051515736 0.0693158 -0.028532866 -0.013435401 -0.004657308 -0.09794446 -0.12357754 0.10670576 -0.1145905 -0.17786427 -0.069631375 0.060208227 -0.1571363 -0.02944777 -0.09106296 -0.05881052 0.12243968 0.043383747 -0.11636392 0.11961159 0.16005063 0.017733924 0.041179802 0.15791315 -0.14243625 0.105158046 0.13117197 -0.1322654 -0.00029062864 -0.013378124 0.1182792 0.15958416 0.031718433 -0.30370694 -0.33197448 -0.017337946 -0.10137921 -0.2463255 -0.03611029 0.10300282 0.11865012 0.11389337 -0.044545382 -0.012943048 -0.24296583 0.03803787 -0.08482738 0.07305025 -0.017534934 0.08352457 0.11600676 0.029787399 0.0387513 0.02042423 0.033318676 0.051745117 0.05957843 -0.037074905 -0.10668478 0.060376402 0.16442956 -0.0469546 -0.25569206 -0.059747856 -0.02599171
12 0.06987594 -0.10177496 0.34965372 -0.10967672 -0.011272024 -0.14592196 0.100249544 -0.080660164 0.0040407255 -0.031749833 0.16103059 -0.030474862 -0.020628441 -0.11011391 0.0476785 -0.20167677 0.040934727 0.15590082 -0.0428724 -0.08360094 0.06473694 0.09296498 0.03462445 0.049642064 -0.1168929 0.16243814 0.0014195208 0.12059411 0.025419561 0.038090855 -0.21061403 0.08540174 0.007868904 0.053189214 -0.09438691 -0.082163185 0.11587711 -0.017032202 0.074982144 -0.0056776144 0.0440167 0.1577253 -0.17491357 0.014108691 0.029728254 -0.07443372 -0.014972674 -0.16210732 -0.019143654 0.02856075 0.11265983 -0.0152386585 0.02769301 0.10191428 -0.13193195 0.021729333 -0.027410617 -0.03312005 -0.095124185 0.15681848 0.12389075 -0.054591045 0.06652834 0.04117809 -0.09869642 -0.17925936 -0.12378703 -0.0506358 0.040869836 -0.05701786 0.11143621 -0.09364207 -0.16875634 -0.0698571 -0.010142629 -0.078980654 0.015504562 -0.11463791 -0.027498957 0.08940256 0.0023984401 -0.07463048 0.22267976 0.18310477 -0.055363942 -0.029840918 0.115274705 -0.16144654 0.12208954 0.123372145 -0.19332927 0.03504497 -0.09833231 0.084568135 0.10939652 -0.023970088 -0.125745 -0.21051516 -0.07065169 -0.08357991 -0.097716495 -0.028141778 0.09801224 0.0749124 0.024308573 -0.032514583 0.029070456 -0.1573623 0.11281106 0.06780852 0.070290565 -0.012932184 0.06252577 0.13062882 -0.16923204 0.00282469 -0.010974164 -0.010002194 0.035767958 0.07623555 -0.02546965 -0.10081613 0.03710899 0.16972515 -0.070248365 -0.18411103 -0.20165522 0.013768719
