10312 16
10310 0.6112428 0.03193876 1.3940922 0.5507054 0.23242152 -0.29518047 1.7936143 0.25296685 -0.5532042 -0.08141129 -0.7096447 -0.34772173 -0.16478968 -0.6859541 -0.9147805 0.040613793
10297 0.92169785 0.15509357 1.2969306 0.39535236 0.42632306 -0.18484774 1.7791927 0.5510918 -0.49574 -0.22617888 -0.5358394 -0.38926584 0.315572 -0.7781754 -0.8175601 0.13270393
10298 0.45866153 -0.052991413 0.95799917 -0.15231037 0.21581703 -0.005651557 1.6154841 0.62159455 0.019121751 0.2661506 -0.4858312 -0.1522474 0.16062889 -1.0397983 -0.79693776 -0.93052274
9997 0.27193797 -0.86964417 0.2979212 0.29715148 0.37635505 0.08585143 1.6953007 -0.24065508 0.034911636 0.5251359 -0.40895662 0.27816358 0.1732679 -0.30728868 -1.0324583 -0.27796867
10271 -0.26890793 0.31839886 0.801198 0.2129146 0.36818054 0.30803704 1.1911309 0.772853 0.81054527 0.2483479 -0.3227787 -0.07320992 0.73902404 -1.3576415 -0.3641072 -1.2868388
10303 0.7158523 -0.009038931 1.3416096 0.6937684 0.51844376 -0.31957772 1.6988701 -0.16864333 -0.5739387 -0.22766891 -0.34988496 -0.5609718 0.13142237 -0.59174496 -0.70190114 0.3628561
10269 -0.5639522 -1.314752 0.4949043 1.1570104 -0.30491853 0.09569459 1.1378392 -0.16359471 0.44252077 0.19234775 -0.26730728 -0.6369639 -0.47235844 -1.0546294 -1.08642 -0.69008005
9919 0.3598272 0.014071988 -0.1352801 0.8251238 0.34987834 0.7660251 0.7815995 0.8802401 -0.62521267 -0.46258476 -1.1291362 -0.70415777 -0.19953781 -0.3020829 -0.64474404 -0.27205124
10225 -0.06004095 0.7514652 0.40006313 0.8379257 1.0808029 0.35557222 1.1375468 0.8841526 1.1393148 0.1286182 0.012198793 0.4073425 0.6711618 -1.6312754 -0.8059168 0.3597422
10146 -0.45350125 0.1634172 -0.34608966 1.0376729 0.69880277 0.866493 1.3589585 0.13399819 -0.7540474 -0.16240218 -0.45356128 -0.10356001 0.85085917 -0.51787305 -0.79383236 0.41422492
9526 -0.24834628 -0.60140884 0.71223974 0.11262037 0.34451616 0.03597466 1.4893006 0.10903159 -0.18784358 0.12715067 -0.21203311 -0.52625835 0.37381083 -0.20877893 0.0030020364 -0.38810578
10272 -0.25213763 0.21493036 1.1813318 0.01942779 0.13834879 0.28822947 0.9857208 0.03890171 0.7364481 -0.48522943 -0.51938444 -0.15538849 0.6919283 -1.8038149 -0.017715676 -1.3592805
9844 -0.6342393 -0.14320107 0.74169445 0.38825217 0.3226599 -0.66509724 1.5936079 0.6091858 -0.3032049 0.15591046 0.13642186 -0.42673925 0.48442283 -0.104052246 -0.6347496 0.015890673
10143 -0.18313003 0.4769198 -0.5471144 0.8009879 0.20702952 0.15064268 1.9090345 0.54468447 0.23048292 -0.34573743 -0.7275263 -0.32745203 -0.47986218 -0.64228797 -0.69310725 -0.34807107
10276 -0.776953 -0.69888407 1.2744405 1.1947113 -0.22279401 0.895985 1.7487534 -0.9157364 -0.31519446 -0.12318634 -1.0502783 -0.4272775 -1.2107179 -0.94916123 0.23547962 0.024708781
10282 -0.65962493 -0.15411575 1.3150333 0.13968821 0.31034967 -0.10038276 1.2154909 0.54659355 1.0856367 -0.04923552 -0.57083994 0.4717716 0.5222839 -1.5637865 -0.6026846 -1.4704509
10275 -0.33525136 0.34342825 0.7808317 0.10637462 -0.075756 0.017511772 1.4966991 0.26616928 0.94844013 -0.3172532 -1.0527382 0.03481846 0.87829053 -1.806879 0.31228748 -1.3824067
8157 -0.39288154 -0.36334518 -0.044887416 0.15523477 0.66529053 -0.1330055 0.6923879 0.38925916 -0.06305966 0.0211517 -0.4490595 -0.27601302 0.21352625 -0.5100894 -0.12677568 -0.17303696
10140 0.0011845212 0.8454826 0.3256285 1.4939452 0.7648788 0.10065778 1.2254143 -0.1391348 0.72782475 0.16637126 -0.6147152 -1.2090149 0.07976987 0.19355829 -1.0666821 -0.22630636
9674 -0.36543575 -0.74671507 -0.13105687 0.7321963 0.37098914 -0.8152687 1.6451718 -0.055373482 0.9752588 0.24650559 -0.0997245 -0.08833054 0.39799908 -0.20233701 -0.40185514 0.25262684
8859 -0.09854914 -0.4055037 0.13108777 0.56101334 0.26265225 -0.2906492 0.8714944 0.5560196 0.11021855 0.5028669 -0.28266206 -0.0076773204 0.20494415 -0.6159471 -0.24728014 -0.5813315
10283 -0.54217666 0.15525052 1.1249675 0.011698529 0.061909787 -0.12799877 1.0184768 0.19534561 0.65698284 -0.2913546 -0.8039262 0.06507516 0.85373455 -1.8035586 0.22667868 -1.529272
8270 0.030614186 -0.35680467 -0.26926813 0.46151006 0.45313233 0.594593 0.79293275 0.18464842 -0.44850266 -0.08588597 -0.3867021 -0.49867016 0.5336775 -0.592446 -0.36758238 0.009758023
9188 -0.30912492 -0.14563279 0.23054221 0.58890945 0.42755643 -0.37825722 1.1251203 0.34410986 0.30552334 0.40267366 -0.3239429 0.02205683 0.06900867 -0.32880345 -0.054845095 -0.20847969
9358 -0.14613163 -0.6732541 0.33100906 0.34038633 0.19658254 -0.17752047 1.1881851 0.5558482 -0.023253795 0.22822243 -0.42583972 -0.42778006 0.2982911 -0.46908346 -0.63369465 0.07943262
10226 -1.4582583 0.47123054 -0.39744678 1.0569286 0.96805465 1.2715218 1.4589677 0.12048803 -0.8505339 -0.48433346 -0.6030844 0.1436991 0.52715826 -0.27120787 -1.0970533 -0.24262337
10013 -1.2613513 0.2881536 0.18065451 0.9144736 0.070256226 -0.40006158 1.6142707 1.2067089 -0.31357884 0.4128417 -0.068810955 0.28334522 0.030901134 -0.51378214 -0.3862573 -0.16484629
10300 -0.58457744 -0.44919297 1.1823726 0.08223124 0.60094815 -0.038290285 1.1734996 0.24584626 1.0325683 -0.1455251 -0.62506294 0.36151552 0.1494764 -1.5002928 -0.6154823 -1.4951302
10045 -0.20360886 -0.6869353 0.45140713 -0.105624236 1.3697332 0.60270756 1.6036953 0.72713125 -0.14839463 -0.4845417 0.31569436 -1.0301926 -0.1460271 -0.41691974 0.26179197 -0.53693867
10299 -0.26821226 0.7571614 1.0004343 1.4039431 0.40217772 0.461354 0.9892666 -0.17275356 -0.08945429 -0.6145684 -0.9963086 0.40384012 1.525452 -0.9810126 -0.44127542 0.33994046
10311 -1.3596864 0.21982923 0.27111888 0.9433592 -0.4696842 -1.031155 1.2106282 -0.72668487 -0.54569894 -0.6184092 -1.7027589 -0.16543472 1.0150825 -1.3936359 -1.228802 -0.88799405
10250 -0.63668656 0.23322219 0.5586601 1.1920141 0.9886174 0.7027497 1.3888842 1.0313213 0.5004089 -0.41769078 0.088241085 0.81073457 1.1257778 -1.1446179 -0.9838037 0.4950123
10110 -0.81940943 0.1765036 0.15203656 0.5091524 0.23451169 0.9061109 0.5824322 0.5263741 -0.46489665 0.527269 -1.0570031 -0.9983257 -1.3831882 -1.3789989 -0.80671877 -0.07276649
10094 -0.2963801 -0.15784419 0.71028894 0.7130712 -0.5489788 0.4830095 1.0899183 0.8905457 0.08949765 0.8819681 -1.2818737 -0.5099087 0.71427697 -0.75613964 -0.718463 -0.050194588
10063 0.045884065 0.7994841 -0.030727617 0.78455937 0.49488366 0.91861296 1.5625683 0.28701964 0.3059011 1.0008073 -0.21776162 -0.5816468 1.2943126 -0.29930365 -0.38332054 -0.3663395
10182 0.184763 0.5120885 0.02621749 1.131352 0.11753748 0.7800718 1.6228276 -0.26027542 -0.7557349 -0.9372433 -0.18450502 -0.43086633 0.94095516 -1.3400718 -0.63593334 0.76863277
10304 -1.219178 -0.74574214 1.7616313 1.1906495 0.22363867 0.5557865 1.6338861 -1.1946161 -0.5923754 -0.6036257 -1.6404512 -0.17561296 -0.82197356 -0.8079453 0.80845886 -0.14196958
9465 -0.41774586 -0.83423924 -0.05977571 -0.22889838 -0.0059044473 -0.28319296 1.607907 0.41813377 0.31231 0.13333036 -1.2569577 -0.42940584 0.049274705 -0.5975013 -0.07520909 0.6264626
10288 -0.20346288 -0.99456865 1.5514596 1.2308651 -0.5406683 1.1318297 1.8757263 -0.58638376 -0.40398407 0.11085475 -1.2223327 -0.4670323 -0.4782045 -0.9232633 1.1886936 -0.23987073
10058 -0.28451565 -0.9468866 0.23744778 0.18027376 0.25352734 1.3203986 0.5562542 1.4012475 -0.30022293 -0.22052264 -1.0165071 -0.84954983 0.13645531 -1.0380055 -0.3900085 -0.3651542
9890 -0.26289284 -0.46261734 0.8169501 0.19123976 0.5191564 0.6645498 1.0692242 0.61829907 -0.92502326 1.0106237 -0.08224374 0.088035315 0.3840213 -0.7357777 -0.71689045 -0.7227401
10215 0.08383962 0.42467853 1.0590421 0.4764994 1.1865497 0.5156749 0.92538303 0.98973995 1.4230831 0.57502854 -0.5344714 -0.53433365 0.46123263 -1.8232216 -0.38108894 1.5320964
10248 0.13852532 0.66564155 0.054236908 0.78771144 0.52790785 0.17512886 1.2954259 1.2275748 1.5651697 -0.004714869 0.031053498 0.50616634 0.45561975 -1.9881124 -0.49148995 -0.33329418
10238 0.6221996 0.46439555 0.10028606 1.2768481 -0.36720625 -0.021793704 2.4093416 -0.43101728 0.48170924 -0.2954802 0.16287035 -0.7895527 0.07709174 -1.4401315 0.010116963 0.30105084
9420 0.0051042764 -0.72355175 0.74884135 0.46756935 0.198373 -0.34704164 1.0718714 0.35037363 0.28539628 0.46889195 0.1623371 -0.09304458 0.35402825 -0.50235075 -0.39521816 -0.46791798
8868 -0.2571827 -0.21904014 0.17608285 0.599948 0.22091869 -0.0057818675 1.1830723 0.42674956 -0.3238672 0.40364435 -0.046951972 0.1006719 -0.14474136 -0.40938708 -0.16387129 -0.5206678
4997 0.0011683113 -0.0962036 -0.19938931 0.8023907 0.76343864 -0.108557105 0.4164788 0.034974907 -0.027085474 0.14583646 -0.57990783 -0.17400156 -0.015879191 -0.5416414 -0.08036802 0.016227813
9935 0.6667593 0.028080296 0.16155975 1.4821638 0.53946674 0.90868443 1.1981487 1.17151 0.29291183 -0.6106131 -0.46796104 -0.40294445 0.36568782 0.20613475 -0.43932682 -0.39267546
9905 -0.8204452 -0.10333904 0.58340484 0.6987891 0.06693765 -1.0386361 1.2188628 1.0639321 0.3927155 0.59119064 -0.59580785 -0.33640835 0.15901315 -0.30939204 -0.39131203 0.10930731
10219 -0.6142295 -0.25150096 1.3680241 0.077150196 0.78876287 -0.4805543 1.2961432 -1.1814224 -0.5259914 -0.2178333 0.13955174 -0.16490647 1.1646249 -1.8119757 0.8919988 -0.3045586
10247 0.3007099 0.9812428 0.9572964 1.116959 0.9606411 0.26733407 1.4334227 0.5258194 0.9718628 -0.71114016 0.4077751 0.05529888 0.9998304 -2.2031806 -0.5901474 1.2851443
10109 -0.49945584 -1.3996626 0.24259286 0.54909766 -0.24213187 1.0899385 0.7432168 0.17814344 -0.31473714 0.75365335 -0.6068586 -1.1173767 0.79334575 -0.9770519 -1.1709669 -0.48081535
10124 -0.89221555 -0.43066525 -0.41649452 1.0475831 -0.50171024 1.7836978 1.4552981 1.0310868 0.6058338 0.5594707 0.021968462 -1.1530613 1.154906 -1.4794295 0.5493255 -0.18098864
10284 0.32388997 -0.8706085 1.0524935 0.9295255 0.118189305 -0.32710016 1.2324944 -0.20959988 0.16784802 -0.5961094 1.2053453 -1.6454133 -0.15716007 -1.9276257 -0.73991424 -0.709324
10301 -0.9664521 -0.30155295 0.21073423 0.95693445 -0.5702805 -0.6410442 1.0337636 -0.8553245 -0.21373068 -0.39948368 -1.0021933 -0.6903726 -0.73067516 -1.7145765 -1.2682946 -0.33835396
10048 -0.47020993 -0.589731 1.8230956 0.3389163 0.877562 0.5083846 0.51530594 0.49722558 0.08721989 1.3729122 -0.6677838 -1.1458592 0.012921431 -0.87995493 -0.4780242 0.3457613
10291 0.15029797 0.7976515 0.41460487 0.6132618 -0.6787991 -0.3253321 1.587137 -0.49192306 -1.0147746 -0.23096211 -0.18234898 -1.5245192 -0.04130888 -2.5342534 -0.3475889 0.3266319
10305 -1.4343939 0.024076233 -0.303389 1.121034 -0.25031915 -0.22104879 1.1586511 -0.54375666 -1.1271836 -0.82881725 -1.1289284 0.054632954 1.3853014 -1.4434427 -1.1659698 -0.35932013
10273 -0.27341944 -0.2102103 1.2172159 1.870781 -0.48438898 -0.42476675 1.0144081 -0.8905817 0.5411385 -0.5485787 -0.6383682 -0.044678356 -0.055806722 -1.4912688 -0.4497082 -1.0641056
10227 -1.6188505 -0.31272057 0.52766174 1.3245859 0.6515409 1.1845245 1.8278533 -0.6484665 -0.6962244 -0.6026816 -0.6788489 0.021637164 -0.2190017 -0.3755868 0.4967321 0.5372195
10295 -0.033474654 -0.75334185 1.5319663 1.721271 -0.014425828 -0.058597934 0.5650735 -1.114275 0.95252365 -0.57410765 -0.8203673 -1.0337882 0.17505802 -1.1469327 -0.32949802 -0.7922375
10289 -0.31882983 0.3183025 0.86586136 1.1715167 0.8134221 0.29205725 1.1759417 0.19630653 0.5762566 -1.0943613 -0.61684215 0.98306 1.0559846 -1.5492857 -0.46367303 0.03664362
9876 -0.21997786 0.076446004 0.8825797 0.47810936 0.10045288 -0.60216576 1.5044962 0.36985275 0.34733918 0.4222962 -0.37603256 -0.38323364 -0.07680459 -0.45486414 -0.6008493 -0.54588735
9105 -0.05680846 -0.43338823 -0.29943496 -0.32874042 0.5195714 -0.026147945 1.2650476 0.10351338 0.06000314 0.54720795 -0.98527664 -0.77148914 0.26592004 -0.55854523 0.25630295 -0.14854553
7806 0.20173407 -0.2429339 0.32903957 0.5318478 0.41909823 -0.20180836 0.6655893 0.57682794 -0.027925476 0.5893264 -0.23295525 -0.010873303 0.10832825 -0.49292442 -0.17894113 -0.677886
8476 -0.20650199 -0.24499853 0.35048804 0.3500267 0.32319427 -0.12062607 1.0280555 0.5650059 -0.08209638 -0.011814365 -0.35329127 -0.20670107 0.17953683 -0.46706304 -0.1749493 -0.35290182
8234 0.0927042 -0.39587665 -0.052058242 0.4345256 0.36501467 0.10724472 0.8173339 0.3583789 -0.15670936 0.108182505 -0.4934132 -0.1473182 -0.042673856 -0.6220617 -0.019719314 -0.43650675
6873 -0.079739325 -0.23213992 -0.23606655 0.7898097 0.60278285 0.036063418 0.44776386 0.48248503 -0.010517949 0.1883319 -0.26578236 -0.17269872 0.46687755 -0.50271845 -0.038868096 -0.1395158
10167 -0.23086523 -0.32448864 -0.33640435 0.14973232 1.6184586 -0.02621452 1.1940444 0.051916145 0.6722237 0.5122312 1.8683016 -2.1854935 -0.52430964 -1.7963859 -0.027630186 -0.580235
10123 -0.37744695 -0.15838483 -0.6033743 0.87038004 -0.6201974 0.6187364 1.7944658 0.34515864 -0.10831826 1.057417 0.32806018 -0.99744433 1.2563691 -1.2799716 -0.035259165 0.02522213
8525 -0.07761368 -0.7085504 0.15887606 0.54511243 0.37109995 -0.16766757 0.90894777 0.18326576 -0.093292445 0.40304145 -0.1607019 -0.30144528 0.31029838 -0.22897646 -0.21688348 -0.28383878
8911 -0.35408118 -0.2940298 0.2429996 0.23736127 0.92364144 -0.38423523 1.0919802 0.20219895 0.39801648 -0.6646319 -1.1441643 -1.0253268 -0.051094957 -0.03529098 -0.25698727 0.2567649
9480 -0.43621683 -0.7383948 0.53753245 0.47290465 0.34275752 -0.21803045 1.6988833 0.328891 0.056639995 -0.13137004 -0.10026666 -0.4734501 0.75157297 0.20415689 -0.36774296 0.03264787
7989 -0.040322162 -0.46181926 0.3586546 0.8348799 0.12865813 -0.25254607 0.8690775 0.008729013 0.023229126 0.39610368 -0.49162906 -0.018736541 -0.09437065 -0.5065619 -0.07346427 0.08768354
6141 0.3338615 -0.27829972 -0.05143818 0.80814457 0.8257308 0.07908995 0.38031828 0.23091634 -0.1220535 0.3099425 -0.2539893 -0.23706228 0.035093144 -0.6735488 0.14239652 0.1914301
10306 -0.2397535 -1.298877 1.1522889 0.8527844 -0.19077173 0.11845428 0.49260557 -0.54949117 0.35962406 -0.71414703 -0.5189772 -0.7233448 -0.054324985 -1.7417918 -0.28641436 -0.8283024
9653 -0.18071447 0.21584845 0.47448835 0.2862586 0.20773594 0.01752162 1.3957504 0.028717168 -0.16664866 0.9582621 -0.5530531 -0.04345989 0.5992721 -0.34991354 -0.5743438 -0.37135988
10068 -0.52933025 0.46513298 0.755969 0.9142914 0.41316286 0.38677737 1.1064035 -0.67857736 -0.13299008 0.1319208 0.47256124 -0.33489978 1.0396777 -1.8047056 0.92761403 -0.3782802
9872 0.21241531 -0.85552794 0.034545623 0.09219318 1.0964234 0.3735511 1.8022197 0.0030000415 0.4859007 0.28051248 -0.034955803 0.8658404 0.010401763 -0.4279107 -0.3933493 -0.744807
4839 -0.23063695 -0.27310678 -0.031126432 0.46954992 0.7294112 -0.22184096 0.5740643 0.060090594 -0.1298248 0.1891193 -0.2510727 -0.29479653 -0.089480236 -0.4332462 0.06141172 -0.28900164
6959 0.3253761 -0.29056635 0.06385814 0.71244466 0.708829 0.3840171 0.55734456 0.3462149 0.059228852 -0.02384929 -0.33531275 -0.19241963 0.08734715 -0.57170165 -0.13327496 -0.18657967
10286 -0.34812865 0.6679063 -0.5169329 0.380982 -0.3494834 -0.40093347 1.7372134 -0.21092252 -0.6548145 -0.20541084 -0.99407643 -0.9467577 -0.99711585 -2.0113444 -0.8323723 0.074526496
9216 -0.08943584 -0.7804393 0.7241483 0.9737778 0.33294097 0.15598086 0.59383446 0.3309943 0.016435353 0.786892 -0.17138828 0.43484092 0.5122594 -0.52538353 -0.73114413 0.10586971
7098 -0.0696677 0.012448145 0.23833577 0.6011291 0.33841854 -0.27549866 0.85972124 0.18234931 -0.06078312 0.39479467 -0.20919785 -0.27910978 0.33803222 -0.46148577 0.008121248 -0.2945367
9978 0.36400664 -1.1901478 0.010992967 0.1847477 0.48629224 0.60086757 1.5429728 -0.5662841 -0.15802908 0.97980374 -0.5609304 -0.020089265 0.8256079 -0.6112604 -1.221492 -0.07941644
9172 -0.5813226 0.22684143 0.18468072 0.58604306 0.40150285 -0.107481554 1.1883905 0.20651385 -0.3881779 0.43514848 -0.60405636 -0.20706591 0.025034292 -0.09177235 0.041838035 -0.5022842
7922 -0.24286664 -0.2790184 -0.07336936 0.29904306 1.0386493 0.06683157 0.62673914 0.12363613 -0.12708609 0.076018035 -0.7656952 -0.49430686 0.189986 -0.2955657 0.07744286 0.2457434
8302 -0.07537315 -0.5995032 0.24911664 0.3544012 0.4543299 0.032742552 1.0364859 0.22758555 -0.02209098 0.12451503 -0.17155296 -0.18391049 0.011834212 -0.34530663 -0.21868071 -0.24433428
10279 -0.16741925 -0.8423021 1.1251199 1.3680364 -0.41183186 0.018807476 0.74317276 -0.45791128 -0.075492315 -0.46699145 0.11610405 -0.931042 -0.20581983 -1.8140193 -1.2331443 -0.10414214
9685 -0.45866948 -0.729756 0.09266887 0.562459 0.4058106 -0.9252059 1.5287784 1.2849034 -0.21953598 -0.77417606 -0.08841489 -1.0275925 -0.14668356 0.10257802 -0.2168998 0.2157058
10192 -0.7438951 -0.5410705 -0.6609951 1.1197642 -0.09517843 -0.27613217 1.2649386 -0.5122237 0.04153813 -0.46299613 -0.013338303 -0.6607366 0.03579671 -0.93965745 -1.6324944 -0.6483344
9794 -0.28756213 -0.06217532 0.68007785 0.6502795 0.30320594 -0.20531939 1.5519831 0.44897613 0.49304003 0.6941901 -0.32255012 -0.07795206 0.0046543237 -0.27764308 -0.16792157 0.22949573
10180 -0.8271874 -0.2034764 0.12259842 0.63036376 0.69561076 0.24237427 0.027796129 0.0988155 -0.15919204 0.22064653 -0.46232617 -0.95173985 -1.324877 -1.9999931 -1.5456635 -0.17361568
10104 -0.6947313 -0.85726243 0.03658184 0.3499007 0.22363408 -0.26915863 0.6864023 0.6598519 0.7533602 0.7477333 -1.0316124 -0.1862189 -0.08119317 -1.4479471 -1.326565 0.72218466
9517 0.28371376 0.2055901 -0.019018382 -0.06374325 0.117133796 0.13696685 1.6625643 0.458385 0.11160696 0.93795395 -0.8784548 -0.35032856 0.07993309 -0.47525764 0.20225117 -0.09567793
10184 -0.6653876 -0.57303435 0.9681327 0.6673551 0.43111837 0.21932523 0.57925475 0.28692967 0.22075348 1.2675575 0.07011923 -1.6929896 0.5250477 -0.827284 -0.6212307 0.14079407
10270 -1.0216162 -1.1336008 0.91422474 0.9538494 -0.16568536 -0.036204647 0.9169653 -0.013790955 1.0167336 -0.13223693 -0.3467466 0.02723147 -0.52519476 -1.9670922 -1.1869587 -1.0986425
10230 -0.61257666 0.5285691 0.57813334 0.93226254 0.7933878 0.67800456 1.8057818 -0.38220894 -0.9531245 -1.4372355 0.15746093 -0.21878326 0.58775324 -1.0310768 -0.9053115 0.19357471
10178 -1.0724837 1.4126385 -0.37926984 1.3217199 1.1516764 -0.6731984 1.4796122 -0.38480413 -0.26939765 0.008720446 -0.49107277 -1.1664928 0.4055452 0.16511336 -0.64828813 -0.10986999
9964 0.08141217 0.08851269 -0.18861659 0.17216499 0.67728037 0.6748903 2.1851726 -0.83886546 0.3244748 1.1903989 -0.9068642 0.38550183 0.29926023 -0.41696602 -0.2710171 -0.40122
10214 -0.018983806 0.14149779 1.0060006 0.8054446 1.1063219 0.42343968 1.0307931 1.0859532 1.3566191 0.10234885 -1.0595181 -0.5970503 0.288919 -1.7103089 -0.63692284 1.902466
9692 -0.006902092 -0.9078446 1.048591 0.71027476 0.9289449 0.2534368 1.038475 0.26613998 0.73418164 -0.21916895 -0.26120847 -1.2230808 0.616437 0.35625482 -0.65550834 -0.5859116
8095 0.0844824 -0.65018487 0.37621585 0.39250922 0.4189077 -0.31502172 0.67741066 0.2822138 -0.105478056 0.2587613 0.024137381 -0.1637593 0.62400097 -0.60329336 -0.40089068 -0.028130801
5450 0.07503904 -0.12763362 -0.19851372 0.9728734 0.4306383 -0.13619116 0.41106337 0.2819578 -0.31388694 0.33168295 -0.29670733 0.12339805 0.10121466 -0.7075697 0.1635481 -0.26800692
10194 -0.20023057 1.3908317 0.059559748 1.1960425 0.91249883 -0.030674744 1.5438768 0.81083095 1.0976949 -0.5639564 -0.68197656 -0.3953356 0.1946382 -0.7762589 -0.84271145 -0.046240542
9533 -0.39895716 -0.90969336 -1.3433512 0.46961245 1.5708688 -0.013312043 0.2706382 -0.27278307 -0.26648578 -1.1780263 -0.583346 -1.1544526 0.516624 -0.9964771 0.4762658 0.3347669
10083 -0.8166299 0.0917731 0.0036008235 1.0741987 0.16265962 0.8723244 1.0343703 0.051191263 0.5537048 1.098343 -0.9933293 0.158561 0.79873544 -0.6580031 -1.0002171 0.13399601
9548 -0.72763604 -0.30847248 0.90583557 0.0716474 0.10448625 -0.15810086 1.587423 0.5202837 0.20668462 0.44407293 -0.8894089 -0.5175794 0.62499547 -0.101987846 -0.060047496 0.042594098
9802 -1.072886 -0.2533226 0.58596826 1.0672216 -0.2278679 -0.7675688 1.5324583 1.4351718 0.20443903 0.052140605 -0.609681 -0.7550242 0.30811757 0.074229434 -0.057175692 0.24323845
7373 -0.20259956 -0.642947 0.4617443 0.46632928 0.020770285 -0.29400966 0.8743904 0.52240753 -0.12264278 0.27897453 -0.5566441 -0.21994653 0.36614498 -0.24198683 -0.16578367 -0.27379858
9607 -0.44385698 -0.2673568 0.47288907 0.36371747 0.49306995 0.1831229 1.5280665 0.29762924 -0.24512759 0.38260362 -0.5489991 -0.12685506 0.3289466 -0.1560421 -0.51272404 -0.039675802
9311 0.6268312 -0.21554808 0.25626564 0.5651413 0.9222468 -0.38673544 1.0865746 0.29096153 -0.11205252 0.448976 0.30383316 0.016494563 -0.15973544 -0.17336224 -0.12875298 -0.3924352
10162 0.14525442 0.0023792875 1.0243752 0.6241411 0.9135365 0.18154123 1.0215143 0.9065454 1.3472873 0.0058566104 -0.8565103 -0.46089083 0.28439322 -1.5231478 -0.5233334 1.6369238
8775 -0.1049453 -0.009805266 0.43792772 0.48733148 0.44192317 -0.44752473 0.800034 0.42397454 -0.012364499 0.6145294 -0.304355 -0.14943108 0.02924053 -0.62116915 -0.33813176 -0.22644009
5705 0.22208692 -0.46298355 -0.122481644 0.621774 0.74650264 0.014608241 0.4893407 0.1904945 0.073336884 0.049783982 -0.48374283 0.015822895 0.25752032 -0.67936957 0.14387637 -0.14111428
9803 -0.33389932 0.17555277 0.64092886 0.4114212 0.31331384 0.1470808 1.1974806 0.07399098 -0.4374598 0.7359847 -0.6050641 -0.46076196 0.732566 -0.3729036 -0.9166204 0.033957995
8736 -0.106739014 -0.39962637 0.0005927263 0.32419008 0.29127398 -0.313764 0.9907774 0.27525496 0.16125563 0.07107926 -0.37304512 -0.2242491 -0.080266714 -0.6193663 -0.5286712 -0.5733189
10073 0.13248546 0.7233793 -0.021632178 1.591914 0.8126141 0.4961743 1.6001825 -0.17344795 0.70546746 0.09686596 -0.3101973 -0.8174432 0.45591444 -0.15479669 -1.1067089 -0.57191575
10209 -0.9585535 -0.5378966 -0.30263132 1.5311028 -0.28486603 0.12418746 1.8692812 -0.016298968 0.5462254 -0.20874472 -0.2221482 -1.0996728 -1.5148444 -0.6509437 -0.0934931 -0.9797577
9824 -0.094252095 -0.28874964 0.5918262 0.38085198 0.37678552 -0.37206945 1.1778777 0.45387772 0.26905113 0.27561182 -0.5407329 -0.26149458 -0.097461104 -0.28616577 -0.74194306 -0.021162696
8967 -0.7516084 -0.5200587 0.4772265 0.3826682 0.07900057 0.2755339 1.2211808 0.6087773 -0.57993716 -0.03925582 -0.18706547 -0.8811616 -0.06159827 -0.34975135 0.23590785 -0.6810619
9969 -0.107521646 0.17892835 -0.23995107 0.030493304 0.8538091 0.78191483 1.7449876 -0.19585016 0.3197497 1.3116318 -0.40080082 -0.46335733 1.0331413 -0.30655247 -0.15540443 -0.40713912
8471 -0.29816595 -0.45914495 0.36532706 0.33172268 0.54002225 0.0218184 0.94232124 0.22853385 -0.069202654 0.0810388 -0.27092257 -0.5365254 0.27123713 -0.4079432 -0.30654103 -0.12227646
10249 -0.5813905 0.18796228 1.1624424 1.5431328 0.8791217 0.2796574 1.00212 -0.37611485 -0.04798755 -0.593025 0.8299752 -0.26738602 0.012698917 -1.4897325 -0.47219408 0.3948812
10070 0.3242089 0.27011013 0.9568798 0.6347854 0.6679861 0.5162386 0.8431752 -0.56696546 0.7962846 1.1283075 -1.2914637 -1.2992641 -1.2949494 -1.1085441 -0.71631974 0.097929485
10175 -0.1623878 -0.77831334 1.1716594 -0.23979148 1.6648836 1.0002993 1.3014117 0.56018025 1.2680928 0.7800113 0.4554081 -0.06426228 0.13957655 -1.7634459 -0.075352214 0.24708135
9815 -0.58615345 -0.23257232 0.80012125 0.34678465 0.48713386 -0.33812428 1.9019022 0.19926074 0.3134502 0.49835834 0.17351131 -0.3600208 0.6302906 0.15826726 0.026038535 -0.5546211
10134 -0.64509195 0.037895225 0.44130197 0.65560067 0.670665 0.14449573 0.13326393 0.34884137 -0.38276193 0.2757768 -0.6215256 -0.7491482 -1.3829072 -2.056821 -1.7600249 -0.43747807
9972 -0.9885726 0.51399034 0.7813226 0.48813087 0.23119807 0.11030227 1.144324 0.5614705 -0.28270903 0.7970285 -1.123021 -1.2033174 0.7982331 0.0449168 -0.66713566 -0.36078474
3339 0.13396986 -0.2697089 -0.14331412 0.7441541 0.6700099 -0.14327748 0.14582834 0.41578934 -0.27996755 0.08363508 -0.5114504 -0.33854336 0.021600937 -0.7568467 0.36936027 -0.044542294
9937 0.6550609 0.27715436 -0.19938768 1.1301428 0.8491988 -0.2049015 1.2172334 0.34180185 -0.4646881 0.26158944 -0.0778263 0.47747374 -1.1071099 -0.8772353 -0.867591 0.12039828
9942 -0.83545387 0.004333762 0.6694974 1.2995558 -0.040860184 -0.23630296 1.8375831 1.4477706 0.6715355 0.41495892 -0.61993086 -0.672826 0.033143714 0.24948491 0.5188889 0.5875253
10021 -0.03742995 -0.66547936 -0.3789799 -0.2670959 0.88196266 -0.71489245 1.2041619 -0.66914445 -0.3059133 -0.07142942 -0.5665937 -1.1223661 0.8185883 -1.1297356 0.6450331 0.98172
10241 -0.6137542 1.5759609 0.21526009 1.6803112 0.91655153 -0.69372004 1.0602324 -1.0182729 0.46479362 0.13413714 -0.6723026 -0.88826734 0.6473051 -0.81027687 -0.15183592 -0.33760375
10034 -0.7622868 0.2161804 0.254755 0.38430536 0.11899487 0.8544779 1.4507143 -0.010122262 -0.25635397 1.1262007 -1.3459545 0.09219971 -0.05698915 -0.647797 -0.5404007 -0.11683834
3561 0.09978233 -0.2734644 0.0091700675 0.49504557 0.77119267 0.022017943 0.31350082 0.14077237 0.052708656 0.35543734 -0.4967139 -0.4149972 0.14746907 -0.51833385 0.026413081 -0.11108214
9481 -0.31996775 -0.3850181 0.6884001 0.87363094 0.18704657 -0.14550997 1.4137723 0.01907036 -0.5845044 0.18076488 -0.7058505 0.0990299 0.15181732 -0.026165495 -0.41559115 0.21544307
10264 -0.8372386 -0.2933849 -0.406775 0.71997184 -0.3056965 1.7372178 1.51252 0.99246466 0.9669179 0.3952783 0.2050533 -1.0237185 0.92755526 -2.202152 0.53855807 -0.60631996
9123 -0.29171455 -0.7288633 -0.47307265 0.1369531 0.73038644 -0.12839144 1.3557422 0.26146212 0.449396 -0.27019003 -0.92817086 -0.5392094 0.20687208 -0.23536214 0.14101876 0.7645816
9479 -1.143292 -0.34918123 0.7314206 0.34885937 0.556492 -0.033442233 1.4321136 0.6697697 -0.4006292 0.39041045 -0.24215132 0.18662418 0.09141583 -0.14339662 0.021008568 -0.07414286
10267 -0.7090722 -0.9801192 -0.08697691 1.3865929 -0.6642388 1.8648313 1.7123363 0.37165847 -0.09823782 0.56406087 -0.07434074 -0.78052175 0.5484073 -1.839321 1.1690528 0.35253954
10257 -1.15977 -1.9609357 0.067454346 0.9423062 -0.34949228 0.21300143 0.4988544 0.92373353 0.40767905 -0.43524143 -0.25341058 -0.9338073 -0.76163065 -1.7463766 -1.3599026 -0.13501711
10059 -0.14556885 0.054366715 -0.2199124 0.5349585 -0.39231017 -0.21337798 1.8706473 0.8978505 0.9144752 0.3903332 -0.58819544 -0.63909155 0.5226466 -0.6941136 -0.45221058 -0.22155546
9098 -0.68537766 -0.043360632 0.23826864 0.14409776 0.3527362 -0.2468155 1.0567524 0.4128958 -0.35625234 0.22378919 -0.57902277 -0.13057931 0.074972995 -0.7087968 -0.20753744 -0.06921191
10093 -0.21231732 1.273841 -0.06696651 0.55656916 1.796994 0.9869955 1.5269475 0.3724576 0.8777134 0.5073587 0.05970639 -0.20095506 1.1688771 -0.95237845 -0.50472665 0.17932093
10208 0.004436668 -0.62671936 0.30897236 0.31937727 0.15874219 0.31398702 2.267055 0.02968527 0.2985396 0.23642112 0.10351429 -0.7007355 -1.0039816 -0.88157445 -0.60443836 -0.6119302
9495 -0.78599066 -0.22864911 0.7310754 -0.13978694 0.61772513 -0.62704915 1.1365035 0.15903534 0.3773542 0.41545856 -0.9321359 -0.76603156 -0.19961476 -0.48886564 -0.8464751 -0.292287
9961 -0.27596632 -1.0134411 0.9117452 0.3699687 0.97269875 0.29464832 0.43245205 0.4046844 -0.10352889 0.40164423 -0.8834202 -0.63764167 0.94487846 -0.6775897 -1.1508983 1.0585208
9587 -0.6380233 -0.1887074 0.19916715 -0.2345242 0.4462118 -0.16610669 1.5553539 0.15175991 -0.08929423 0.39475176 -0.550664 -0.40745053 0.40164044 -0.29032913 -0.17475854 -0.14912969
7305 -0.10984948 -0.20056131 0.17185563 0.65580344 0.50208956 -0.16836691 0.55424047 0.44106066 -0.14769015 0.15306082 -0.37450185 -0.422096 0.22450191 -0.47523144 -0.12469531 -0.23750071
8888 -0.25390676 -0.40882555 0.23827517 0.25298947 0.328116 -0.36661574 1.252552 0.5067436 -0.28514227 0.11693292 -0.36685207 -0.29221445 0.07129926 -0.37922847 -0.20196423 0.008065205
8810 0.06971168 -0.06812227 0.030245535 0.35699013 0.15855175 0.7616675 1.1785095 0.46687418 0.060805704 0.07145873 -0.6719761 -0.026524808 -0.06850069 -0.6893842 0.35057023 -0.4400851
9504 -0.3033957 -0.49340397 0.02040565 0.3102936 0.4982644 -0.2980648 1.2537463 0.94411415 -0.48869973 -0.3469003 -0.627633 -1.120419 0.24154542 -0.31591266 0.29301298 0.6758581
4374 -0.075629346 -0.10107723 0.26407263 0.5640226 0.564489 -0.16185635 0.88382095 0.32444644 -0.2119679 0.00035925768 -0.18436565 -0.15226139 0.112629674 -0.3704042 -0.3142118 -0.15755953
9424 -0.60737634 -0.6298926 0.19439192 0.5867581 0.53837854 0.31822678 1.21022 0.108605355 0.5697403 0.11364758 -1.0942115 -0.26693755 0.77998304 -0.059435926 -0.6108651 0.5068529
5625 0.121096626 -0.33556202 0.1504317 0.47074375 0.64487165 -0.110911004 0.55568546 0.24834226 -0.1692163 0.5183083 -0.2216794 -0.3587737 0.17567448 -0.40886328 -0.11969922 -0.33557215
4984 -0.014672915 -0.3887176 -0.018340724 0.7461473 0.61388516 -0.23070474 0.53307885 0.009960113 0.12878215 0.46286955 -0.5291588 -0.16761571 0.008005418 -0.4053166 -0.18817395 -0.1050343
8387 0.06382086 -0.21373156 0.37026447 0.4251492 0.26839897 -0.0678315 0.82657146 -0.01349458 0.13213377 0.50813115 -0.4974751 -0.6398075 0.33427092 -0.4944051 -0.13966073 -0.12888534
9006 -0.30856687 -0.8201051 -0.13910018 0.11431267 1.0833166 0.39242393 0.89715964 0.659266 -0.40033603 -1.0466707 -0.24756247 -0.6051596 0.06718109 -0.49061632 -0.55981255 -0.15816773
10205 -0.6023229 -1.5611062 0.13647678 0.44796273 0.4562799 0.81351423 0.8398009 -0.5167148 0.4236606 0.32026738 -0.23499437 -1.4243207 -0.020503454 -0.8696711 -1.2472656 -0.43333262
10235 -0.10758165 -0.14900205 0.33943707 0.8932675 -0.3118158 0.14200373 0.90848 -0.38661638 0.20495395 0.3527211 -0.37327883 -0.6726755 0.61786246 -2.0239165 -0.7189605 1.0380702
8367 -0.43739566 -0.6359035 -0.31039497 0.23661141 0.32524955 -0.17123915 1.0255128 -0.19843107 0.14176309 0.2131432 -0.61390203 -0.5303189 -0.07115629 -0.5227567 -0.1607376 -0.13176021
3198 0.26986971 -0.3037624 -0.048361786 0.6258262 0.6024444 -0.05002998 0.3815966 0.1276429 -0.3131206 0.4152053 -0.42069173 -0.27892092 0.2849187 -0.5456717 -0.10580069 -0.035151176
7417 -0.1544869 -0.35402256 -0.31127694 0.5824328 0.6534801 -0.1592876 0.6778076 0.20537595 -0.38411406 -0.009565036 -0.4469588 -0.10753786 -0.046986282 -0.7467531 -0.13547489 -0.16237894
10138 -1.0707375 -1.3131202 1.1452165 0.74514985 0.23356839 0.69964916 0.3681066 -0.2741691 0.17634103 0.7041246 -0.33085442 -1.5218014 0.5656054 -1.0818379 -1.0253352 -0.32728103
9576 -0.4874757 -0.8188026 0.4680042 0.23696163 -0.18460299 -0.081473716 1.8299919 0.38136235 0.67246 0.48822498 -0.9553559 0.10561676 0.36922967 -0.5850958 -0.0209689 0.5996166
9538 -0.23275816 -0.34630138 0.5773733 0.06459663 0.39107266 -0.6602863 1.5847038 0.32300168 0.35253376 0.14137508 -0.37551108 -1.1870743 0.60484904 -0.3407382 -0.27164924 0.23183624
10281 -1.3850363 0.38352758 0.58145326 1.2204708 0.5657394 0.118005835 1.4013579 -0.22477591 -0.7897039 -0.9955677 -0.705658 0.50519323 1.1358975 -1.0213706 -0.0006155544 -0.15557408
9899 -0.16694914 -0.98588353 1.1168791 0.5542668 0.58699137 0.022026883 0.93001795 0.40551648 -0.09521035 0.5156443 -0.23220953 -0.19568369 0.47641188 -0.23630783 -1.0576569 -0.2503283
10163 -0.82215184 0.71147186 -0.2488587 0.30069706 1.8945553 -0.3544817 1.3652999 0.63932556 0.89666283 0.12551531 0.2339806 0.6195297 0.40360013 -1.148068 -0.96550584 0.65361315
10098 -1.1025811 0.014546444 0.6476022 1.2395809 0.1430307 0.2376397 1.605182 0.52027816 -0.05722001 0.5949314 -0.25287008 -0.29827505 -0.22087197 -0.16635527 -0.086976916 -0.04571667
10004 -0.45113355 0.014209647 0.41550252 1.0557048 0.10512395 0.67843014 0.8990043 0.40443227 0.11642091 0.74021655 -1.2826508 -0.14394066 1.0937434 -0.60132474 -1.196946 0.22151248
9423 0.3150264 0.5370205 0.023916714 0.42491806 1.1153703 -0.38371795 1.0418264 -0.3806507 -0.32418188 0.7334505 0.06923048 -0.12699097 0.46012387 -0.21083221 -0.67529994 -1.1486512
10055 -1.0897076 -0.88709444 1.30811 0.9027315 1.0140228 1.0104669 1.1046276 -1.1117451 -0.12786561 1.3758802 -0.73910654 -0.22147866 -0.41612127 -0.93925506 0.06883085 1.0121565
9373 -0.26949504 -0.7563791 0.1144374 0.4594577 0.1689098 -0.20131096 1.6568605 0.06831994 -0.14023021 0.13000827 -0.6198053 -0.4250492 0.8000236 -0.09575773 -0.16223392 0.47162482
8924 -0.1920715 -0.9891272 -0.33268398 0.15451619 0.61636204 0.43404117 1.2610562 0.04001374 -0.016547415 -0.2501943 -0.0644543 -0.2159025 0.66839415 -0.43156803 -0.43421242 -0.5114999
7895 -0.2421594 -0.35539898 0.20155664 0.41206804 0.28393102 -0.044326223 1.1285872 0.31615883 -0.251908 -0.049110796 -0.44569924 -0.40206024 0.037412427 -0.17530426 -0.30252582 -0.21337314
9525 0.0764139 -0.37802413 0.69725513 0.23211253 0.75288224 -0.05625844 1.1913366 0.24898766 -0.25490072 0.4047791 -0.21035224 -0.59899837 0.07221099 -0.23560905 -0.13695672 -0.22092828
8441 -0.33465186 -0.16204378 0.21420832 0.53529584 0.27768785 -0.21872027 1.049056 0.35772637 -0.14935383 0.048653495 -0.50119424 -0.106670365 0.028349422 -0.28514555 -0.1672453 -0.081671014
10158 0.041165307 0.3522792 0.08121435 2.2906806 0.7665698 0.8431542 0.7845213 -0.62209487 1.0538367 0.14381295 -1.049372 -1.4825057 0.23335545 0.012935622 -0.602012 -0.55364317
5906 0.02577207 -0.20218936 -0.37206486 0.53311443 0.613086 0.044353906 0.6241235 -0.046697974 0.014365173 0.36586282 -0.4801943 -0.15292735 0.3537191 -0.4901016 -0.34524873 -0.23713414
10111 -0.32251465 0.35644042 0.14126754 0.8044711 0.37144035 0.3874216 1.1932156 -0.2229434 1.1253493 0.8650237 -1.2965239 -0.2491238 0.64245284 -0.651592 -0.8791021 0.024551995
10054 0.43895355 0.19758216 -0.1945441 0.38583755 -0.06122805 -0.23405436 2.2178988 0.24993375 0.46971133 0.439045 -0.48153347 -0.80264676 0.47302398 -0.7559747 -0.2613432 -0.041480623
10261 -0.6909002 0.3192942 -0.06411712 2.6618423 0.36807764 0.35183808 0.9435825 -0.11671784 0.92539275 0.48118472 -0.40883127 -0.3681778 0.45497105 -0.10902642 -0.8292959 -0.13307068
9203 -0.39466304 -0.5622651 0.35599536 0.066106044 0.5893998 -0.47674066 1.0995966 0.2427156 -0.077132925 0.040044956 -0.51237404 -0.4683178 0.4125548 -0.33952892 -0.48972487 0.08618595
9898 -0.8093922 -0.28927568 0.76676315 0.450485 0.54033434 -0.2260756 1.8161085 0.76592636 -1.0108486 0.5560091 0.62070036 0.6296287 0.0279052 -0.81814164 -0.57033443 -0.1249488
9579 -0.30994007 -0.81070924 0.22437756 0.26872718 0.124520965 -0.003100193 1.5240185 0.83416057 -0.12410286 -0.13138801 -0.2990491 -0.04619361 0.15696843 -0.18269885 -0.63907504 -0.32717803
7533 -0.09561206 -0.20497745 0.47472113 0.48854655 0.4883856 0.041200142 0.9325001 0.41650862 -0.16121086 0.18400548 -0.15513521 -0.16660732 0.44361666 -0.39958474 -0.06168513 -0.13131705
6917 0.01749979 -0.28043532 -0.06976611 0.53279865 0.60651666 0.0028469916 0.47813374 0.23836744 -0.23637691 0.22314921 -0.3646085 -0.3511788 0.1997633 -0.46594718 -0.039571512 -0.13540089
10100 0.051437117 -0.080884576 -1.0542698 0.47140646 0.5247141 -0.00050734263 2.2136047 0.12113652 0.70980626 -0.38486484 -0.29080075 -0.072052725 -0.48850322 -0.53499436 -0.7340227 -0.86410534
5681 0.11456037 -0.34127623 -0.19175859 0.72807676 0.50792783 -0.022936374 0.6237996 0.16210604 -0.22332679 0.39487943 -0.49312323 -0.16907552 0.036760677 -0.5295955 0.12477944 -0.13282944
9691 -0.16973281 -1.0473661 -0.6389627 0.25143078 0.67236567 -0.019545121 2.1370108 -0.20660242 0.9900519 -0.17609422 -0.49848342 0.22847031 -0.041575152 -0.448118 -0.6218169 -0.07644593
10253 -0.37312582 -0.9916802 0.52388704 -0.23497245 1.0397837 1.0830413 -0.05692857 0.52265716 -0.39657205 -0.39931405 -0.90382767 -1.5136468 0.48603463 -2.1055086 0.57151335 -0.12514389
9848 -0.21902658 -0.28776485 0.32440057 0.14422147 0.5828348 0.14522839 2.3563423 -0.042633392 -0.2664692 0.89722955 -0.19677459 0.5670973 0.3004023 -0.57878006 -0.1710395 0.4562398
10096 -0.4660054 -0.14926627 0.045155756 0.53956103 -0.54102993 0.8656406 2.1973097 0.90945387 0.09499051 0.82203096 -0.15532765 0.27918214 -0.04595651 -1.2013485 -0.3354011 0.18002172
10145 0.25373212 -0.5983713 1.3388844 0.3250069 0.99711126 0.31618306 1.0653496 -0.6093544 -0.3488805 0.5364696 -0.09438855 -1.3775096 0.17775725 -1.5139022 -0.4315762 1.473177
9985 0.2879509 -0.97212535 0.14320542 -0.11974814 0.60736674 0.30043483 2.2769005 -0.6846208 0.26628688 0.8996785 -0.60693234 -0.0142503865 0.6535604 -0.51419663 -1.3239 0.0055483226
10228 0.87488765 0.27063105 -0.63251317 0.8234061 0.0887831 0.13210967 2.6484725 -0.28344232 0.1108084 -0.3865998 -0.31738967 -0.28879693 -0.334652 -1.0772606 -0.4280853 0.20320973
5700 0.09619418 -0.45085377 -0.21707399 0.98540837 0.6833096 0.23631638 0.4586583 0.28184277 -0.1508875 0.44969815 -0.30129564 0.028812528 0.28348354 -0.49924198 0.42611203 -0.13840441
9916 0.019596253 -0.11290329 -0.27155244 0.41766748 0.5745182 -0.20226216 2.4215884 -0.5145934 0.5780872 0.5044464 -0.2320856 -0.49012136 0.49237725 -0.01492242 -0.50172424 -0.36299437
10221 -0.44660482 0.11155813 -0.5912325 0.74911976 0.41718346 0.39753145 2.1668348 0.28103715 0.14934991 -0.70570654 -0.28800952 -0.012583616 -0.8602104 -0.62658787 -0.43311924 -0.5030726
9355 -0.2839387 -0.15359095 0.48876238 0.29799268 0.31994614 -0.42225438 1.4765711 0.22920102 0.107263386 0.16255991 -0.21928589 -0.32271245 0.281888 -0.42494214 -0.32259706 -0.07997449
10293 -1.5231549 1.314928 -0.29945818 1.5257305 0.2092383 -1.1013077 1.1275148 -0.5733434 -0.1483313 0.113156326 -0.80255425 -0.9647553 0.65522 -0.8511576 -0.70078593 -0.39885512
10017 0.47233897 0.16373648 0.1990329 0.6295131 0.9191901 0.51903814 0.93520147 -0.628743 0.5475879 0.82648146 -1.1763676 -0.8941924 -1.3467528 -1.0041683 -0.6009964 -0.22123973
10053 -0.8074388 -0.07640659 0.6850597 0.6862083 -0.037969295 0.7988342 1.1534575 1.0786664 -0.20216614 1.0120889 -0.8809643 -0.7025008 1.2430034 -0.5280581 -0.36618122 -0.07655768
10258 -0.059139952 -0.4702193 1.0791533 -0.058402877 1.2351631 1.03216 1.667687 0.3571303 1.0507706 0.8259496 0.8450855 -0.46261445 0.40060607 -1.9344951 -0.3487553 -0.12396414
7112 0.42271444 -0.0098118065 0.07711889 0.5668756 0.5888323 0.17167683 0.62181306 0.5122431 -0.22353774 0.36587834 -0.49983686 -0.20654812 -0.10738188 -0.5375461 -0.26863924 0.010403421
8768 -0.066017024 -0.2804758 0.0117119765 0.104476616 0.50078905 -0.21929711 1.0448588 -0.08179819 -0.05420907 0.24098912 -0.68247694 -0.68863297 0.012955292 -0.4019332 -0.010871125 -0.304229
6986 -0.10812736 -0.24951422 -0.09028485 0.49592587 0.53213334 0.27044508 0.81663555 0.28105453 -0.0555909 0.20524989 -0.42458156 -0.21107742 0.2194227 -0.3452541 -0.1060696 -0.38209724
10097 -0.16262607 0.23299864 -0.16010578 1.0632125 -0.7149527 0.12029471 2.0422492 0.93445903 -0.024601443 0.18826483 -0.760598 0.07268303 -0.4578959 -1.0848267 -1.0965736 -0.49071825
10041 0.3067205 -0.4896262 1.0583881 -0.20797038 1.2081667 0.8840922 1.4034674 0.3197468 0.96899205 0.9088836 0.15397914 -0.3215476 0.5647376 -1.6109685 -0.31530085 -0.092137046
9635 -0.49092057 -0.26444173 0.7052251 0.4917771 -0.15654182 -0.03348264 1.3718679 0.8756226 -0.039549865 0.5717243 -0.67949057 -0.018187424 0.3013868 -0.6391201 -0.5981773 -0.09613341
9889 -0.40821004 -0.2670137 -0.03890208 0.1357208 0.9012133 0.1612738 1.2786144 0.04961558 0.8016463 0.24598014 -0.36847737 -0.42645517 0.04034747 -0.26131627 -0.68286383 -0.46293148
5152 -0.08347997 -0.3246254 -0.1411117 0.6815392 0.62053084 -0.1529749 0.2548973 0.3286338 -0.07793053 0.40078256 -0.46661383 -0.34630498 0.24721743 -0.60189766 0.0199402 -0.030900855
10113 -1.051334 -0.23478688 0.95708185 0.9720403 0.25257438 1.3600557 0.98943686 0.4055354 -0.888683 0.13387015 -1.2267444 -0.85816824 -1.6072927 -1.5185143 -0.083109505 0.26673675
6074 -0.0009495681 -0.46308133 -0.1460136 0.5957023 0.65911186 0.0102049755 0.5776908 0.25355574 0.030613951 0.15797555 -0.34211874 -0.2803506 0.15222368 -0.3919667 -0.024854869 -0.17636436
10239 -0.1063238 1.2815183 0.08736095 1.3220197 0.58807355 -1.2428616 1.5752398 -1.0260197 -0.74212253 -0.07830107 -0.023584852 -1.3902014 0.09882218 -1.0102539 -0.9003058 0.20642461
4669 -0.20525129 -0.37178427 -0.24163938 0.6374143 0.49975124 -0.17393923 0.3610124 0.229608 0.047607243 0.4103451 -0.44750634 -0.12515327 0.24519785 -0.5887705 0.13213728 -0.008071753
9920 0.07361059 0.07991854 1.0819763 0.4388037 0.44932294 0.82944274 0.9311131 0.49264956 -0.46160564 0.9192958 -0.03469648 -0.5742061 0.5367955 -0.63245153 -0.60526544 -1.12409
10108 -0.7747926 -0.36351672 0.1843965 0.2097784 1.4735194 0.8642542 1.3544453 -0.26998258 -1.3473996 0.3915056 0.12563165 -0.41273418 1.0999335 -0.06837863 -0.42848384 -0.15258655
9810 -0.5245176 0.0014266307 0.4309168 0.3472476 0.6271969 0.23252717 1.4975734 -0.2891903 -0.027942335 1.0208673 -0.74244523 0.63569 0.57853156 -0.52575237 -0.87611574 0.16352649
9915 -0.631056 0.76565415 0.29543263 0.10319022 0.68004096 -0.67993367 0.7485296 1.0215951 -0.53652656 0.64088756 -0.5855594 -0.19878961 0.039636638 -1.3867813 -1.716821 -0.31442901
8259 -0.3174802 -0.17942604 0.09923171 0.49025902 0.4745703 -0.047530442 0.8955563 0.46488982 -0.3946342 0.044573415 -0.588644 -0.60022974 0.24228105 -0.31067502 0.024108069 0.19593331
9608 -0.6282426 -0.94008917 -0.0870444 -0.13609895 0.1680604 -0.11774111 1.7066467 0.5498446 0.117475405 0.1814749 -1.018022 0.053573906 -0.4465589 -0.69775605 -0.22970061 0.48346627
10038 -1.4641412 0.085019805 0.2813372 0.8197788 -0.06356194 -0.051277626 1.6098477 0.23172046 -0.5012803 0.96825075 -0.44583565 -0.004139101 -0.29047304 -0.64568174 -0.42390206 -0.06173416
10144 -0.52560914 -0.057380706 0.29308692 1.5660152 0.37537348 0.31435683 1.0286592 -0.41862953 0.86334085 0.4257469 -0.62114984 -1.4158059 -0.11260541 -0.15700038 -1.3116035 -0.9458957
10016 -0.15226713 -0.18504147 1.042893 0.30124763 0.9493261 0.40489295 0.82402307 0.07016545 0.6384676 1.3164725 0.22653878 -0.69762474 0.023907192 -1.2163504 -0.49516943 0.053640395
10296 -0.26198283 0.10275932 -0.17515744 1.0184119 -0.81727 0.062893614 1.2355107 -0.27022576 -0.29171905 0.7114942 -0.061003193 -0.96707106 1.5794675 -1.7836028 0.24672109 -0.033134267
6373 -0.27764943 -0.35762212 -0.074729145 0.65536755 0.60124445 -0.08832978 0.6319654 0.10423959 -0.054411698 0.12826967 -0.42847762 -0.35173532 0.13950072 -0.45010942 -0.006367975 -0.03026154
7633 -0.16583593 -0.38252366 0.1437834 0.50873816 0.35079706 -0.13359646 0.8486769 0.41419277 0.11354004 0.38269854 -0.446279 -0.044936914 0.09045882 -0.36803246 -0.04946342 -0.030742217
9638 -0.7432706 -0.5591971 -0.3106666 0.1997478 0.420632 -1.0098951 0.8041164 0.38897344 -0.29282856 0.4293119 -0.28904325 -1.0067464 0.8627322 -0.52952635 -0.004505818 0.011333794
2803 0.1447579 -0.17789452 -0.29659754 0.94925094 0.90844953 -0.25569296 0.29605174 0.35617217 -0.31742576 0.039741475 -0.47850916 -0.2774689 -0.069461375 -0.41033876 0.40411648 -0.21557097
9297 -0.38363904 -0.8598958 0.13227797 0.16852531 0.41633528 -0.08223219 1.3126827 -0.018837776 -0.36512452 0.14198129 -0.13942724 -0.58557665 0.6959028 -0.33544225 -0.30483946 -0.2671043
9895 -1.2363898 -0.5063142 0.96110123 0.09525797 0.80602735 -0.24147911 0.6352746 0.9638653 0.5466696 1.0304493 -0.92355734 -0.8885158 0.4274699 -0.34374416 -0.53243756 0.26319465
9628 -0.49423626 -0.7538071 0.5441873 0.6650594 0.12402445 -0.5601387 1.669112 0.23973207 0.76940703 -0.30263758 -0.19519168 -1.0301498 -0.07056858 -0.058879264 -0.40247798 -0.21128273
10081 -0.67039967 0.090284325 -0.19494216 0.39284492 0.66727424 -0.14537917 1.4320643 0.06416241 0.3169906 0.19097003 -1.1875478 0.6130017 0.63814735 -0.8527825 -1.703344 0.28905126
3608 0.0024338607 -0.2911123 -0.5270539 0.79313684 0.6679766 -0.056031402 0.123727225 -0.011293723 -0.36909804 0.28039634 -0.5254032 -0.36871782 0.16817863 -0.55241174 0.14708942 -0.1341896
10044 -0.0920202 -0.68353826 1.003506 0.15052159 0.6445635 -0.27407068 0.78446776 0.30823946 -0.06959649 0.37953803 -0.714895 -1.9055092 -0.462584 -0.61708987 -0.7340689 -0.038908236
8084 -0.41071814 -0.1908436 -0.057388023 0.10269761 0.20754734 -0.054998834 0.8264955 0.20350772 -0.011166159 0.41234857 -0.3473928 -0.5988584 0.49784413 -0.6826953 0.051749367 -0.0708367
9858 -0.22966526 0.7791217 0.4724694 0.30460712 0.9244375 -0.2061003 1.9695076 0.23588502 -0.003242244 0.4913461 -0.32025427 -0.6255882 0.45219555 -0.1722955 -0.316219 0.27509058
9448 -0.062425025 -0.09656415 0.72939324 0.28696758 0.648026 -0.2637776 1.3583264 0.33948833 0.37806675 0.14877877 0.18896781 -1.1453425 0.09316983 -0.01871326 -0.0108250175 -0.6226901
8498 -0.36266676 -0.23856694 0.3187868 0.31657973 0.57255673 0.0412378 1.1196502 -0.10589168 -0.20938021 0.3387992 -0.34304154 -0.32788554 0.062887505 -0.41219246 -0.1303635 -0.43027368
9823 0.2145601 -0.21354407 0.53202206 -0.077092364 0.51164883 -0.90731263 1.1557522 0.5740074 0.45190343 0.15955262 -0.6957679 -0.38642958 -0.33559808 -0.84755975 -0.6015373 0.2490385
9764 -2.1933966 -0.27968472 0.7291407 0.6035317 0.9276054 0.0065464647 1.9655123 0.9108665 -0.9065564 0.118829116 0.22986236 -0.13455053 0.1897303 -0.3297519 -0.5400239 -0.6528026
9781 -0.56772506 -0.4464419 0.518923 0.5751173 0.51209426 -0.5004598 1.5234194 -0.2778296 0.75961137 0.33901316 -0.7001454 0.04121067 0.22052863 -0.2788638 -1.2914277 0.0063297367
2861 0.10995336 -0.1529976 -0.35815397 0.88987565 0.7481601 -0.2710628 0.2600643 0.4697847 -0.38229913 0.38237005 -0.30329117 -0.21509078 0.25283447 -0.54084146 0.16657607 -0.19762267
5259 -0.16916944 -0.38215896 -0.21350688 0.668191 0.56283706 -0.03933339 0.57939875 0.19731261 -0.022156764 0.31258607 -0.46322727 -0.11481113 0.20411266 -0.49630454 0.055123653 -0.15600976
10141 -1.5936698 0.11858468 -0.07685185 0.64833397 0.5983058 0.61713207 1.8312403 -0.012392911 -0.6114416 -0.16553752 -0.42873645 0.3502162 0.26473615 -0.5423577 -0.6788638 -0.11302115
2521 0.299778 -0.3342755 -0.22308467 0.81082004 0.81935036 -0.22604167 0.39024478 -0.026972393 -0.13964023 0.3208139 -0.3354889 -0.1652155 0.098089315 -0.591314 0.20033732 0.09647898
10082 0.17906597 0.5431127 -0.3275531 0.9177875 0.38394552 -0.16490385 2.0155184 0.5448049 0.014021812 0.17115176 -0.40231836 0.59586114 -1.0102594 -0.9848903 -1.082734 -0.27695024
9873 -0.74423724 0.3394004 -0.0076064947 -0.16787867 0.5462337 -0.21327299 1.1730313 0.6642622 -1.019158 0.76184875 -0.7187435 -0.08097717 1.0578226 -0.8450873 -0.71687365 0.32069623
9541 -1.1252834 -0.08405076 0.59308094 0.037616987 0.24887547 -0.21204367 1.5161004 0.7891768 -0.59773415 0.13581637 -0.41609278 -0.4775742 -0.43266293 -0.62344223 0.16711403 0.09102792
9847 -0.38712466 0.009808991 0.3040545 0.80673236 -0.3247546 0.53416896 1.0288708 0.9350455 -0.21597275 0.5661449 -0.5405071 -0.84574157 0.17077595 -0.4192672 -0.22719185 -0.5871142
8118 -0.33314297 -0.7045388 -0.067528374 0.35347867 0.66503453 -0.035721023 1.0118976 0.10455796 -0.2948702 -0.22788335 -0.6305741 -0.0002225209 0.28995746 -0.2785784 -0.5699885 0.07400665
10154 -0.351256 -0.54613894 -0.51950824 1.2927109 1.3256944 0.604247 0.80668813 0.46852025 1.0517333 -0.82480615 -0.35568678 -0.28583077 -0.61128473 -0.5049295 -1.2081352 -0.45814568
10005 -1.4454771 0.059159007 0.36942112 0.67056525 0.360255 -0.41514465 2.0710084 0.6796567 -0.8802549 0.44619146 0.04347731 0.66746646 -0.12734015 -0.73847145 -0.41294083 -0.31539693
9871 -0.46351865 -0.17338167 1.0220419 -0.06366659 0.65124637 0.25015923 1.0898812 0.24845234 0.6127931 0.9340616 -0.7509054 -0.22607897 1.2417868 -0.4258008 -0.25407588 -0.2883231
6728 0.06877791 0.0076334523 -0.1270208 0.537935 0.93966323 -0.32145754 0.5537634 0.3153741 -0.060014643 0.30876997 -0.2695812 -0.31509697 0.10122682 -0.4855353 -0.12087285 -0.1520753
8043 -0.1183116 -0.3465151 0.052252833 0.55288047 0.33598745 -0.08266803 0.70582396 0.27015734 -0.013295673 0.16964246 -0.61014706 -0.53829044 0.17794307 -0.36823943 -0.10512942 -0.4230777
10014 0.5379885 -0.5172514 0.4079594 1.191365 1.4848819 0.7561694 1.0519542 0.05990864 0.48384976 -0.6108225 -0.23873514 0.037672214 -0.58018553 -0.7536125 -1.4162338 0.17218632
10071 -1.2382096 -0.6013826 -0.33973253 0.46278727 0.018388927 0.2994241 2.049175 0.19457921 0.0057762694 0.26601702 -0.064268574 0.46649233 0.24864149 -0.7516477 -0.6526649 -0.59800506
9705 -1.6263752 -0.22151566 0.20755698 1.0066379 0.8446467 -0.10243587 1.643902 0.3582023 -0.620074 0.41595206 0.37333933 0.0248206 0.3540084 0.0898416 -0.09642362 -0.34165016
9888 -0.51808673 -0.656972 0.712063 0.84838885 -0.19203496 -0.054627452 1.5203174 0.5829636 0.26337752 0.28499278 -0.11790855 -0.83250046 0.14809263 0.15093999 -0.007490513 -1.1615694
8483 -0.41772872 -0.586251 -0.53224236 0.40340298 0.2988832 -0.3775134 0.8550694 0.022097029 0.18106881 0.25302908 -0.48418173 -0.3426003 0.38873792 -0.70655537 -0.37143368 -0.1254088
10030 -1.2310506 0.11909354 1.6333531 0.9040266 0.3697995 0.19481768 0.94202554 0.7703273 -0.29503757 1.4503233 -0.3131252 -0.48855564 -0.2145408 -0.33687663 0.010523509 -0.23518056
10120 0.19714445 -0.58732635 1.6320108 0.28769726 1.0051776 0.06569252 1.2298884 -0.5708358 -0.34922406 1.0827024 -0.20618461 -0.9895386 -0.0075100353 -1.4115747 -0.5130558 1.3285857
3262 0.067477405 -0.19043429 -0.1503078 0.64194286 0.5028729 0.058495913 0.5620909 0.2674618 0.003404996 0.38792133 -0.46114427 -0.3614004 0.05464079 -0.4632658 0.18130518 -0.17811778
8310 -0.4717553 -0.2685736 0.1609693 0.4416144 0.3823903 -0.3125543 0.95981604 0.1745203 0.012874194 -0.02762194 -0.51334 -0.16921791 0.4400816 -0.32926846 -0.042362336 -0.22614759
4404 0.114109285 -0.2170838 -0.25925797 0.73540574 0.64797735 -0.16948143 0.24607585 0.34786743 -0.22677988 0.50432587 -0.53051484 -0.07537277 0.04211952 -0.6720792 -0.01095908 -0.15125503
8979 -0.026586596 0.032623623 0.5079098 0.8042886 0.13896322 -0.23000656 0.83851016 0.31807145 0.012492314 0.9449869 -0.44667956 -0.15749882 0.15383194 -0.34577477 -0.18246365 -0.23830356
10130 -0.59120333 -0.2588279 0.17162004 0.51875895 0.8444678 0.012797488 1.6633472 -0.09670311 -0.22484733 -0.786972 0.5634419 0.49947074 0.094241366 -1.3988333 0.6429814 -0.30071896
10062 0.20043848 -0.5642665 0.055312432 0.6301272 1.9237026 0.92563033 0.96696687 0.06419207 1.1593966 -0.43446892 -0.73742944 -0.06725225 -0.68253285 -0.71224356 -1.7700423 -0.30903667
9694 0.28666544 -0.10788079 -0.15850289 0.67915374 0.3026367 0.9320609 1.0615964 0.8373737 -0.58443433 -0.41517892 -0.894164 -0.6857853 -0.31513566 -0.4762802 -0.970508 -0.5629587
7720 0.009077266 -0.24228255 -0.07680762 0.48270378 0.42875275 0.027045095 0.9409889 0.23827451 0.07430582 0.14158121 -0.5941843 -0.4039668 0.19777791 -0.18413371 0.09668268 -0.31411946
10240 -0.121694535 -0.71841574 0.16661528 0.2775875 0.65361035 -0.3623835 0.8456468 -0.50691986 -0.22065018 -0.2107717 -0.0810941 -0.29471883 0.47292167 -1.3370904 -0.1562844 0.15839021
10199 -0.28237578 -0.41933045 0.6027158 0.21577455 0.7691177 0.34739462 1.6058524 -0.53493553 -0.13251643 -0.7994347 0.25594443 -0.30596793 0.37638915 -1.3196919 0.050493676 -0.038729634
9092 -0.4944722 -0.36344963 0.26810738 0.52881324 0.40285605 0.6589433 1.2922893 0.49636492 -0.22976641 0.047432534 -0.5400955 -0.31747225 0.11957179 -0.19868489 0.30593842 -0.60566854
9534 -0.5554426 -0.5697041 0.5160493 -0.37218902 0.5794507 0.04990729 1.9331201 0.48051664 0.119020924 0.070078574 -0.48792624 -0.5599297 0.22560912 -0.39712167 0.25239027 -0.1113313
9077 0.13399431 -0.6866728 0.61119235 0.721065 0.13984393 -0.2153819 0.8496006 0.34064382 0.29567468 0.2637131 -0.39869395 -0.60875314 -0.010067667 -0.5000286 -0.6016528 -0.15704067
10220 -0.1910628 0.25329408 0.49069887 0.17153426 1.4982371 1.3815768 0.59263253 1.8060575 -0.42142254 -0.117079325 -0.51492476 -0.36811912 0.33249247 -1.9165826 -0.9056736 0.25218898
9476 -0.3571762 0.038297188 0.17389779 0.34260058 0.4305784 -0.24010788 1.1348195 0.45214018 -0.38099512 0.1424426 -0.5137259 -0.08298117 0.28104776 -0.40222377 -0.5663528 -0.0016173888
10064 -0.18905398 0.3813794 0.021551767 0.25473645 1.3849399 -0.27492446 1.4145771 0.08368513 0.3045705 0.16314283 0.1256838 0.11996961 0.30533874 -1.2018172 -0.8786704 0.68742937
10126 -0.6452878 -0.32838696 -0.204568 0.09953109 1.1352983 -0.2567173 0.81628287 -0.0399759 0.2918157 0.18583593 -0.0013657893 0.14897922 -0.15819144 -1.1246822 -1.1404454 -0.4180511
10142 -1.4601772 -0.9542296 0.14691776 1.2028666 0.08489573 -0.03677727 1.7971046 -0.28877303 0.62618995 0.30477136 -0.15427986 -1.8166535 -1.1623933 -0.53010803 0.25505632 -0.979692
6317 0.054233193 -0.13274415 -0.165275 0.59927315 0.6665683 -0.079592794 0.5801258 0.28607067 0.37912515 0.37733862 -0.3558411 -0.5511929 0.2659993 -0.454107 -0.038357638 -0.057676844
9923 -0.11265984 0.38830686 1.306275 0.49368972 1.0863832 -0.9502314 1.6759853 0.26392978 0.04095783 0.60414445 0.13347596 -0.84869105 0.12118426 0.017287215 -0.17013076 -0.3774638
9550 0.036114495 -1.1143657 0.46852913 0.39133278 -0.1511301 -0.16016012 1.2237015 0.32902136 -0.022768298 0.09022529 -0.36096033 -0.31506678 0.2381969 -0.73850524 -0.8528806 -0.48904997
8396 -0.4379922 -0.24758193 -0.1021215 0.40966183 0.5593547 -0.026364937 1.0753243 -0.15810838 -0.35107586 0.36032784 -0.49026144 -0.5199494 0.5242559 -0.4330716 -0.32012853 0.24275663
9709 -0.28674182 -0.09489342 0.019353325 0.62630755 0.16614233 -0.32543617 1.6496348 0.016379025 0.7045481 0.7522491 -0.5919335 -0.25745577 0.24959995 -0.2829451 -0.4504504 0.17585798
10079 -0.97221154 -0.3049451 0.23748243 0.6263531 0.36864245 -0.33433637 1.4579861 0.31053582 -0.05242958 -0.101894535 -0.5795922 0.9673893 0.737811 -0.62726915 -1.4981309 0.12127692
9971 0.12429115 -0.56357515 0.3479675 -0.0691162 0.73986864 0.42943636 1.908921 -0.17223778 0.10083946 0.3711964 -0.7480736 0.5136654 0.11790017 -0.38447246 -0.91183925 -0.33542424
7196 0.055595342 -0.31669876 -0.035227787 0.7399102 0.5559205 0.2965269 0.6076896 0.2660916 -0.00087455055 0.34180617 -0.5694932 -0.11127923 0.1692083 -0.6197338 0.034687676 -0.18410888
8622 -0.58185464 -0.8113729 0.14109254 0.41432917 0.5252482 -0.08920751 1.0867163 0.30039775 0.15641852 0.1991866 -0.40335107 -0.08310658 0.10192776 -0.19875976 -0.03606388 -0.21310893
3858 0.2944454 -0.29807118 -0.33794582 0.7973448 0.80654967 -0.22151072 0.41631243 0.15432283 0.038623072 0.16206896 -0.47672063 -0.22741894 0.16327278 -0.38252896 -0.002459641 -0.120157294
9913 -0.26177776 -0.71938676 0.007651884 0.17384547 0.6093147 -0.08423007 2.3330395 -0.3669648 0.32720366 0.32078952 -0.3662362 0.14371082 0.10151465 -0.43401647 -0.7962805 -0.1480867
9483 -1.060549 -0.11051153 0.72679037 -0.099962115 1.0973675 -0.8684457 1.156052 -0.031872317 0.07587507 0.27761838 -0.3457768 -0.27257064 0.06733565 -0.636852 -0.6016521 -0.19406645
9728 -0.9984629 -0.64422184 -0.6334732 0.09627033 0.7916057 -1.1396663 0.7502363 0.111353815 -0.2896586 0.6491643 -0.37647098 -1.108319 0.6475724 -0.93535525 0.75258845 -0.20783043
9795 -0.21817781 -0.49216825 0.11636103 -0.047463074 0.57648635 -0.34541994 1.8578215 -0.029244134 0.5068137 0.71038735 -0.72618806 -0.03447391 0.8102584 -0.5020163 -0.69977754 0.68360096
10020 0.06845692 -0.05867258 0.8162037 1.3252599 1.4685296 1.2476895 1.372607 1.3759683 0.45539454 -0.3728772 -0.046178136 -0.36296824 -1.2163895 -0.22044049 0.23587938 -0.017628247
7010 0.1030077 -0.3713622 0.025374208 0.64680856 0.40300944 0.28854707 0.45337406 0.34789354 0.008514686 0.21955505 -0.48158905 -0.17652357 0.07870354 -0.8060326 -0.23586379 -0.17553914
8604 -0.19901018 -0.10039172 0.2160676 0.46083236 0.33294708 -0.06743969 0.8016244 0.36306924 -0.31813428 0.29689923 -0.47264746 -0.20971508 0.6765999 -0.4061468 -0.48459616 -0.47264788
10164 -0.8048557 1.0720252 0.41838413 0.70684475 1.5866537 0.0095288735 0.72907555 1.5501868 0.18399802 0.28595668 0.48715714 0.38756827 0.15371977 -1.9243371 -0.74824417 0.3014651
10236 0.13625148 1.1429758 0.7166351 1.9883022 0.5111978 0.24802545 1.3269942 -0.87048674 0.62849534 0.21676871 -0.39947152 -1.2229885 0.21333948 -0.43890107 -0.68525165 0.53346103
7262 0.045735877 -0.14164487 -0.18493842 0.6541328 0.5092453 -0.11725379 0.6754778 0.08375019 -0.1338829 0.3992971 -0.14511198 -0.22432555 0.20543621 -0.5615401 -0.2773547 -0.115468204
9549 -0.82351786 -0.6185259 -0.16855662 0.8035495 0.6724323 -0.7012517 1.6666708 -0.19879301 1.1977988 0.5031276 -0.5231251 0.18264669 0.23833871 -0.27133462 -0.4900709 0.71209425
10210 -0.42555267 1.5986668 -0.48206875 1.7196621 1.3107218 -1.5048999 1.6168855 -0.35652357 0.11207453 0.2743273 -0.079067886 -0.7266576 0.51254237 -0.29990354 -0.2165707 -0.5182372
9879 -0.05520085 -0.101509556 0.815539 0.27264026 0.9182383 0.72908413 1.1099384 0.22612914 -0.55969524 0.04558774 -0.39499384 -0.08427507 0.9314451 -0.4076079 -1.0943875 -0.80719525
10057 -1.2721645 0.89028656 -0.6153173 1.1167483 0.1345417 -0.5422833 1.6163682 0.56137735 -0.062594414 0.77202874 0.42621818 -1.017038 0.3568142 -0.768006 0.25623176 -0.72309643
8457 0.017933447 -0.38084793 0.49907088 0.48031265 0.41612956 -0.008216446 0.8790017 0.0810942 0.034588646 0.28269228 -0.519513 -0.33739454 0.011023898 -0.33970454 -0.17867777 -0.077366166
10035 0.16466726 0.2085273 -0.38628206 0.16992974 0.73472404 0.29334584 2.3986092 -0.23597392 0.4140987 0.2931846 -0.6310386 0.36555234 -0.047765717 -0.71930194 -1.0220634 -0.09230799
6794 0.29800552 -0.13383363 -0.34917733 0.6543979 0.52009946 -0.026898298 0.6110445 0.32382876 -0.40904957 -0.037185654 -0.7251216 -0.2572799 0.3650434 -0.4950524 -0.10049104 -0.45649034
10085 -0.6250754 -0.26969683 0.6850736 0.21054126 1.4996741 0.27393377 1.4325862 0.96724427 0.7103176 -0.21375835 0.08861206 -0.5847576 -0.6287134 -0.36434203 -0.6326286 -0.41119638
9565 -0.48190722 -0.3846674 0.4894961 0.35956013 0.50645363 0.32143348 0.9322505 0.28446978 -0.050533637 0.41979453 -1.120496 0.12726061 0.19100226 -0.6515581 -0.9320857 0.014243754
9735 0.40795913 -0.81874907 0.11668052 -0.27531132 1.0010246 0.28194562 1.4848913 -0.29919106 -0.10629247 0.5675708 -0.8013405 0.27792054 0.17852199 -0.55683 -1.0247815 0.15908076
9936 -0.79213995 -0.23795977 0.5982179 -0.13270731 0.46893054 0.04273043 1.5491909 0.22016943 0.14602111 1.1205966 -0.5793114 -0.6425166 0.14016096 -0.43262252 -0.44162762 -0.35160732
9153 0.047556426 0.25103566 0.41289234 0.7708065 0.3338619 0.04837114 0.69077045 0.3815593 0.033409517 0.24058959 -0.5904019 -0.26232862 0.15160488 -0.42897946 -0.8507715 -0.4223684
8665 0.121309556 -0.9560122 -0.4898891 0.034494832 0.9126038 0.2596885 1.0618503 0.31688654 0.11100399 -0.8701564 -1.0450627 -0.24315922 0.10055444 -0.5346727 -0.7399819 -0.058874305
10285 -0.19056605 -0.0054606376 0.57509035 0.46465582 0.8237552 -0.030796353 2.0467126 -0.03780789 0.15022391 -1.1875347 0.03307261 -0.20395955 -0.31566444 -1.0106052 0.7312078 -0.7120017
6886 -0.008454866 -0.34698886 -0.061906897 0.5934741 0.6899548 -0.042616136 0.6495125 0.22791393 0.1387218 0.3345164 -0.517792 -0.07212621 0.12772138 -0.6169392 0.16976611 0.06413515
10245 -0.68815225 -1.3621764 -0.059863083 0.63613987 0.5199934 0.24692741 1.0780141 -0.7350518 0.5427771 0.27961648 -0.017818281 -0.563644 -0.3413745 -0.7661248 -1.188704 -0.5527113
10077 0.2523084 -0.16487095 0.22109464 1.3236026 0.19919969 1.2397414 1.5053924 2.2815368 1.5068084 -0.11752187 -1.167498 -0.81235355 0.08728398 -0.80187696 0.75432307 0.67756236
7648 -0.06818721 -0.0663127 -0.17163496 0.70781374 0.7676282 -0.112471744 0.5501528 0.39809027 -0.065483704 0.14798228 -0.6578755 -0.43026277 0.27693298 -0.356452 -0.07568845 -0.19041075
9710 -0.5862987 0.014238782 0.18019128 0.13457283 0.34219715 0.3217849 1.004597 0.36788267 -0.12302285 0.9626105 -0.9385639 -0.15230496 0.5019855 -0.70813036 -0.8655024 -0.37423182
4652 -0.26904437 0.063057736 0.08380065 0.6015855 0.48778298 -0.050573472 0.45966864 0.061593607 -0.35537022 0.3608009 -0.5472652 -0.28895807 0.13497923 -0.5315891 -0.11406732 -0.23813595
9843 -0.4686776 0.35633644 0.5382786 0.13001844 0.9149643 -0.030857164 1.456328 -0.3297084 -0.5394531 0.97302616 0.07914562 0.4291118 0.8721618 -0.5245314 -0.8158148 -0.22373791
9543 -0.42073393 -0.80804104 0.41551217 -0.22556931 0.08012188 0.20631887 1.1602448 0.3615533 -0.033688158 0.32678643 -1.2008145 -1.0420696 0.46788427 -0.59209603 -0.35609764 0.29731476
9609 -0.21953681 -0.6082272 0.28922245 0.6448375 0.9941584 -0.14611861 1.8457174 -0.1465236 0.74490935 -0.33675435 0.5057855 -0.839324 0.87663305 0.19393402 -0.3997701 -0.79900277
10043 -0.19747084 -0.4127644 0.06018279 0.8376514 0.9424599 0.96163464 1.6300482 -0.11232975 -0.6248985 -0.5207301 -0.5391808 0.027773295 1.2019255 -0.26077154 -1.1978024 0.71161294
9740 -2.0878057 -0.2354448 0.5864291 0.7346416 0.85415107 0.095596656 1.5768852 0.7571019 -0.92516804 0.10041359 0.2535928 -0.17835225 0.32923192 -0.38084027 -0.40069693 -0.4840201
9290 -0.4062163 -0.3472911 -0.4237101 -0.15443315 0.24499768 0.097429305 1.4528972 0.21380918 0.49595594 -0.0039612744 -1.3161029 -0.6624046 0.46886086 -0.71330094 -0.13964121 0.4695571
9697 -0.22856477 -0.50647545 0.60571 0.16957174 0.7471629 0.16880171 0.6154944 1.060167 -0.6522048 -0.30288148 -0.32130405 -0.39692435 0.40397993 -0.6790635 -1.0743393 -0.43056872
9960 -0.058311973 -0.99573314 -0.61559594 0.10114381 0.5676484 -1.2169254 1.280393 0.14966245 -0.26864788 0.28406256 -0.4557045 -1.0695617 0.7468801 -0.89552605 0.66143113 0.8217082
9918 -0.991622 -0.15883803 0.17874885 1.0597024 0.1005302 -0.19503397 2.069287 0.4835199 0.44919708 -0.37635094 -0.514305 -1.1052853 -0.9646769 -0.25768378 0.029815648 -0.6723729
9730 -1.6103313 -0.29303855 0.6328659 0.45492956 0.5338276 -0.44327787 1.7409112 0.39149556 -0.56258166 0.6151576 0.49700564 -0.09127094 0.05229656 -0.32297066 -0.06263021 -0.5201003
3489 0.065132566 -0.3605502 -0.3348278 0.8144406 0.61330074 -0.1421224 0.14709942 0.30646706 0.08823598 0.3955271 -0.43930927 -0.13773486 0.048475314 -0.7446949 0.1097836 -0.14046764
9910 -0.10302422 -0.2788074 0.07210935 0.16370375 1.3538287 -0.47971594 1.206406 0.2767706 0.3931295 0.58619624 1.244476 -1.903931 -0.12372116 -1.1212348 -0.2806539 -0.90074074
8285 -0.30575347 -0.33520818 0.3179961 0.3464875 0.75438523 -0.015361706 0.77724946 0.49072766 -0.30415118 0.19484934 -0.2613274 0.0036768224 0.16993406 -0.4570913 -0.116755046 -0.13661805
6950 -0.35387704 -0.3025742 0.257979 0.43088108 0.6353 -0.32781443 0.68609685 0.49411258 0.055876117 0.1758049 -0.5030387 -0.32544893 0.09720575 -0.35758162 -0.025067143 -0.11436218
8615 0.011124436 -0.18391298 0.12852995 0.1656075 0.6210839 -0.19879618 0.9204047 0.42203057 0.3856114 0.161926 -0.5491435 -0.38487154 0.25747764 -0.55930203 -0.38084504 -0.11512144
9884 -0.43532845 0.3139269 0.49240828 0.24925102 0.013668761 0.012976478 1.3149977 0.74231786 0.38271186 0.73088515 -0.97156405 -0.57580173 0.35867336 -0.6401801 -0.6926975 -0.33649763
9791 0.54524755 -0.8501544 0.5010803 0.057698034 0.77739906 -0.25192046 0.96809936 0.12700109 0.11516187 0.37844628 -0.28035885 -0.8061348 0.54170626 -0.3457328 -0.85911906 -0.050934285
10029 -0.40302587 -0.7137552 1.968012 0.5746638 0.7739691 0.050440587 0.8770391 0.4882181 0.58375335 1.5512801 -0.40265653 -0.70115614 -0.21204476 -0.9053225 -0.5556409 0.37347552
7132 -0.26789132 -0.48135912 0.29073876 0.5612532 0.37016574 -0.15666343 0.5992351 0.084475435 -0.24934351 0.35280088 -0.33088914 -0.18002449 0.18584658 -0.54300046 0.020028336 -0.24279645
6764 0.103116564 -0.15592895 -0.085243374 0.37685725 0.7458146 -0.12253915 0.7125632 0.302055 -0.11237143 0.29313973 -0.32642186 -0.15791363 0.031259026 -0.57284033 0.0036110946 -0.05350479
9944 0.059442796 -0.060357593 1.0516405 0.3470516 0.20222256 0.4626294 1.0847856 0.2835936 -0.2227684 1.5057162 -0.2337474 -0.90001225 0.58238065 -0.7933436 -0.4589402 -0.573465
10128 0.25901517 0.047501184 0.6298342 0.7643274 0.225362 0.098115556 0.94482124 -0.9800749 0.79617304 1.1919584 -1.5291831 0.10697606 -0.10707739 -1.3123127 -0.34439343 -0.18380627
10177 -0.81184083 -0.63014036 2.0116491 0.27132928 0.8164294 -0.35817832 0.7738492 0.2669464 -0.2041069 1.8562357 0.0064408397 -1.7562956 0.25070813 -0.7705501 -0.5816958 0.2910851
9708 -1.3224337 -0.20088756 0.22001533 0.70950603 0.385682 0.20691946 1.964763 0.23869708 -0.6209423 0.70918274 0.14710379 0.023810081 -0.18799788 -0.3038362 0.39809665 0.107198685
6243 0.22535199 0.041807603 0.24527314 0.8453505 0.5307082 0.22789136 0.3619266 0.45131108 -0.19662553 0.33324277 -0.51445293 -0.37609017 0.2148262 -0.5673964 -0.023534676 -0.037125744
5030 0.2010434 -0.28755516 -0.3304081 0.9241993 0.8376781 0.093422905 0.117798574 0.4554889 -0.26211354 0.0729157 -0.37718287 -0.14849092 0.039610095 -0.71292835 -0.12265769 -0.29464358
8561 -0.24453965 -0.39045048 0.4906275 0.2403692 0.5941931 -0.13393801 1.4232169 -0.00068610907 -0.07056225 0.18874851 -0.1705681 -0.24072869 0.12941945 -0.38320446 -0.26843867 -0.33323506
10259 -0.11277966 -0.6360248 0.6426233 1.2369641 0.873212 0.5238793 1.7951522 -0.60959774 -0.77488506 0.9568711 0.47432843 -0.69773084 -0.29868513 -1.054261 0.76626635 1.3736578
10103 0.22490928 0.7688976 -0.19216034 -0.35398415 0.95737404 0.097708225 1.6075535 0.21507436 -0.45651862 0.7091517 -0.43929157 -0.15819193 0.25770056 -1.6175957 -1.0773082 0.47080538
9220 -0.24869801 0.0037882337 0.6050351 0.21995002 0.68343395 0.22189593 1.2382634 0.47567445 0.28381598 0.3208187 -0.31527105 -0.3094923 0.019589221 -0.40356937 -0.0990775 -0.26630646
7376 -0.042611245 -0.1047026 -0.28413752 0.4753321 0.63788927 -0.122968726 0.44321978 0.58953315 -0.26629597 0.09331147 -0.5418605 -0.4690823 -0.074565426 -0.84199214 -0.3503848 0.0083402
9806 -0.107225284 -0.23226139 0.50719213 0.7009306 0.45608303 0.3002968 0.8212358 0.8397338 0.29133105 0.17018911 -0.312893 -1.0312139 0.9782712 -0.22845921 -0.39739844 -0.15746015
10075 -0.6013128 -1.6093972 0.09898896 0.5670144 0.38692835 0.60391957 1.2259805 -0.80665755 0.38457254 0.63658386 -0.1782987 -0.81996274 -0.40792128 -0.84007376 -1.0089831 -0.60238004
6753 -0.19505543 -0.10429002 0.17426914 0.4289948 0.52910453 0.0867959 0.6776043 0.48395973 -0.033853732 0.1909162 -0.6342023 -0.339101 -0.17100413 -0.35243112 -0.2872457 -0.18108754
10137 -0.9001819 0.5927118 0.6415793 1.0554423 0.9318613 0.20696208 2.0332847 0.12799628 -1.1755149 0.10313282 -0.5329862 -0.21334803 1.6880622 -0.25930452 -0.7506668 0.95940834
8122 -0.32723516 -0.100139566 0.07124123 0.4823887 0.48741484 -0.123995975 0.6243303 0.17774342 -0.020262003 0.14927807 -0.67128974 -0.41021135 0.29266083 -0.5575755 -0.4175844 -0.2508434
3258 -0.022625836 -0.3440941 -0.05536424 0.8447454 0.66995835 0.052316077 0.38327146 0.14736517 -0.36962843 0.62392014 -0.34858966 -0.18103828 0.11287895 -0.51664823 0.27910775 0.20578882
9827 0.36511812 0.748767 0.6787116 1.2027553 1.148196 -0.3598954 0.7564866 0.7052445 0.5478822 0.008451039 0.151942 -0.43459722 0.27566528 -0.5013405 -1.0186118 -0.5418413
9398 -0.41297385 -0.26103842 0.77901864 0.3535674 0.025183022 0.12509112 1.1740448 0.6319556 -0.26913023 0.21361907 -0.1694452 -0.6756156 0.15871286 -0.4287678 -0.12375799 -0.35703495
8433 -0.15292923 -0.8469592 0.017302083 0.10025483 0.81340116 -0.22206686 0.5929506 0.35477492 -0.103578605 0.036660083 -0.20596717 -0.33188286 0.34524307 -0.7200392 -0.50734615 -0.120650396
10087 -1.0620813 0.15558946 0.031078918 0.4402522 0.6971441 -0.0929212 0.7199969 0.5558988 1.0909795 0.83208716 0.2094227 -0.74847543 0.7807852 -1.1511949 -0.21488321 -0.71545106
4496 -0.027799573 -0.45671055 -0.30824777 0.63852507 0.5391799 -0.26055825 0.5016258 -0.046609186 -0.30224243 0.22949418 -0.41905373 -0.15248112 0.14219186 -0.5408189 0.17333977 -0.15457551
10260 -0.36915693 0.36199403 0.4885441 0.39093557 -0.3432909 0.43243757 0.8701773 0.12856086 0.24853997 0.47285742 -0.86402 -0.75135195 1.0469148 -1.9944127 -0.21775334 -0.034064896
10198 -0.633151 -0.8982011 -0.20773076 1.1726197 -0.1620018 -0.4777067 1.5342882 -0.04787667 0.14103472 -0.4105639 -0.40502775 -0.9931584 -0.12860967 -0.6268448 -1.38883 -1.0530035
9966 -0.12225695 0.41597825 0.029870063 0.3256366 0.3590993 -1.4042866 1.399304 0.5082765 0.13813932 -0.30050597 0.066533834 -0.88976246 0.5323492 -0.9954902 -0.7607518 -0.056889933
9755 -0.4012725 0.41906503 0.9949531 -0.19451906 0.82936835 -0.17753913 1.3078257 0.41502157 -0.37717187 0.7536914 -0.46757576 -0.56657207 -0.0130634885 -0.5987469 -0.2415624 -0.18770356
9498 -0.17984128 -0.8310933 0.38691077 0.2292967 0.5106973 0.11579231 1.4436553 -0.34142724 -0.04905497 0.16079584 -0.38835415 -0.115252346 0.6110932 -0.19077575 -0.32595485 -0.11966252
9701 -1.8022534 -0.45818734 -0.08511942 0.7162602 0.6223707 -0.3857616 1.9856907 -0.09641642 -0.15884145 0.65798765 -0.008750714 0.013771733 -0.4698009 -0.11414024 0.23167357 0.22444801
9452 -0.5304 -0.17508686 0.77605647 0.5102742 0.43978217 0.30421993 1.1741687 0.30187076 -0.028416086 0.15824276 -0.87518924 -0.08060089 0.11890689 -0.58385 -0.77027756 -0.21350043
9445 -0.19627933 -0.23572555 0.35311693 0.24922849 0.41620618 -0.0793142 1.3461511 0.2645836 0.089572795 0.35285312 -0.60186964 -0.35131484 0.30284983 -0.36651304 -0.50008935 -0.17391291
9952 -0.6084492 -0.1361543 0.5022926 0.40665376 0.7078924 -0.35590804 0.62294114 -0.17040282 0.10507042 0.46323493 -0.36605027 -0.37750787 0.47221404 -0.90329736 0.2616131 -0.016136117
10119 -0.3074986 -0.3723601 0.05661858 0.57898474 -0.23303278 1.0216004 1.4611257 0.80412364 0.17495656 1.4813405 0.41523144 -0.4292348 0.5242066 -1.6805593 0.32409218 -0.70992965
8435 -0.56542116 -0.50738436 0.48052606 0.04010441 0.7437016 -0.37952042 1.0145341 0.1339039 0.075610764 0.30000544 -0.23694883 0.006521953 -0.08459291 -0.59161484 -0.33883902 -0.40509787
9575 -0.6802474 -0.21756509 0.977543 -0.12435223 0.34351778 0.41582912 1.6158117 0.41222548 -0.16735509 0.2729596 -0.47700143 -0.76584834 0.06285494 -0.5177941 0.23426679 -0.45023167
9590 -0.32465565 -1.0503255 0.661435 0.025453812 0.18530022 -0.21057901 1.4580036 0.2979245 -0.24658987 0.095674865 -0.4525757 -0.547412 -0.0652223 -0.43197897 -0.6993899 0.051805887
9630 -0.050103895 -0.61215156 0.7063031 0.5377499 1.0758488 0.15890841 0.8493191 0.00838321 -0.21856835 -0.15134685 0.004090936 -0.65405774 0.38838127 -0.124017596 -1.0741794 -0.6990498
9387 -0.61297584 -0.32589084 -0.12800121 0.2086533 0.44415063 -0.14853638 1.250719 0.016356723 0.13738534 0.089873485 -0.59135216 0.07209665 0.11694076 -0.7328171 -0.47570342 -0.16622394
8422 -0.18562925 -0.42486835 0.045296557 0.37661824 0.41143152 0.35211688 1.2608325 0.4083354 0.11885395 0.4850772 -0.3154045 -0.288461 0.011274563 -0.36731687 0.100740746 -0.52011985
9996 -0.35610783 0.1702393 -0.35716644 0.52338845 0.56611556 0.20634207 2.3286717 0.08164632 0.29019403 0.527543 -0.31215182 -0.72450227 0.16460007 0.026362045 0.10026009 0.11605617
10173 -0.8134765 -0.09931348 -0.7404993 0.74157697 -0.21405932 -0.37362316 1.725147 -0.012651177 -1.0032132 0.39917034 -0.254596 -0.18780269 0.17043442 -1.2400631 -1.0686568 0.48399422
9749 -0.46630833 0.3904796 0.71815205 0.47487438 0.4269141 0.17333813 1.111591 0.14545918 0.1963732 1.4407922 -0.7431432 -0.7620926 0.98091996 -0.096550554 -0.37678626 -0.7116327
10022 -0.63695604 -0.12314988 1.5342051 0.48185015 0.22234368 -0.18942535 1.4951261 0.95692277 0.4108187 1.3961607 -0.39876208 -0.020795742 0.7054927 -0.4866539 -0.29720247 0.10067427
4407 -0.1689354 -0.48682368 -0.10380145 0.3968527 0.6196622 0.03920134 0.4715767 0.11903694 -0.06694847 0.05100358 -0.6731443 -0.26825592 0.12779972 -0.5226051 -0.096383296 -0.22205736
4932 0.021136375 -0.20093094 -0.16332012 0.6854559 0.56996846 -0.150889 0.4647405 0.3503818 -0.1585514 0.28816313 -0.5574662 -0.17404881 0.2862695 -0.56349814 0.18087834 0.042442296
6566 0.071465306 -0.3202871 0.019525072 0.3058865 0.5785784 -0.033656754 0.70411175 0.3736925 -0.22277173 0.32649368 -0.4665826 -0.45056105 -0.02524094 -0.53415745 -0.13650902 -0.07690035
9050 0.012408574 -0.547295 0.26254252 0.27557874 0.3502643 -0.05405549 0.932253 0.22418106 -0.14251839 0.43508694 -0.29687443 -0.002727732 0.27122775 -0.6212456 -0.69219226 -0.19973165
10010 0.18940243 -0.16410035 -0.3060565 0.30763346 0.4708067 -0.25517273 1.2029477 -0.6294546 -0.08470875 0.8250006 -0.4578035 -0.83890724 -0.60896444 -1.1408292 -1.3104533 -0.5840157
8315 -0.08761909 -0.0821672 5.749322e-05 0.5022428 0.3668558 0.012313314 1.068518 0.20920931 -0.50750923 0.32889253 -0.3204323 -0.36474475 -0.13010883 -0.5137507 -0.31040922 -0.23963976
9518 -0.9380932 -0.8051478 0.2846864 -0.06627779 0.46381652 -0.9795045 1.0424263 1.0801901 0.22613369 0.07699401 -0.96641576 -0.54998726 0.31138477 -0.6958953 -0.41626164 0.39389288
10202 -0.06054948 0.24608606 -0.23728372 0.08357598 0.3819985 -1.0345854 1.4269363 -0.5055541 -0.35756934 0.540599 -0.10801587 -1.080164 -0.27076364 -1.54535 -1.223294 -0.2655182
7702 0.05480365 -0.056454703 0.07976005 0.6179273 0.41698313 -0.13016543 0.7727111 0.2973143 -0.1655781 0.3354345 -0.34458706 -0.25443986 -0.041196298 -0.49028865 -0.38292822 -0.44957012
9546 -0.71511394 -0.57511675 1.1113161 0.32901797 0.6987917 0.33760023 1.330937 0.24718112 0.039638624 0.024345744 -0.059430175 -0.7205884 0.11943034 -0.24562645 -0.2232493 -0.57065743
9992 -0.56355155 -0.014435107 1.3385762 0.47840255 0.65489596 0.39223492 0.6819788 0.48628768 -1.0194708 0.81845206 -0.9508767 -0.88101405 0.08381793 -0.442505 -0.92139035 -0.19101276
9556 -0.8528009 -0.41317144 -0.03548827 -0.10754311 0.39517415 -0.3896063 1.9824533 0.3991491 0.2877117 -0.07925692 -0.6395461 -0.058123223 0.5661006 -0.34766507 -0.30940884 0.20642628
4708 -0.101340674 -0.19850078 -0.15735671 0.5217504 0.57544476 -0.19142944 0.5448584 0.32536665 -0.036422145 0.16933067 -0.41071185 -0.25696918 0.09855296 -0.6289065 -0.098764434 0.12633324
9995 0.6026141 -0.7644971 0.3713684 0.1480102 0.54965967 0.39283672 1.5685924 0.09103944 -0.15687378 0.41831648 -0.8180135 0.36688527 0.015316018 -0.55933577 -0.76074535 -0.10873459
8486 -0.71704865 -0.03235943 0.22361723 0.39294732 0.43832618 0.08026375 1.1204437 0.105848484 -0.2121858 0.28726667 -0.52311134 -0.07120193 0.26672077 -0.47013077 -0.1645002 -0.021639852
10067 -0.71063566 1.0046461 0.7544043 1.1841767 0.9723397 0.30563748 1.3901343 1.7290201 0.73183984 -0.1852669 0.034619357 0.11027491 -0.52475965 -1.1064531 -0.12693323 0.35850012
9825 -0.18610187 -0.763047 -0.035781752 0.18997346 1.0877402 -0.047899473 1.752362 -0.2793848 0.8361126 0.018232828 -0.58262074 0.11467042 -0.399771 -0.37380657 -0.6040475 0.28997722
9617 -0.059715357 0.014770827 0.087580875 0.54019177 0.28919676 0.14505123 1.5126295 0.20218053 0.64875525 0.34186408 -0.3073071 0.34307885 0.20834492 -0.73638815 -0.52029204 -0.30569032
10084 0.12133923 0.5350353 0.34779727 1.7388477 1.1873267 -0.06107013 1.0006467 -0.16152562 0.6180383 0.030427419 -0.25832054 -0.9269929 0.4915553 0.39747158 -1.0210623 -0.7959341
7999 -0.14889494 -0.26669857 0.29410806 0.3265585 0.5234347 0.23614794 0.9536231 0.34318298 0.022599278 0.055823736 -0.57860667 -0.15061334 0.111793585 -0.5510635 -0.00036768918 -0.2387419
10032 -0.2757656 -0.106101826 0.5266278 1.01569 0.5636608 -0.9851966 0.8571755 -0.19718765 -0.42925125 0.029277977 0.22949253 -1.427556 0.053173188 -0.9540679 -0.2633594 0.9670698
6977 0.10585227 -0.3460951 -0.2562856 0.7741194 0.7613905 -0.2194958 0.5571739 0.3701617 -0.38185683 -0.021883074 -0.3088669 -0.2829031 -0.020470144 -0.4336228 -0.075333 0.015597621
10036 -1.5069551 -1.0933458 0.44730446 0.58176494 1.0654075 0.8403909 0.9599382 1.0534108 -0.20518823 -0.6843257 -0.44024712 -0.40520042 -0.07174164 -0.4340231 -0.2814931 0.39785558
8927 -0.09164741 -0.28805456 -0.07072198 0.24896505 0.531339 0.85053897 1.1636676 0.24966975 -0.034609254 0.21600258 -0.73295736 -0.14366715 -0.39767784 -0.86255544 0.25340393 -0.35437652
6639 0.15019487 -0.1416828 0.12741926 0.9577455 0.69532275 -0.085805096 0.50071955 0.31875595 0.002242553 0.28721625 -0.49040875 -0.10412158 -0.012307086 -0.22547884 -0.07936359 -0.17691919
3607 -0.077436544 -0.28346744 -0.11172766 0.5095621 0.40608016 -0.24353454 0.6377023 0.20140086 -0.24380201 0.12213847 -0.43690386 -0.37144402 0.3252995 -0.50525165 -0.021619152 -0.31179765
9040 -0.56347996 -0.45684665 0.23537512 0.64784926 -0.13567726 0.6533684 1.3061769 0.7169863 -0.55568856 0.119585 -0.24723414 -0.6262316 0.06809376 -0.31359196 0.28006652 -0.7566341
6660 0.12753205 -0.37182027 -0.211164 0.67883694 0.6101917 -0.1255418 0.62067544 0.27444682 -0.08820955 0.024117326 -0.55331755 -0.45719588 -0.16902633 -0.37156188 -0.22227712 -0.3340399
8432 -0.23240264 -0.6398909 -0.19274934 0.13662133 0.3687888 0.10550759 0.9802876 0.07666442 -0.17418869 0.34565732 -0.52124214 -0.09875005 0.266279 -0.6383517 -0.02437444 -0.24939
9614 -1.2678486 -0.34404734 0.31461796 0.44600815 0.25091562 -0.029191267 2.4414685 0.5370388 0.8256915 0.6332829 -0.94254565 0.07754476 -0.1339062 -0.31809348 0.5813866 0.6544026
7192 0.013610124 -0.44062784 -0.513713 1.0103846 0.7124244 0.16249669 0.5401925 0.2063514 -0.11958935 -0.31401345 -0.44064823 -0.16618805 0.1545749 -0.18128003 -0.3255012 -0.26783496
9284 -0.55112386 -0.7176738 0.498336 -0.093383856 -0.025210327 -0.41578406 1.5109359 0.11876202 0.13336836 0.35602534 -0.556916 -0.8787259 0.23003927 -0.4933841 -0.048460934 0.074307844
9679 -0.48303097 -0.58909446 0.28620377 0.23662505 0.3738813 -0.18582067 1.7953804 0.12475914 0.95973724 0.52996767 -0.35258564 -0.020032324 0.3281213 -0.6359046 -0.32751948 0.23362462
8969 -0.8359932 -0.14661305 0.418027 0.2214517 0.8064909 0.49697447 1.1851554 0.49201754 -0.0030560233 0.49860403 -0.54446894 0.17630906 -0.3701406 -0.81911665 1.0951369 -0.10281064
9434 -0.37808198 -0.32000455 0.6453519 0.484964 0.59024215 -0.07323758 1.391887 0.09313455 -0.045288812 0.13734984 0.0026787235 -0.06282893 -0.09215772 -0.4088078 -0.5816578 -0.5689604
8381 -0.19469075 -0.56996113 0.042165868 0.18141194 0.4557234 0.1687588 0.912544 0.15996775 0.27830115 0.12680252 -0.68295157 -0.53776294 0.0028545987 -0.4714364 -0.0061345026 -0.3933458
10191 -0.93584025 -1.0532743 -0.045910433 0.23009592 0.4325519 0.22862516 1.5376606 -0.54112554 0.5209727 0.18379676 -0.36292526 -0.61730456 -0.33353382 -0.84810317 -1.0580093 -0.52842605
7623 -0.2748708 -0.46617848 0.34382376 0.2564224 0.7776896 0.038829103 0.7526023 -0.081261136 -0.47062293 0.2880893 -0.4814228 -0.20683242 0.14607462 -0.49547243 0.058972497 0.028499484
7293 -0.11664626 -0.19415936 0.1137719 0.4526997 0.6838777 0.09421906 0.80193484 0.3691764 -0.07332693 0.20815565 -0.4300042 -0.017536819 0.20259807 -0.519031 -0.20256782 -0.07696786
6035 -0.061033048 -0.19936393 0.108189404 0.62045443 0.6102365 -0.10589493 0.58446306 0.22575451 0.38529468 0.21213637 -0.5070829 -0.13332202 0.17233595 -0.35912925 -0.02790112 -0.37316796
9574 -0.27729312 -0.51680213 0.692685 0.533066 -0.21920808 -0.63198936 1.5187361 0.8530331 0.23634206 0.0854426 -0.5735315 -0.97756433 0.8654031 -0.06260191 -0.18829623 0.19822726
9436 -0.61233926 -0.23389539 0.4340451 0.058649197 0.2628925 -0.7479734 1.1942564 0.6302447 0.13198659 0.27186504 -0.49536005 -0.7385308 0.12878773 -0.66536534 -0.5192608 -0.22613648
9076 0.50176877 -0.14129104 -0.043320566 1.1105918 0.36272308 1.1213092 0.71653205 0.7772926 -0.8506968 -0.65835077 -0.92284817 -0.8491048 -0.49136662 -0.57518685 -0.82049954 -0.72585917
2999 0.2033175 -0.48935428 -0.27231476 0.860528 0.7662163 -0.13185596 0.2958299 0.1316348 -0.339508 0.17771032 -0.5389642 -0.2017518 0.12015374 -0.31729984 0.010886714 -0.3737047
9632 -1.5924965 -0.123291336 0.37955502 0.7408216 0.64476454 -0.003649624 1.5541594 0.49804732 -0.95661175 0.24757452 0.18228696 0.27148527 -0.18415834 -0.3326591 -0.22180015 -0.3438342
7930 -0.3264179 0.28508127 0.15816587 0.5620451 0.56193835 -0.154243 1.0090519 0.53258246 -0.028178519 0.38927925 -0.18856525 -0.13730396 -0.043002594 -0.4917996 0.027104657 -0.16067141
10195 -0.91068363 0.2604099 0.05885578 0.15212134 0.41447926 -1.1378361 1.4808693 -0.054363612 0.36948425 -0.29794648 -0.25273204 -0.14220028 0.8057895 -1.6727668 -0.96165866 0.09786924
8092 -0.15397097 0.0014448653 0.3529187 0.560505 0.25324705 0.07112728 0.9761055 0.4875681 0.09463775 0.4607132 -0.16101515 -0.1979653 0.21234812 -0.5185191 -0.31368914 -0.24970229
10255 -0.49266967 -1.3457298 -0.16999984 0.2875938 0.046258714 0.7678049 0.57485795 0.2812932 0.10759429 0.67625344 -0.84449136 -1.2513738 0.5358943 -1.0434146 -1.1618384 -0.7950259
4490 0.25016987 -0.36950997 -0.2371409 0.7262278 0.6970451 -0.052406866 0.28218117 0.18389386 -0.3195098 0.36457974 -0.42834905 -0.42630044 0.25763226 -0.70970947 0.10064574 -0.23717794
9959 -0.21323918 -0.0736535 0.19305661 0.45148495 0.31260577 0.49353108 1.4570625 1.1083128 0.06033741 -0.21888556 -0.21267292 -0.22204486 0.08253672 -0.49792817 -0.032578863 -0.87062186
8841 -0.075383164 -0.21368854 0.42802405 0.37379265 0.48018518 -0.08511981 0.92886955 0.405086 -0.15836923 0.2007973 -0.41989177 -0.3157011 0.090198696 -0.46772212 -0.4873874 -0.27540106
5747 0.32316184 -0.3740255 0.02301678 0.55504584 0.65906847 -0.13759185 0.41112277 0.33336785 -0.053408273 0.30866027 -0.59604776 0.054896057 0.32217333 -0.6354199 -0.29559922 -0.20817634
9832 0.129396 1.0254924 -0.08283327 1.1478088 0.49125546 -1.1227025 1.0770024 0.22662292 0.42396027 0.20165408 -0.6066421 -0.28763124 0.24050905 -0.60018736 -1.3855852 -0.49553293
9633 -0.24215169 -0.34470528 0.14272979 -0.087120496 -0.00082526496 -0.4654706 1.5859853 0.41342506 0.51465786 0.8761797 -1.3375163 -0.60228336 0.585857 -0.79727906 -0.7235637 0.7251032
9699 -0.2958072 0.000261561 0.44666174 0.6643754 0.9851311 -0.3160017 1.5137489 -0.11185485 0.57008684 0.73572916 -0.77501786 0.025072087 0.19792657 -0.020862103 -0.79776096 0.5758853
9931 -0.42353544 -0.010135381 0.5797275 0.24187836 0.71543974 0.46167058 1.513295 0.26071894 -0.057759054 0.15716931 -0.016528556 -0.2310843 0.84868723 -0.3364908 -0.96584946 -0.6947413
8814 -0.23901376 0.1363635 0.41698787 0.74818176 0.27897322 0.3537117 1.2318379 0.2870397 0.101937175 0.29141042 -0.50149775 -0.23940125 0.10957143 -0.35501122 0.00900861 -0.4250175
9885 -0.16908313 -0.69819784 -0.20366913 0.08542483 -0.0069613867 -0.044592857 1.8891159 0.3814064 0.3024585 0.33928016 -0.18583082 -0.22540486 0.5249388 -0.7768873 -0.2001957 0.08159641
3526 0.24696212 -0.14442493 -0.2663595 0.5542602 0.6537705 0.011747993 0.48511016 0.04725576 0.04013545 0.2536448 -0.5392789 -0.17838793 0.09797992 -0.71650827 0.11455509 -0.060336325
9263 -0.4243291 -0.35337493 0.07837765 0.21822943 0.27566615 -0.40009812 1.1963232 0.45264792 0.38423476 0.44411844 -0.49837902 0.1345138 0.1628874 -0.6603104 -0.3023769 0.27175653
9613 -0.25387985 0.21239221 0.198445 -0.12607685 0.35468557 -0.34801704 1.9723337 0.31555992 -0.0070424117 0.3083316 -0.5221264 -0.53561085 0.5389926 -0.2606182 0.04109866 -0.25075504
9807 -0.47323155 -0.7450839 -0.57024896 0.65678644 0.9124869 -0.6953296 0.88387376 -0.6557842 0.63672113 0.25335127 -0.30691192 -0.18429159 0.16606058 -0.7965235 0.26882347 0.6888914
7714 -0.3327173 -0.0030388534 0.073643014 0.39694372 0.61007273 -0.18481106 0.6892416 0.18419185 -0.003283048 0.23437375 -0.5109929 -0.3915142 0.16852869 -0.6923219 0.03695193 -0.11136999
9986 -0.7991887 -0.32054085 -0.18788694 -0.3291201 0.87620044 0.52935827 0.8086323 0.50795317 0.5831127 0.9389629 0.026623804 -0.3502459 0.6558448 -1.5494138 -0.050795835 -1.2607715
10018 -0.76208913 -0.65876776 0.8626911 -0.4300012 0.97853905 0.54196566 2.1823144 0.8842516 -0.27023467 -0.2010309 0.39226604 -0.88451874 -0.23130915 -0.69044375 0.3239329 -0.4178592
4805 -0.006083468 -0.3067155 -0.24032733 0.5905363 0.61745 -0.011632781 0.75944453 0.113575146 -0.07487375 0.044060033 -0.24995391 -0.30026418 0.16848381 -0.2891469 -0.066947155 -0.347872
9904 -0.32973108 -0.6703468 0.94062865 0.31699574 0.8059258 0.5233806 1.0118322 0.406263 -0.18739024 0.8974039 -0.1515056 0.1486362 0.09949379 -0.9100619 -0.74631083 0.44074833
9542 -0.4822745 -0.5056249 -0.03753778 0.0792676 0.07249145 -0.097431 1.9177579 -0.08681424 0.51106435 0.7830868 -1.0780864 -0.1664748 -0.08379631 -0.65722585 -0.34816888 0.77937067
9887 -0.52035713 -0.32305947 0.6823569 0.75487447 -0.03931436 -0.07947564 0.9395059 0.57738274 -0.2069671 0.23698051 -0.17080614 -0.27341843 -0.23273519 -0.750186 -1.0391686 -0.46207017
9657 -0.45164266 -0.8549404 0.47666922 -0.35462213 1.3435819 0.49660805 1.795043 0.80091023 -0.34193295 -0.56544304 0.42479083 -0.7125341 -0.33748996 -0.6478235 0.26347256 -0.30731025
10105 -0.61472684 -0.24597375 0.31896508 0.3347293 0.3203515 0.06852074 1.4583575 -0.86045986 0.06760167 0.17922091 -0.17116377 -0.26058778 0.483991 -1.111827 -0.058807507 0.10238636
9133 0.21621014 -0.034287464 0.28966957 0.75014347 0.82538855 -0.23544492 0.83148426 0.1015133 -0.29467022 0.22459313 -0.34864792 -0.44043142 -0.38820553 -0.17892835 -0.7595069 -0.08351706
10251 -0.73249674 -1.7401186 0.02706781 0.8273129 -0.17903729 -0.56349736 0.80973005 0.45342243 0.96970373 0.17856327 -0.37523228 -0.7882681 -0.63168365 -1.5487565 -1.5285634 -0.3451944
6175 -0.07868593 -0.08081561 -0.19209158 0.6874115 0.5546829 -0.18199103 0.57440716 0.3941552 -0.102627486 0.34609035 -0.47601926 -0.20190075 0.11932258 -0.41735256 -0.05271575 -0.2932401
10040 -0.14181857 -0.23333377 0.35964212 0.14114663 1.3526286 -0.6314658 1.3213811 0.5313139 0.3741772 0.46990615 1.3230554 -1.8809867 0.10142141 -1.0864065 -0.38921085 -0.99105936
9818 0.099425055 -0.13260953 0.7372736 -0.3019699 1.0637773 -0.090122595 0.714638 0.53993464 0.030307924 0.26897398 -0.9795691 -0.85010624 0.6632515 -0.6602688 -0.8990856 0.25636992
9990 -0.23236355 -0.928997 1.3371663 0.90384007 0.43332103 0.34444648 0.76646286 0.6447408 -0.027851516 0.89887327 -1.6022769 -0.5213698 1.0368373 -0.37427634 -1.3402027 0.785327
8756 -0.16453823 -0.062856965 0.6320235 0.52285415 0.45322272 -0.27957222 1.1409131 0.29492167 0.09706353 -0.021623492 -0.19171955 -0.2286647 0.22488834 -0.5557215 -0.39255714 -0.45677906
9506 -0.3607119 -0.5987932 -0.020255167 -0.27723017 0.32513532 -0.09687915 2.095512 0.16815 0.24711958 0.18045163 -0.41548252 -0.31312037 0.68334216 -0.33463487 -0.39115673 0.2673794
9412 -0.72345906 0.23831272 0.35751265 0.39135343 1.1494145 -0.24555519 0.8360538 0.18856478 0.060340047 0.5225383 -0.68943775 -0.24008945 0.20043728 -0.27227265 -0.6594871 -0.46554813
10047 0.16438013 0.060478643 0.3863692 0.6877084 0.744579 0.3201812 1.2398318 -0.6402361 -0.07897442 -0.14926954 0.03076671 -0.5877128 -0.011137571 -1.2293919 -0.6431074 0.6474928
9047 -0.75251955 -0.3142499 0.49115884 0.11947651 0.6428916 -0.19721495 1.3673695 0.46897805 0.28593495 -0.008298963 -0.3725794 -0.9441067 0.12482485 -0.14312986 0.034824677 -0.23166034
9661 -0.42437464 -0.12357936 0.72742367 0.3638617 -0.031388935 0.06362996 1.7841343 0.27886325 0.01974871 0.19886965 -0.73660624 -0.72633255 -0.38216454 -0.28022587 -0.22028692 -0.19199513
6073 0.048245914 -0.3375078 -0.28071833 0.648834 0.4845853 -0.030964779 0.47784445 0.3320663 -0.2045457 0.45716876 -0.61699396 -0.15287131 0.34709877 -0.48871285 -0.020155055 -0.2658216
8377 -0.21659592 0.14196551 0.23994319 0.57998294 0.6164642 -0.16791381 1.1743822 0.1520041 -0.11385961 0.07453137 -0.3112344 -0.13903432 0.12729858 -0.16939571 -0.0015773191 -0.07735141
8999 -0.698806 -0.5705892 0.34590444 -0.09868861 0.4949354 0.022734206 1.4915743 0.111695535 0.12210637 -0.1745543 -0.7139299 -0.64868426 -0.24528685 -0.21293788 -0.2875427 -0.02475044
7515 -0.16875517 -0.48176324 -0.091049515 0.42411026 0.43101677 -0.2540546 0.955826 -0.006220625 -0.04204483 0.100597315 -0.7892031 -0.29499847 0.010695264 -0.33357513 -0.13133328 -0.08247478
9820 -0.21681903 -0.7564809 -0.024348887 -0.5105336 1.6571597 0.15107717 0.20517763 0.46523026 -0.1695155 0.18671437 -0.7547151 -1.4945265 0.26472464 -1.4140627 0.56908476 -0.44517475
9248 -0.5921548 -0.49034253 0.451148 0.082139656 0.46067888 -0.022634335 1.0846773 0.2970803 0.30381092 0.075621925 -0.59237164 -0.3184757 0.36381906 -0.3590239 -0.37514582 -0.13017935
9801 -0.31448162 -0.29968038 0.48021573 0.49038413 0.19269872 -0.08267294 1.1503992 0.22231 -0.50234324 -0.24251868 -0.31206426 -0.7947522 0.20365705 -0.5555167 -1.3304547 -0.77222484
9695 -0.72200274 -0.15306439 -0.06018767 0.03697387 0.6337111 -0.061073195 1.579349 0.29283813 -0.14302942 0.24486193 -0.64880717 0.13332829 0.53635436 -0.5796343 -0.51688176 0.2107296
9085 -0.05977934 -0.72704476 0.30658227 0.09857408 1.1007528 0.2920281 1.2750167 1.0225902 -0.56836057 -1.1167333 0.15360945 -0.87416863 0.69626075 -0.55445564 -0.9821212 -0.73644996
8890 -0.106942095 -0.30677187 0.1263064 -0.042308014 0.20530988 0.12515011 1.3211747 -0.12056938 0.37717935 0.4740707 -0.45238537 -0.2572717 0.36558098 -0.779731 -0.36457363 -0.3175338
9142 -0.15938686 -0.27888083 0.48031858 0.64360344 0.04081171 -0.094194785 0.9662569 0.17901012 0.25255987 0.64261717 -0.50800467 -0.11719277 0.2086276 -0.5242675 -0.5614232 0.032501664
7624 0.22794734 -0.2004943 0.21947087 0.54345155 0.6751036 0.089852914 0.6998154 0.3176174 -0.15053262 0.19992687 -0.41077363 -0.43882963 0.049192633 -0.5025973 -0.0955806 -0.0019462896
8639 -0.031672657 -0.6121584 0.46574682 0.16645916 0.7157522 0.17159703 0.9019971 0.35794404 -0.14089572 0.14495715 -0.20917356 -0.1174301 0.5162832 -0.63907844 -0.3380689 -0.09938218
10168 -0.94574153 -0.18365555 0.4056344 0.47499967 0.1949097 -1.0722129 0.8066969 0.11135331 0.41451743 0.12056656 -0.94936824 0.13106629 0.93473226 -1.9861037 -0.5594283 0.5992599
9459 0.010066015 0.2216602 0.6743378 0.48390713 0.58088624 0.1284742 0.87744296 0.38338897 0.024199035 0.6770052 -0.7215704 -0.032072395 0.27938086 -0.4488754 -0.57120395 -0.34766608
4507 0.14821276 -0.40232292 -0.22653984 1.0160997 0.7503124 -0.08269462 0.3188658 0.25060862 0.044427343 0.28815606 -0.40332672 0.08431302 -0.039604448 -0.58837056 0.2210688 -0.081103064
7625 -0.1335267 -0.3680853 0.2794079 0.37908715 0.6919735 0.03665413 0.9249092 0.14223464 -0.08311871 0.027981797 -0.5565024 -0.42356935 0.14742482 -0.26109025 -0.031049687 0.095204376
3407 -0.015188137 -0.36022344 -0.118066564 0.38659546 0.41258454 -0.4269948 0.6791251 0.37677068 -0.16161333 0.3509067 -0.36059862 -0.14515494 0.06481193 -0.5571902 0.008661658 -0.33198884
9763 -0.7539643 -0.8414181 -0.5738546 0.52548933 1.0522395 -0.6235959 1.2724719 -0.40180618 0.61005527 0.06645503 -0.4694476 -0.2394544 0.10161897 -0.77476686 0.35448155 0.5921014
3830 0.0695795 -0.2939199 -0.12182005 0.28660762 0.59319943 0.104671486 0.72286654 0.3143134 -0.019548818 0.26736432 -0.22221309 -0.15998788 0.21771246 -0.62213826 -0.20602979 -0.22144173
6391 0.39153036 -0.49590573 -0.3366208 1.0158393 0.81173027 0.05184121 0.4046795 0.11765766 0.15833925 0.0015985174 -0.62497735 -0.27658522 0.10554277 -0.48866406 -0.36442837 -0.13855867
9792 0.056311727 -0.50602365 0.627982 0.30908504 0.59810394 0.051185124 1.8289378 -0.2053311 0.118745066 0.7924368 -0.2650753 0.083975546 0.13300814 -0.35573593 -0.17430928 0.3688432
9467 -0.26040128 -0.24384837 0.15257767 0.56115687 0.40449813 0.40643436 1.2610145 0.00395805 -0.051322315 0.3978328 -0.2528818 -0.17976554 0.4127799 -0.42381725 -0.41580883 -0.49761063
8939 -0.40365142 -0.6607456 0.16402763 0.29317912 0.36825165 -0.28169984 1.0568612 0.18536751 0.013352344 0.12781523 -0.609534 -0.02152872 -0.16136125 -0.6733444 -0.26846182 -0.17608346
8919 -0.21788363 -0.09284857 0.19854191 0.26961058 0.47582898 -0.07070521 0.9796953 0.31626076 -0.048669197 0.13644044 -0.4815583 -0.2907102 0.3292499 -0.5984655 -0.6466934 -0.10495407
9861 -0.95455194 -0.27685267 0.50446934 0.28268358 0.4893208 0.19780104 1.0422752 0.37615713 -0.5941317 0.33262834 -0.47827315 -0.70148915 1.0150589 -0.23162258 -0.77157545 -0.465832
8362 0.20164782 -0.6683998 -0.17638527 0.4196522 0.4581272 0.20534314 0.7546876 0.015689317 -0.034653053 0.038010012 -0.9354442 -0.6291159 -0.4265944 -0.6536302 -0.54074204 -0.38246062
9897 -0.32325938 0.19669436 1.147567 0.51868767 0.7054558 -0.882776 1.3743587 0.32592657 0.111957654 0.642933 0.0110963285 -0.96262646 -0.0028646379 -0.06985383 -0.3601641 -0.5605532
9392 -0.17510639 0.25459042 0.5823479 0.51952237 0.08550483 -0.1586142 0.99369764 0.7909521 -0.97835815 0.84252 0.4144761 -0.1730527 0.7126069 -1.2201406 -1.2069452 -0.6135585
9929 -0.05424127 -0.34740743 0.5861804 0.93694985 -0.45544952 0.4159904 1.243451 0.20278427 -0.25731504 0.55098635 -0.5490068 -0.29356307 -0.022338858 -0.87118554 -0.8810387 -0.69385284
10117 -0.4957348 -1.5314568 0.146038 0.59904075 0.0012795553 1.0622324 1.0669204 -0.09265696 -0.3654272 0.81230515 -0.638939 -1.1490743 0.19840561 -1.1056758 -1.6909041 -0.75045145
10170 0.12743756 -0.20152405 0.58562595 0.40789688 0.073296666 -0.6282241 1.602903 1.1693981 0.87547934 0.51786554 -0.6044772 -0.6430739 0.2762136 -0.7599255 -1.0834032 0.06694251
8513 -0.10218581 -0.34164977 0.55765074 0.32858768 0.3577355 0.07614706 1.0836003 0.2877121 -0.16380587 0.17638229 -0.0426064 -0.53941417 0.18136527 -0.61312824 0.20342836 -0.00033218414
9014 -0.43491092 -0.37028572 0.26336133 0.12975375 0.63127804 0.16941476 1.4667948 0.29568765 0.22102074 -0.4411331 -0.8532277 -0.4286602 0.4413299 -0.14125265 -0.33861822 0.44429308
8524 -0.41328612 -0.43941864 0.2546749 0.5218257 0.47192478 -0.039268248 1.0073817 0.24272783 -0.00703689 0.1013085 -0.19742006 -0.22396941 0.09792483 -0.49158967 -0.41248766 -0.267898
7637 0.17164531 -0.2535612 0.046540562 0.73125386 0.66421443 0.30203766 0.82961947 0.034399383 -0.27292603 0.14500876 -0.45726037 -0.39457068 -0.1526086 -0.17371431 -0.1659608 -0.2354211
6371 0.14766636 -0.09109628 -0.18925563 0.6499974 0.7337541 0.2036494 0.6731413 0.31468457 -0.12420168 0.14000463 -0.40248692 -0.25546265 0.048501737 -0.28064066 -0.2054147 -0.049714364
10222 0.11513247 -0.4721483 0.66884845 0.5297422 0.61462957 -0.54487276 1.3890369 -0.74128616 -0.24126495 -0.24571945 0.1961121 -0.8620101 -0.04804475 -1.0592471 -0.7068817 0.62062913
8306 -0.15894501 0.057287242 -0.303311 0.28120363 0.47291583 -0.40008968 1.2638763 -0.05150656 0.0035808012 0.14026347 -0.53128874 -0.3432224 0.025356911 -0.43821442 -0.42487106 -0.006529685
7793 -0.13213788 -0.4860012 0.09119328 0.44749948 0.80524105 -0.24072029 0.6507626 -0.025902264 -0.42150128 -0.07974144 -0.52357566 -0.52625215 0.2037246 -0.3827395 -0.18428661 0.012211261
10188 -0.5189197 -0.24969636 0.14748149 0.3617774 0.79868025 -0.33918265 1.0532138 -0.53301 0.08188633 0.16784489 -0.016008202 0.51278704 0.5700242 -1.413342 -0.538906 -0.23114625
9892 -0.67543 0.75501186 -0.043119807 0.9485967 0.1818431 -0.2523918 1.6868116 0.7524745 -0.24286713 0.98421806 0.20910111 -0.23384649 0.84160286 -0.3675215 0.06390096 -0.6538905
5142 0.20897081 -0.14346817 -0.045139644 0.6789653 0.54453766 -0.20485431 0.4075731 0.17315356 -0.17693743 0.3562235 -0.49925303 -0.38107684 0.25964308 -0.5447213 -0.0773249 -0.2635662
9875 -0.49167553 -0.37305522 0.75131136 0.10000114 0.7452841 0.7116016 0.855886 0.23609568 -0.67542446 0.8500706 -0.13746902 0.074215405 0.3930326 -0.9124199 -1.0491707 -0.6838853
9723 -0.15890197 -0.5005185 0.36887777 0.6619163 0.64161557 -0.43576723 1.4155658 -0.13802485 0.612809 0.40796256 -0.45492372 0.15396456 -0.14173603 -0.27441654 -1.025692 -0.06397766
8535 -0.55093503 -0.3606669 0.115298264 0.5219869 0.4288532 -0.13754258 0.9185298 0.04086618 -0.13425303 0.1487769 -0.57487744 -0.4216543 -0.02380627 -0.13924064 -0.20415765 -0.24302994
10179 -0.88027763 -1.0382107 0.7284864 0.7357955 0.95728785 0.6427806 2.0345275 0.1901674 -0.17303827 -0.5135376 0.05513563 -0.3953911 -0.8583304 -0.30137148 0.78735703 0.30637622
10002 -0.29444143 -0.15833662 1.2408993 0.043882135 1.1155412 0.083192684 1.1294072 0.8288694 0.46832678 1.160041 -0.22489184 -0.67195636 1.0794135 -0.44673613 -0.029289754 0.23855487
9777 -0.27864778 0.41615197 0.6406658 0.45684364 0.2737714 -0.08055967 1.8262582 0.30761495 0.54053944 0.8735686 -0.19488145 -0.07615989 0.30002692 -0.39601475 -0.118459545 -0.061310202
8982 -0.12716562 -0.43714732 0.21291281 0.23188235 0.5818605 0.18667042 1.0595802 -0.40197584 0.2957965 0.44738668 -0.45614114 -0.014299408 0.31363428 -0.84967405 -0.4816942 -0.014698116
9622 -0.16960998 -0.12544395 0.40453357 0.40617347 0.38913107 -0.24766955 1.3926561 0.32758912 -0.67616755 -0.046558127 -0.15766495 -0.14912626 0.28119227 -0.27579212 -0.702676 -0.66876477
9939 -0.7308173 -0.29149184 0.30434895 0.27046987 0.3170191 -0.34975752 1.9646657 0.7417741 0.2894258 0.4989185 -0.30119127 0.5420365 -0.13448595 -0.4854834 0.2247115 0.1409148
9696 -1.1240835 -0.33484855 0.4840312 0.6436705 0.119489744 -0.82095265 1.8364487 0.057145134 0.45973986 0.13630427 -0.5116968 0.09652421 0.025966693 -0.44332647 -0.9152699 0.1270842
9976 0.06175662 -0.7411119 -0.11133221 -0.1112453 0.4895146 0.59678406 1.9943931 -0.7709525 -0.06876541 1.0963508 -0.81785667 0.079449125 0.76410824 -0.5989818 -1.1180127 -0.4571794
5685 0.12272619 -0.2733948 -0.0794604 0.8388832 0.48159975 0.06922396 0.26793078 0.43491793 -0.3448813 0.16321796 -0.8181351 -0.19700629 0.3576164 -0.59339225 0.12161633 -0.08879659
9486 -0.8731897 -1.0373305 -0.31140643 -0.115867764 0.11537694 0.6911064 1.4995145 0.9231255 0.021142062 0.5467662 -0.44867992 -0.16728792 0.14930387 -1.0076462 0.50989985 0.2643953
9020 0.0028266858 -0.4114175 0.4208919 0.5139358 0.3398591 -0.6051855 0.9921355 0.43157712 0.022611849 0.38385558 -0.055619545 -0.2110524 0.34482232 -0.48922816 -0.7332656 0.058316108
8600 0.04784359 -0.3591953 0.1407041 0.3068522 0.72230136 0.2816595 1.0273813 0.55483925 0.024229903 -0.07165037 -0.37734136 -0.031977244 0.41290608 -0.5349061 -0.30268592 -0.12866306
9499 -0.92084384 -1.0463552 0.08412172 -0.21881376 0.03826254 -0.57538277 1.403068 0.09183218 0.34257433 0.47254753 -1.1029166 0.0026640233 0.4256344 -0.8323842 -0.3262372 0.6259649
7842 -0.24177572 -0.21667618 -0.026396275 0.8639035 0.5017083 0.18888037 0.83570683 0.1923674 -0.20673302 0.038946923 -0.36780468 -0.28002742 0.403037 -0.31130657 -0.3626971 -0.2080113
5546 0.0023839977 -0.007985144 -0.19229853 0.5631724 0.75158674 -0.17438729 0.722784 0.2589797 -0.43436182 0.06652374 -0.3036737 0.025352348 0.32838115 -0.58754236 0.24866003 -0.1393241
4187 0.17852761 -0.15327556 -0.42141116 0.71895313 1.0238173 -0.3405825 0.20458926 0.3041983 -0.032408644 0.33440816 -0.48550752 -0.28533122 0.07474343 -0.6386555 0.1378097 -0.13270047
9907 -1.0860801 -0.5171051 0.46332327 0.6989689 0.008664555 -0.73802483 2.0057125 0.24177124 0.53450423 0.19779086 -0.682063 0.3255625 -0.091967165 -0.4104352 -1.0172395 -0.06351492
9259 -0.22237088 -0.46702448 0.97020704 -0.004289345 0.48248392 -0.10351307 1.2345194 0.5352342 0.05047212 -0.090261735 -0.14203313 -0.9204209 0.09136215 -0.35140383 -0.3698836 -0.5338561
9264 -0.20179366 -0.69084257 0.16843376 0.26346648 0.2601908 -0.25643784 0.46374992 0.588955 -0.047826488 0.21054545 -0.50559574 -0.5174978 0.5212338 -0.5890978 -0.84788597 -0.432847
9845 -0.007298139 0.25718376 0.19998677 0.3268665 0.3694026 0.40053403 1.1142697 0.11012005 -0.91800183 1.1174841 -0.61344385 -0.12990917 0.16815376 -0.730745 -0.64638543 -0.42125535
9285 -0.42906 0.1338667 0.32920542 0.542936 0.57317567 0.106775895 0.9920429 0.5208556 -0.20863633 -0.0783079 -0.09690033 -0.29924724 0.20657499 -0.49329606 -0.3797131 -0.52326393
9562 -0.7831417 0.38897365 1.014745 -0.096103504 0.5082127 0.0649046 1.7152469 0.61917067 -0.14387502 0.4828588 -0.13520405 -0.46140742 0.007689411 -0.598855 0.027762163 -0.12102149
9642 -0.5765157 -0.36421442 0.010564881 0.53430605 0.88724744 -0.1941565 1.2876508 0.09715424 0.5613636 0.2566812 0.26312733 -0.6400949 0.82131755 0.0026767226 -0.46706954 -0.5768602
4491 0.0868451 -0.5057978 -0.029183634 0.6376505 0.73845536 0.024603648 0.5487197 0.038094796 0.0041848077 0.5128281 -0.44848874 -0.10814198 0.1324658 -0.5295745 0.09622728 -0.19833806
7908 -0.33535627 -0.07399876 0.1726658 0.5422438 0.44327834 0.09426754 0.74440926 0.4110139 0.16149905 0.24517065 -0.5364401 -0.36249614 0.2511957 -0.43408817 -0.08541487 -0.21683298
10072 -0.07571732 -0.3865701 -0.39941755 1.0246391 1.687597 -0.69166 0.62004775 -0.32689223 -0.511391 0.25559357 0.04021583 -0.58095956 0.5737658 -0.15726517 0.7083948 -0.5469606
9610 -1.6968174 -0.6387879 0.8478494 0.45361215 0.42216447 0.560302 1.2498809 0.6504576 -0.449696 0.2717298 -0.49582034 -0.28039443 -0.14120887 -0.34596244 0.24384144 -0.0456703
9563 -1.4137673 -0.53670704 0.91286635 1.0851938 0.33372188 0.55610716 1.182393 0.5963491 -0.7909636 0.44127735 0.019744664 -0.26513198 -0.08307078 -0.039780207 0.07569209 -0.5174637
