10312 32
10310 0.036268525 -0.24654606 0.95902747 0.4937991 0.35633206 -0.27480212 1.01526 0.6528399 -0.56158185 0.624001 0.72552586 -0.72613704 0.1323727 0.06726659 -0.9266663 0.9529541 0.6606312 0.29026657 -0.27827635 0.29510006 0.46684515 1.1937894 0.62835044 -0.15964638 0.32573488 -0.5623882 -0.62969464 0.3828159 -0.43247074 -0.21138208 -0.2753261 0.26768222
10297 -0.31101254 -1.2435933 0.18678287 0.32400668 0.40923187 -0.037468143 0.756319 0.67771274 -0.4360339 -0.2772845 0.84458554 -0.8190554 0.06881646 0.079479195 -0.639464 0.25438434 0.6555098 0.20179811 -0.84801286 0.43316284 0.9146787 0.48663554 0.6142301 -0.2948239 0.34686664 -0.3265943 -0.4566409 0.5035344 -0.6802878 -0.79360104 -0.4606353 0.4247537
10298 -1.0609348 -0.6070241 0.89968187 0.08561231 0.44785827 0.105170935 0.9512151 0.35416552 -0.18985307 0.11880903 0.12246073 -0.6779946 0.2895398 -0.13532136 -0.9487116 0.50317377 0.43524635 0.54769284 0.34662238 0.2811853 0.41331095 0.5923167 1.5129144 -0.8320097 -0.03049102 -0.53814733 -0.0971825 0.117130086 -0.009424985 -0.086474076 0.05851755 -0.065019265
9997 -0.06468142 -0.465988 0.56886786 0.1010792 0.046585176 -0.012029282 1.0525599 1.093209 -0.5076194 -0.28838727 0.0805035 -0.019536797 -0.25675252 -0.044336643 -0.12941274 -0.5180638 -0.022064434 0.33735368 -0.0916615 0.44413024 0.5251074 0.7527029 0.7450335 -0.42841673 -0.021751244 -0.428641 -0.65550566 -0.29019275 -0.0688675 -0.11943115 -0.63303345 -0.09504074
10303 -0.18269098 -0.40533847 0.53029066 0.049887486 0.5368504 0.1863308 0.6741685 0.6186949 -0.19776668 0.3296659 0.49344432 -0.28601193 0.05314992 0.18027513 -1.0332898 0.7014166 0.7353268 0.8189846 -0.72328824 0.82182443 0.7417827 1.1163653 0.8658211 -0.17043051 1.0756465 -0.4161589 -0.16918683 0.7590649 0.028091125 -0.44207457 -0.30468735 -0.02967529
10271 -0.8188834 -0.68977237 0.39168477 0.08324828 0.63664323 0.03925339 1.1501374 -0.34960222 0.20894676 0.2672754 0.7781293 -0.7580558 0.23874035 0.07272977 -0.007969316 -0.36569402 -0.85456985 -0.21847959 1.0825964 0.7468341 0.19285402 0.6085962 1.5279568 -0.3509256 0.54565585 -0.70623654 -0.001046434 -0.71502024 -0.14554779 0.017927725 -0.47164533 -0.14701998
10269 -0.2940571 -0.46711132 0.4344904 0.25933784 0.75441426 -0.11538068 0.54708856 0.39247826 0.6012906 0.11547516 -0.06022858 -0.2951124 1.2490008 -1.0734214 0.089411534 -0.1877509 -0.54196215 1.204391 -0.43750095 -0.32268542 -0.0449561 1.0033828 1.013895 -0.3078313 0.47131726 0.65256834 -0.98118037 -0.24705791 -0.49674717 -0.5117564 -0.76666534 0.18697087
9919 0.25424206 -0.9846762 -0.6296388 0.2868811 0.06283368 -0.012537101 0.40890634 -0.86536604 -0.5198521 -0.2388971 -1.1430196 -0.87155974 0.3923334 -0.3780983 0.16986854 -0.042257756 0.6861445 0.31949198 -0.477579 0.5856721 0.4561631 0.5369113 0.9996046 0.019015362 -0.5448278 -0.33318722 -0.5013218 -0.16925858 -0.42404443 -0.42104208 -0.4939124 -0.46924695
10225 -0.66690403 -0.016628442 0.34786817 -0.16778587 -0.38674682 -0.44617465 0.66193926 -0.33657587 -0.77507496 0.55020654 1.5709286 0.050889477 -0.3107156 -0.071167514 0.16363363 -0.20882452 0.5823672 0.3801168 0.1697013 0.9344139 1.2482991 0.77193666 1.0915922 -0.5177243 -0.24633265 -0.31454685 -0.99030876 -0.9609185 -0.07068361 -0.5181099 0.5310859 -0.5582852
9526 -0.01879203 -0.44310772 0.35987294 0.36671776 0.5226201 -0.7049732 0.17145768 0.7594336 -0.34427032 -0.53288734 0.90854186 -0.4414894 -0.4935618 -0.021541815 -0.19584683 -0.43963578 0.18185228 0.27127725 -0.075548336 0.054143503 -0.18134645 0.8090964 0.6454616 -0.27401066 -0.02582892 0.34417278 -0.4454746 -0.41361564 -0.15382543 -0.3123044 -0.2710831 0.5339176
10146 -0.12131816 -0.7419438 0.8155924 0.1936833 -0.8481659 -0.15408118 0.69648075 -0.32022232 -0.501502 -0.8201651 -0.21150273 -0.27166256 -0.29867923 -0.7758428 0.39424258 0.5240949 0.56859154 -0.29546082 -0.6577243 1.4712514 0.6025479 0.17558372 0.9092974 0.08385441 0.681809 -0.16124265 -0.7534409 -0.23427498 -0.071824506 -0.3133017 0.92366135 0.3586696
10272 -1.1302422 -2.0456367 0.46320227 -0.24257898 0.23929268 0.451092 0.6403593 0.12682706 -0.013380047 -0.6120265 1.1428084 -0.6377403 0.29432634 -0.8379292 0.22249967 -0.13397792 0.15059833 -0.35874417 0.886755 0.28895825 0.6296059 0.6558448 0.87240326 -0.4070461 0.45837125 0.28938332 0.12036522 -0.5005891 -0.129459 -0.30199075 -0.2692819 -0.2424865
9844 -0.118905455 -0.14018932 0.8562489 0.5498193 0.0334086 -0.89881545 0.09872932 0.28976658 0.22596176 -0.03398219 0.39310718 -0.44276765 -0.47635895 -0.7089021 -0.7092456 -0.034880683 0.30232555 0.16381937 0.296426 -0.18429732 0.0747705 1.0774734 1.0291793 -0.04795611 0.80765 -0.019144675 -0.31666583 0.10951099 0.10042519 -0.28334004 -0.031135438 -0.58594245
10143 -0.31343505 -0.4730773 0.7554153 0.590124 0.472542 -0.72510564 1.008331 -0.4680233 -0.57656664 -0.36299145 -0.37389642 0.37497303 0.35811433 0.23933879 0.7322379 -0.37922293 -0.54406554 -0.42587197 0.1811684 0.23736545 1.298201 0.6800122 0.77913475 -0.3095889 0.6241939 -0.5967371 -1.5041747 0.47413895 -0.16452998 -0.4898263 0.22073686 0.0077932067
10276 0.2654383 -0.6908773 0.42905125 1.3827405 0.6626384 1.079106 0.7887082 0.10587169 -0.117633566 -0.08270648 0.4781495 -0.5822862 0.536654 -0.62917733 0.90212655 -0.11679771 0.040076364 0.53076357 -0.1645192 1.5924697 -0.011903326 1.1507719 0.08163035 0.24371877 0.75600016 0.81607175 -1.0208169 0.061649498 -0.9805445 0.094333544 -0.37404624 -0.68295044
10282 -0.6495274 -1.9899142 0.70490646 0.11684138 -0.19517177 0.1114633 0.650668 0.017584924 0.2879949 -0.22461674 1.5180414 -0.78657514 0.32613254 -0.68481225 0.138484 -0.36813974 -0.12019737 0.2232731 0.6465572 0.35930723 0.06124992 0.26250008 0.94573396 -0.97456735 -0.00495323 -0.21360627 -0.20287552 -0.8529073 -0.99726844 -0.43195266 -0.48129076 0.1615789
10275 -0.9049797 -1.9552994 0.95310855 -0.20914732 0.6524969 0.28995514 0.91880155 0.048732746 -0.21508345 0.039185826 1.0292006 -0.17861837 0.10089145 -0.11737934 0.2972495 -0.12921867 0.405124 0.4296244 1.2059407 0.35679474 -0.026874177 0.81533295 0.653647 -0.19189979 0.33108047 -0.02632504 -0.06422725 -0.07640551 0.1791148 0.22123604 -0.014284251 -0.3540547
8157 0.06923371 -0.35873222 0.14804794 0.28439832 -0.03354269 -0.18931511 0.02144981 -0.3222781 0.088991314 -0.12240128 -0.085431166 -0.335423 0.011340089 -0.4619284 0.04231491 -0.1765764 0.20675252 0.13130721 0.09500092 0.45454726 0.045175977 0.52898496 0.725688 -0.3699363 0.01282678 -0.04803683 -0.6415908 0.08432396 -0.1817213 -0.012064423 -0.2331932 0.1175718
10140 -0.21552578 -0.49231523 0.51564896 0.43655878 0.28419736 -1.1227789 0.35642195 0.14986686 0.43480134 -0.39754763 -0.09121807 0.11091337 0.3103742 -0.17082931 0.84058994 0.97727174 0.092598386 0.35068834 0.40233284 1.0766145 1.1441686 0.06941337 1.3037018 0.104400985 0.1656343 -0.3595861 -0.708609 -0.04176566 -0.26065105 -0.37098378 0.037266415 -0.29843694
9674 -0.07715829 -0.9757069 0.46277025 0.79369694 0.408779 -0.0717125 -0.36121926 1.0514452 0.22815199 1.2040107 0.09611264 0.1531484 -0.40113667 -0.5612011 0.61234117 -0.3907619 0.54792666 0.12568434 0.50020784 -0.025020763 0.3989893 0.29053876 1.0320107 0.03619702 0.028761275 -0.39127377 -0.9669481 0.36048883 -0.52631766 -1.1118774 -0.04899182 -0.2571459
10283 -1.1189594 -1.851563 0.9161266 -0.1493145 0.8887351 0.44044298 0.64151937 -0.5657603 -0.23133257 0.13825883 0.9220596 -0.10993858 0.5053519 -0.30248296 -0.1830252 -0.10292819 -0.1269378 0.2596263 1.0211949 0.5240936 0.08170697 0.59234434 0.7436107 -0.37024584 0.58184636 -0.23771122 0.02187364 -0.26271668 -0.16056478 0.046894573 -0.5057658 0.13776818
8859 0.090405405 -0.4764721 0.39827615 0.29694304 0.22554643 -0.38603485 0.5966564 0.17681856 -0.10870465 -0.40493536 0.13253814 -0.29564166 0.05800294 -0.18085426 -0.3410093 -0.16437155 0.0653467 0.27829257 0.32909676 0.3187259 0.057929955 0.6576252 0.47632614 -0.22655603 0.15966934 0.26461753 -0.3544618 -0.41439345 0.09783851 -0.14501947 -0.44360197 -0.02667068
9358 -0.12633057 -0.71997577 0.58251876 0.7325946 -0.18065216 -0.070768796 0.26621515 -0.16585866 0.15926741 -0.25715342 0.15533334 -0.25364092 -0.56956995 -0.47214025 -0.2481648 -0.12581004 0.34106466 0.29264534 -0.022664893 0.027571352 0.0034010026 0.9482396 0.51360416 -0.1058028 -0.4336385 -0.06044519 -0.67530656 0.00795792 -0.1480511 -0.5070378 -0.16972676 0.23271865
8270 -0.1777159 -0.48392275 0.24292648 0.3138998 0.3704308 -0.33461702 0.032588046 0.3456 -0.4161782 -0.31575528 -0.34007517 -0.0359761 0.42496136 0.2607622 0.54828334 -0.68444043 0.88419026 -0.7610218 -0.095035166 1.0634923 0.3621439 0.75959957 0.49013847 -0.12593496 -0.30205137 -0.6795722 -0.50624835 -0.13086376 -0.70699453 0.17498873 -0.64188474 0.2532489
9188 -0.09997294 -0.51548296 0.70537645 0.2016683 0.37362075 -0.45830706 0.21193227 0.31092143 -0.18325287 -0.09492284 0.42946267 -0.099277936 -0.115748644 -0.37117335 -0.3036921 0.027597705 0.070210144 0.24098752 0.06740897 0.2393377 0.14882201 0.44601062 0.7610702 -0.28929433 0.088962205 0.38131866 -0.5996806 -0.24620485 -0.13460276 -0.24429898 -0.53092134 -0.36996737
10013 -0.43492728 -0.13228554 0.47828093 0.8776588 0.6381057 -0.2652666 0.036528446 0.23431948 -0.57647955 -0.48789796 -0.19509056 -1.0659425 0.08892918 -0.5034993 -0.14300437 0.0045718728 0.21238464 -0.31384435 0.41800675 0.38622886 1.0973659 0.594443 0.585796 0.032752138 0.38899517 0.3899166 -0.27070045 -0.98130715 0.70885456 -1.0651318 -0.5551673 -0.49621677
10300 -0.42116913 -1.1015272 1.3822799 0.045821287 0.695964 0.6676837 0.61271054 -0.51053417 0.46473774 0.05887261 0.9191698 -0.33353576 0.86700535 -0.8782323 -0.33925003 0.0716143 0.04566137 0.648254 0.63769007 0.38425654 -0.1253397 0.31311184 1.5102673 -1.2990777 0.2500909 -0.14701572 -0.29933852 -0.68236214 -0.5741933 -0.18343914 0.1794979 0.015592485
10045 -0.7536692 -0.8133082 -0.66422564 0.5480092 -0.28296894 -0.40807876 0.029946107 0.68821406 -0.12970002 0.3148699 -0.49480727 -1.3036137 -0.17012027 -0.7983055 -0.38173342 -0.26774707 -0.030197892 -0.19736914 0.5786966 0.36138836 0.22819875 0.730737 0.86589307 -0.8004275 0.40211198 0.10108195 -1.2122761 0.25771034 -0.44094178 0.08014277 0.7848586 -0.5556942
10226 -0.57329714 0.17529744 0.99075294 0.39400032 -0.3667993 -0.3680468 0.22196151 0.18592925 -0.4652329 -0.53089 -0.60979116 -0.12113894 -0.26080292 -1.4213791 0.17474692 0.023615146 -0.19018655 0.78503704 -0.47113097 1.8237271 0.5889537 -0.015725985 1.304578 0.09299454 0.47582245 0.3508127 -0.60659915 -0.7565979 -0.50808424 -0.29349276 0.15691341 0.9253837
10299 -0.6839025 -0.6460666 1.154701 -0.45884773 0.37296697 0.11262731 0.10242463 -0.091467954 -0.07402777 0.38890898 0.41413438 -0.40339372 -0.34258428 -0.123847425 0.29618463 0.6052125 0.6588537 0.38081023 0.009232178 1.405314 1.0148854 0.30303675 0.6313431 0.16128018 0.36452323 0.15684038 -0.6377478 -0.8777458 -0.6295184 -0.11816684 0.044171013 0.9700315
10311 -0.19284828 -0.17738312 1.9451764 0.57584643 0.35959876 0.40211987 0.10909865 0.016554542 -0.24358621 -0.896024 0.46108603 -0.7389224 0.8049996 -1.1956042 0.06783422 0.13950327 0.34836128 0.1628171 0.9008093 0.43772125 0.8516843 1.1552385 0.8297024 0.89328796 0.32673433 0.10193017 -1.1252449 0.16008393 0.030271713 0.48935893 -1.3255796 0.8428807
10250 0.34907258 0.10466018 0.7849169 -0.37492406 -0.4295606 0.07484371 1.0072185 -0.14492565 0.15189257 0.42557207 0.9588431 -0.9069866 -0.48159802 -0.65724796 0.3059705 0.05713204 -0.22688313 0.18663134 0.5065665 0.9667782 1.0631106 0.82469726 1.235752 -0.024871321 -0.021323053 -0.87714803 -0.43012035 -1.6788319 -0.8021684 -0.45152506 0.21660647 0.1329531
10110 -1.2799919 -0.41850463 0.33714598 0.58660287 0.015631815 -0.69967663 0.39928186 -0.20058033 -0.54668444 -0.76655823 0.06143649 -0.3338109 1.0629267 -0.74496126 0.12019484 0.26302457 -0.23292656 0.06993014 -0.71546793 1.033233 -0.470188 0.37826192 0.60677063 0.4334538 -0.60757405 -0.19480754 -1.4437864 0.5033878 -0.38578874 -0.5404943 0.54360074 -0.23276566
10182 -0.7565022 -0.8469713 0.5502899 -0.26585642 -0.03672529 -0.0036827896 0.6060962 0.062658794 -0.2864902 0.23863831 -0.076899745 -0.15122458 -0.1167561 -1.2276646 0.3647498 0.4241406 0.30217212 -0.24748135 -0.702121 1.3275695 1.42956 1.2535979 0.36988133 0.7170079 0.8461344 0.019504467 -0.35728055 -0.25353625 -0.73328584 -0.37780628 0.31582266 1.36918
10094 -0.36227208 -0.5404426 1.0981226 0.48099267 -0.1987274 -0.15598497 1.1281338 -0.23538817 0.3105617 -0.53706783 0.08320116 -0.528773 0.08102558 -0.047068715 0.12642775 -0.022778057 0.9974526 0.5625702 -0.058084104 0.53608197 0.18875933 0.4939846 1.2000756 0.5261487 -0.43422952 -0.20704898 -0.47936553 -0.42436337 -0.011841384 -0.9549831 -0.30010024 0.076243825
10063 -0.24733408 -1.1537876 1.1011531 -0.4621246 -0.08674847 -1.2087268 -0.017306304 0.668248 0.12953208 0.10673078 -0.4873731 -0.6817594 -0.066605516 0.08578408 0.3408084 -0.05525214 -0.08242311 0.6495505 -0.47084814 0.20508245 0.7035855 0.5103149 1.4805803 0.45509514 0.3556142 0.044436045 -0.30626702 -0.090841815 0.21013498 0.37144324 0.27817252 -0.34680396
10304 0.7966418 -0.33671328 0.78388155 1.4104539 0.45460293 1.2194806 0.8885057 0.088671826 -0.020489613 0.050094787 0.41707146 -0.69367695 0.450656 -0.24708253 0.70535684 0.89721894 0.0069897817 0.3942731 0.04809622 1.6441936 -0.27591446 1.3246324 0.6049755 -0.045867894 0.2919926 0.5200938 -1.2205532 -0.41319254 -0.47326872 0.5757116 -0.090984814 0.42984632
9465 0.3766628 -0.55456567 0.23873508 -0.14051661 0.18766455 0.24175313 0.97554773 0.12795894 0.078659825 -0.060553942 -0.16105974 -0.14893945 -0.80332243 -0.28509277 -0.6772148 -0.65099066 0.42654282 0.30652845 0.35554072 0.32839113 -0.00023655541 0.56247187 1.3306937 0.80009174 -0.15123898 -0.6003446 -1.1006117 0.3394229 -0.40516183 -0.5321241 0.096142456 -0.26038772
10288 0.41501752 -1.0257639 0.65179175 0.9842811 0.65628767 0.54263407 1.4074401 0.13058095 -0.48981008 0.5408616 0.3195637 -0.89868236 0.5505669 0.4830334 0.62574434 0.27726606 0.76649666 0.5900348 0.42043176 1.131612 -1.0813019 1.1257036 0.69066936 0.15004572 0.86189413 0.35027814 -0.8149028 -0.13326308 -0.24404478 0.116387054 0.26071644 -0.5010593
10058 -0.09110095 -0.11724344 0.3592754 -0.87902796 0.37616256 -0.74956495 0.5418935 -0.3758329 0.30660295 -0.5839477 -0.31203675 -1.0028949 0.038956907 -0.45687258 0.6348341 -0.6635327 0.047957465 0.46380183 -0.0033990797 0.5929043 -0.50127655 1.1094576 1.0105417 -0.58730954 0.112736434 -0.15914375 -0.04791424 -0.13633414 -0.7904195 -1.4804443 -0.48926252 0.026565894
9890 -0.8091445 -0.458274 0.17117715 0.81606483 -0.946128 -0.1698316 0.7693897 0.92804974 0.010518296 0.047960036 -0.02052311 -0.62093115 0.3076416 -0.056144394 -0.11971448 -0.57609373 0.92959785 0.19526686 0.14292127 0.74089384 -0.27380618 0.18865548 0.2726238 -0.37808633 0.3091035 -0.676411 -0.83349544 -0.39418525 0.08968932 -0.3584693 -0.6212678 0.14715658
10215 -0.5065373 -0.161843 0.6012386 0.24721017 0.3524068 -0.7236015 0.3631599 0.38317809 0.04982518 -0.20080921 1.4229028 0.0878932 0.24945344 -0.1360914 -0.42062503 -0.8169913 0.57410806 1.0157918 0.40435842 1.6763505 1.4121759 1.1517498 0.41981333 0.17700724 -1.3623126 -0.07046169 -0.28373677 -0.43940443 -0.82950884 -0.8064655 1.2338597 -0.20434341
10248 -0.96667945 -0.9823198 0.24945785 -0.4300726 0.072740585 -0.7842069 0.9411788 0.10639554 -0.53225523 0.8359408 1.225694 0.27492756 0.19957028 -0.051062856 0.2044644 -0.34711486 -0.33808824 0.906996 0.6347008 0.41628408 0.68747 0.95818245 1.1559424 0.01184154 -0.19482699 -0.2820894 -0.7877648 -1.632738 -0.16937618 -0.3731043 0.34449622 0.10515334
10238 -0.46836418 -0.9118279 -0.32208222 0.22816117 0.3623829 0.0033553967 1.733416 0.32809561 0.1376939 0.044107225 0.16214754 0.09040332 -0.26318622 -1.090129 0.78807217 0.8298014 0.3536479 -0.0123356655 -0.2632623 0.3234216 1.5585638 1.4031457 0.4472298 0.41670015 0.71498114 0.174467 -1.0784633 0.44979125 0.048167408 -0.18735293 0.5954279 0.41715354
8868 0.28659847 -0.6266197 0.7955579 0.40149236 0.33280388 -0.82708454 0.5510536 0.47607777 -0.2347374 -0.38873762 0.24908459 -0.28108576 -0.067732744 0.13109182 -0.14475024 -0.50673836 -0.05590079 -0.11547397 0.109138615 0.47106823 0.08475182 0.6931722 0.24040356 -0.16763231 0.3092122 0.055557117 -0.0125006195 -0.3901991 0.02214322 -0.34457976 -0.22168286 -0.39955968
9420 0.06734347 -0.7051225 0.5756593 0.3304996 0.23733385 -0.51300716 0.20892598 0.45153886 0.19524017 0.21308742 0.33013505 -0.58735627 -0.21110296 -0.8757743 -0.8039938 0.039926473 -0.021618541 0.22164032 -0.3229793 -0.1341321 0.22918001 0.40151855 0.759363 -0.48202273 0.09782549 0.14222582 -0.36876747 -0.1554431 0.06757731 -0.34320173 -0.4135117 -0.57484806
9935 0.48084283 -0.56921875 -0.49960792 -0.6025941 -0.02701839 -0.7380714 0.58811396 0.07606205 -0.94424963 -0.029043932 -0.82805115 -0.82035214 0.54692256 -0.12338639 0.33054918 0.543254 0.26203698 0.1317367 0.47806036 1.3209603 0.6919688 0.106308684 1.2591296 -0.13953891 -0.20114613 0.10579711 -0.7621643 -0.2060739 -0.8156309 -0.6867561 -0.58881223 -0.3920492
4997 0.07115505 -0.6463181 0.04493312 -0.003848355 0.08904351 -0.41408566 -0.08020956 0.035678025 0.1713431 0.19787863 2.1856278e-05 -0.42554057 0.08136733 -0.19810122 0.1918139 -0.014438687 0.12108935 0.032330114 -0.21935757 0.40895718 0.11045766 0.29318744 0.32129675 -0.07137663 -0.18210438 -0.058492143 -0.67871666 -0.23812807 0.31148198 -0.29321048 0.16434678 0.22416079
9905 -0.15981664 -0.7305635 0.15603147 1.1325555 -0.028515734 -0.42536357 -0.33182624 0.20019466 0.12046657 0.68926823 0.15112434 -0.58099097 0.38367578 -0.35797393 -0.93243825 -0.29840723 0.7629852 0.6725758 0.45155343 0.07861917 0.45344013 0.19033873 1.144826 0.5436889 0.1312426 0.2145636 -0.90550905 -0.50303715 0.16510835 -0.27796772 -0.18562937 -0.4557382
10219 -0.30859983 -1.2245191 0.80665296 -0.54589725 -0.41969422 0.32193476 0.32075518 0.8781605 -0.2501177 -0.116166875 1.3837212 -0.7162716 -0.45962626 -0.8430572 -0.028232405 0.3548662 0.06445165 0.6205031 0.039664302 0.22635351 -0.060338736 1.466265 0.18648675 -0.07395672 0.4279414 0.9338099 -0.5369657 -0.31192225 0.95765656 0.16828488 0.945552 1.1025306
10247 -0.7163889 -0.279564 0.008695705 -0.81591314 -0.19856727 -0.13691255 0.81099766 -0.00260167 -0.25536284 0.9632443 1.6315044 -0.52290106 -0.0731449 -0.38983643 0.24157302 0.065827854 0.27889514 0.50974965 0.26938456 0.7101232 1.896758 1.5732726 0.59082603 0.2766339 -0.098926574 -0.97478795 -0.78616023 -1.2742783 -0.5626161 -0.4947047 0.450649 -0.58059174
10301 -0.61440086 -0.75438046 0.7124033 0.008227868 0.60182214 1.041279 0.38799918 -0.3131665 -0.4048985 -0.49418607 0.68957895 -0.19536144 1.1837765 -1.4016107 -0.122058146 -0.49761018 0.25333866 0.8630807 -0.29620376 0.43539208 0.39283654 0.50954115 0.8456678 0.36483017 0.5324816 0.25981835 -1.154278 0.8650215 0.025558343 -0.4933704 -0.8045315 -0.48727933
10109 -0.41417304 -0.27787742 0.6812788 0.3475385 0.10056815 -0.34636018 0.52462137 0.93975693 0.55567193 -0.9241494 -0.21404472 -0.94323933 0.9511407 -0.31277528 0.6345522 -0.52664775 0.6413868 0.07929071 -0.48753175 0.41846535 -0.27455327 0.6455983 1.2795539 0.05603419 0.38506782 -0.6884043 -0.16053358 -0.55327255 0.17558432 -0.5053143 -0.36129746 0.37646398
10284 -0.48221126 -1.1652193 -0.6247095 0.19106448 0.21901748 0.6757761 0.6084188 0.0016756835 0.21854724 0.41118243 0.9366624 -0.1350852 1.3362173 -1.9125714 -0.19366102 0.39495543 0.49221113 -0.18487573 -0.58929396 0.08539963 -0.016801612 1.5190537 0.6680632 -0.081451096 0.92917544 -0.5420808 -0.5952443 -0.11022125 -0.12513825 -0.25817817 -0.101099245 -0.28957304
10291 -1.0387783 -1.0439434 0.312729 0.09973013 0.33212262 0.2905864 0.8401865 0.01176657 -0.9502621 0.11748532 0.64145243 -0.863536 0.675296 -1.2148564 0.3710015 0.16812165 0.120215386 0.43677196 -0.38256848 0.7028803 0.9501499 1.3856425 0.057916656 1.89062 0.23357591 -0.6532434 -0.0769954 0.58041435 0.94545156 -0.031993747 -0.3427091 0.07094306
10124 -0.7479759 -0.6151614 -0.18120983 -0.3297628 0.30810252 -0.66626024 1.0592543 0.31393018 -0.045214146 -0.26493144 0.20748469 -0.8771565 0.12933148 -0.4476674 1.123335 -0.81614935 0.84880745 1.0633287 0.6356754 1.2607754 -0.7074694 0.4336695 0.86238337 0.48051256 0.6767643 0.08647445 -0.107156776 -0.38537514 0.34958002 -0.37407732 0.81610537 -0.079405814
10048 -0.107231416 -0.671778 0.876374 0.49475405 -0.22184826 -0.19239472 0.4783468 0.52612394 0.6767789 -0.43782717 0.55274343 -0.6143907 0.16066161 0.07080896 0.05061688 0.26275566 0.05604487 1.0766253 -0.44385827 0.28821385 -0.122484125 1.5845476 1.0420792 -0.27966803 -0.6294846 0.3586974 -0.08449017 0.004567978 -0.33355653 -0.70611906 0.43075553 -0.63103116
10227 0.64814055 0.028418802 0.023907116 1.1017156 0.4767806 0.29192016 0.7054737 0.77046454 0.2688247 -0.12623987 0.17514245 -0.897601 -0.30535126 -0.2627132 0.5631571 0.0007658843 -0.5183827 0.35337576 0.24689122 2.0565085 0.4401568 0.82036227 0.691944 0.44105262 0.85612255 0.23474786 -1.0532935 -0.59626395 -0.48942062 0.14760986 0.34490356 0.73332644
10273 -0.3778862 -0.40498692 1.0568433 -0.102102354 1.1635027 0.65533215 0.49850324 -0.26842445 0.120348364 0.1849393 0.8043372 -0.0082110455 1.3032498 -0.6640305 0.6030064 0.5727197 0.7346262 0.2172126 0.14309637 0.08733323 0.3320969 0.78136295 0.80491513 -0.6020619 0.6223026 0.53538764 -1.1608992 -0.42902452 -0.08970148 -0.2882123 -0.8579184 0.38214853
10305 -0.17905246 -0.8579829 1.5614054 0.247969 0.31489268 0.6011885 0.30389363 0.1580858 0.28867146 -1.0213755 0.041416492 -0.4574812 0.37865824 -0.75472885 0.47641873 -0.25644672 0.19903542 0.25582644 0.26787144 0.8730356 0.80835086 0.1638281 0.4962454 0.7000715 1.5684208 -0.33851257 -0.7134995 -0.034280058 0.18767707 -0.7151295 -0.7607209 0.8791751
10295 -0.3167938 -0.84957206 0.37463453 -0.42395526 0.94152015 0.56589234 0.5391214 0.16821976 0.65145415 0.21353748 0.6223551 -0.3581412 1.4516052 -0.73778373 0.4467082 0.993914 0.6855141 0.17766811 0.35094061 0.3621404 0.16527455 0.42142123 1.373088 -0.18307239 0.540879 0.41585732 -1.273068 -0.11334311 0.021418748 0.25054312 -0.53215224 -0.30986473
9876 -0.047672734 -0.9687469 0.683844 1.195982 1.0241296 -0.7607879 0.28860754 0.18740304 -0.18356244 0.063003965 0.53759503 -0.5969334 0.16796856 -0.5078533 -0.24873224 -0.056550343 -0.062216837 0.0026138332 -0.8052052 0.5248803 0.2060603 0.114519216 1.1599445 0.03837518 0.4497381 0.1412531 -0.052526154 -0.6853677 -0.03349019 -0.28371394 -0.29401892 -0.3982756
10289 -0.10180833 -0.41144282 1.1471223 0.02749899 0.10961264 0.18607861 0.3346359 -0.25839832 -0.43782014 0.6150485 1.1711515 -0.74196374 -0.264315 -0.2266336 0.5036591 0.068258256 0.5279281 0.8872292 0.54996836 0.7256839 1.2882556 0.5081648 0.2714064 -0.6134965 0.19891891 -0.31456554 -0.7959833 -0.9170336 -0.5752771 -0.18987548 -0.3670671 0.46337724
7806 0.07097816 -0.3233282 0.48247996 0.49144185 0.13887629 -0.29964495 0.26902154 0.206303 -0.08937651 0.07489503 0.15626231 -0.23208535 -0.14458697 -0.16105926 -0.19536912 -0.16794951 0.10074655 0.25888786 0.46467704 0.2382511 0.38467848 0.45104533 0.3706427 -0.24149358 0.11499546 -0.113129154 -0.46988136 -0.17516616 0.27874476 -0.5707526 -0.31699935 -0.1240308
9105 -0.14045851 -0.7294172 -0.05999421 0.07302333 -0.019114966 0.25448665 0.2873784 0.6256997 0.4075673 -0.042328566 -0.40151146 0.017863827 -0.59421164 -0.42762735 0.3699153 -0.3631024 -0.18756795 0.045121364 0.6265805 0.6333512 -0.36478037 0.65996623 0.92207074 0.11425952 -0.38757724 -0.2883049 -0.5512778 0.33633628 -0.05039297 -0.58265865 -0.29824382 -0.47827262
8476 -0.16184665 -0.2917196 0.4871091 0.07466592 0.19927697 -0.16392815 0.49182695 0.10690369 -0.23241575 -0.16961071 0.20461337 -0.18517679 0.02731372 -0.00043653324 0.21835129 -0.16024981 0.35711515 -0.082653984 -0.050490383 0.33708036 -0.053569857 1.0053391 0.61677814 -0.07420274 0.15414144 -0.178766 -0.542113 0.045190826 -0.08699694 -0.27856332 -0.28934944 0.17470169
6873 -0.059073642 -0.73092264 -0.13371657 0.061685774 0.14090559 0.0044815275 0.09798154 0.149366 0.07592482 -0.14816946 -0.29997826 -0.19984405 0.22524816 -0.19980182 0.15961531 0.08972093 0.13299426 0.11515208 -0.19578016 0.56003594 0.08398683 0.34822413 0.52458006 -0.20274183 -0.09264348 -0.2982384 -0.79184633 -0.15394527 0.33747306 -0.03329407 -0.023595676 0.094188064
10167 -0.93267125 -1.0336775 -1.1280155 0.09129315 -0.18349287 -0.6285574 0.27895144 0.17812872 -0.6017862 0.7059683 0.53470814 0.3257319 0.865808 -1.7150552 -0.8089773 -0.9396705 -0.48279133 0.039330125 -0.6727097 0.9129853 -0.50159556 0.8908578 1.2001057 -0.40516314 0.5231674 -0.31740475 -0.37412354 0.22293602 0.2562658 -0.6605663 1.2122277 0.75509346
10123 -0.3195733 -0.68674767 0.3683273 0.21688174 -0.032147795 -1.0530076 0.87984675 0.46879488 -0.38906452 0.12334504 0.15516216 -1.435298 0.015210692 -0.64099884 0.78306544 -0.20593096 0.59829885 1.044799 0.066024356 0.613425 -0.20052406 0.2886845 0.7863323 1.181188 0.7115871 -0.32319337 0.075187795 0.23477912 0.68662167 -0.67054427 0.4406817 -0.03161683
8234 0.06516753 -0.64129215 0.28226146 0.19949014 0.24058424 -0.18625805 0.43064132 0.3052051 0.13549064 -0.20668179 0.08291151 -0.53059137 0.049848963 0.20810796 -0.03173545 -0.23697731 0.101114444 0.007776834 0.040136635 0.40216738 0.2134301 0.3980175 0.45903102 -0.29877564 -0.41457194 -0.12475032 -0.55317247 -0.014617547 0.08188511 -0.058737047 0.03505166 0.40909454
4839 0.026504869 -0.5087231 0.35383162 0.06972736 0.16397463 -0.292315 0.15944377 0.22741269 0.08033228 0.21504427 0.009213524 -0.2883528 -0.107501 -0.15824242 0.07548122 -0.2845362 0.20329897 0.32095358 -0.2909652 0.5811204 0.23650317 0.41706127 0.31084925 0.03559977 -0.1512261 -0.2750495 -0.15723237 -0.08107075 0.2975711 -0.32015732 -0.083329104 0.09336287
8911 -0.5255952 0.009032152 0.48999012 0.6583074 -0.39863414 -0.18655008 -0.37747023 -0.2375728 -0.39058298 0.57911664 -0.058965288 -0.58813435 -1.1033633 -0.46939972 0.6610056 0.45802867 0.021078143 0.4701971 0.5553731 0.5119678 -0.1966833 0.599143 0.59286135 -0.18174173 -0.8051677 -0.7300263 -1.0051675 1.1091666 -0.16662624 -0.65597355 -0.28690842 -0.07017139
8525 -0.1696649 -0.5191391 0.32798603 0.3360337 0.408217 -0.18080094 0.08171767 0.4041027 0.26615855 -0.12924568 0.023670355 -0.2692813 -0.09351003 -0.38490677 -0.13285616 -0.17646338 0.35050917 0.011673605 -0.05877993 0.3449335 -0.14855182 0.57154965 0.7547898 -0.100234054 0.050526887 0.012822957 -0.50194514 -0.02832192 -0.030148916 -0.25745848 -0.079384565 -0.009168519
10306 -0.0012677796 -0.53015465 0.49292472 -0.43406215 0.8379498 0.92236024 0.58813477 -0.5228257 0.3302854 -0.30747902 0.7062064 -0.74754965 1.1439028 -0.758753 0.57262444 0.2777863 0.49550015 0.459926 0.05813339 0.12459491 -0.15019603 1.1780196 0.7776994 -0.8141666 0.4652681 0.28532797 -1.2990022 -0.20940982 -0.34399092 -0.16175464 -0.450135 0.12223962
9480 -0.3530066 -0.03579142 0.29056057 0.8500458 -0.14373183 -0.6484373 -0.0454095 0.25399598 -0.07672502 0.01894789 0.44438115 -0.27307075 -0.71970826 -0.6612083 0.2270599 0.13446993 0.65055996 0.43614435 0.49036002 -0.12305802 -0.31114528 1.3334974 1.0431062 -0.6014286 -0.029462855 -0.29378885 -0.14768195 0.3308409 -0.22585803 -0.42769545 -0.14025226 0.5588234
9653 -0.088480584 -0.47723526 0.5969791 0.1945435 -0.52692384 -0.50159466 1.1010785 0.62083226 0.22322781 -0.09250524 0.03147948 -0.35336444 0.37245655 -0.09262634 -0.47207543 -0.21082336 0.45012656 0.44408187 0.14267448 0.44823593 0.34315732 0.10906822 0.6276574 0.012529679 0.56226 -0.12280546 -0.49830535 0.019268481 0.24795753 -0.19689819 -0.8556877 -0.17880696
10068 -0.72167647 -0.58872026 0.7649366 -0.8979868 0.25193775 -0.1523869 0.18898693 0.4806135 -0.45443326 0.24501844 0.91260386 -0.98910075 0.23306431 -0.6996364 0.33303118 0.65003204 0.26789057 -0.19203445 0.33115023 1.0720067 0.16737786 0.75370336 0.64192134 0.040250782 0.34532335 0.116932355 -0.007249845 0.2929626 0.8443633 0.23996258 0.48776487 0.7498149
7989 0.10245676 -0.44779846 0.5453928 0.5560965 0.21323995 -0.36616302 -0.051672366 0.15215003 -0.1704514 0.0010979376 0.017308787 -0.25409588 -0.13443607 -0.29032382 -0.15538043 0.14750983 0.08857811 0.12007133 0.073992416 0.579385 0.22683997 0.30892083 0.58395183 0.05389868 0.004675448 0.001310857 -0.49123973 -0.39651787 -0.072509944 -0.46870077 -0.25942248 -0.11811278
6141 0.21709439 -0.89796025 -0.08526702 -0.04880725 0.109724194 -0.05371841 0.1583613 -0.08652364 0.32376188 -0.12683453 -0.13771102 -0.18008645 0.098597884 -0.023057723 -0.0951415 -0.22226213 0.065625444 0.0011683665 -0.1971017 0.6507118 0.047334462 0.60914344 0.26434445 -0.12054995 0.05594418 -0.16865723 -0.22822621 -0.18049954 0.5586906 -0.40370852 -0.080639735 0.29635224
9872 -0.39505717 -0.5698567 -0.07795384 0.1529825 0.26571682 0.059936155 1.2861351 1.0510176 -0.8992373 0.44719303 0.18477266 -0.5326997 -0.55730426 -0.8525957 0.25213853 -0.71456116 -0.1635616 0.26214975 0.06107392 0.16983745 0.83777946 0.28568342 0.6286665 -0.82233006 -0.9195433 -0.19769181 -0.84125245 -0.059166305 0.48127738 -0.21003592 -0.76765776 -0.60811347
10286 -0.8518321 -0.40589935 0.49441424 0.5619221 0.72824186 -0.21998173 0.86593735 -0.52133113 -0.48764354 -0.33241242 0.40288085 -0.87236303 0.4725753 -1.165607 0.03358417 -0.27044857 -0.99645734 0.674449 -0.21977858 0.5539524 0.7353867 0.8069037 0.16222309 1.1092058 -0.035688706 -0.14515676 -1.1541971 1.2079158 -0.14492755 -0.5509078 -0.636561 0.40606856
6959 0.15529424 -0.59175044 0.2653352 0.08748047 0.0011595339 -0.1721178 0.44359368 0.16403806 -0.20911698 -0.01843718 -0.18539737 -0.4179559 0.33178967 -0.34566966 -0.033150237 -0.20863645 0.07656138 0.10907904 0.20500132 0.47183332 0.17769986 0.3555019 0.24292526 0.027792927 -0.05306454 -0.037560523 -0.44280475 0.25793213 0.19686204 -0.35802916 -0.031682607 0.14879383
9978 0.11628562 -0.5708665 0.5081372 1.0731403 -0.301454 0.11938569 0.59614307 1.5508072 0.07237912 -0.06041909 -0.18793696 0.017197674 -0.2386952 -0.49980626 0.54936343 -0.74713224 0.78247 0.62767655 -0.28144607 0.736333 0.064908415 0.38491628 1.2171212 -0.28352708 0.105153084 -0.8202203 -0.12915839 -0.18359244 0.30999166 -0.23246077 -0.50363666 0.387018
8302 -0.014583079 -0.5324974 0.027523449 0.02597547 0.32246217 -0.077702254 0.31846806 0.18359768 0.07381006 -0.009171585 0.0030479115 -0.4526804 0.052380428 -0.2882606 -0.047283657 -0.36954468 0.14950587 -0.1617472 0.04092311 0.40999925 -0.08421745 0.38037756 0.6330463 -0.47984153 -0.25440207 -0.116373464 -0.4380565 -0.03879579 0.010877859 -0.605526 -0.3123361 -0.06361809
9216 -0.27393067 -0.0044660904 0.72813475 0.40211377 0.09081464 -0.073379 0.20504901 0.5341935 0.025599169 -0.7350685 0.20158164 0.121005684 0.06930664 0.29908434 0.32177326 -0.18623099 0.607298 0.06467256 -0.2588555 0.6842843 0.35906205 0.9750585 0.36798355 -0.3511686 -0.37780365 -0.33271036 -0.75541514 -0.6580491 0.05955258 -0.3376858 -0.66037565 0.22278151
7922 -0.20175289 -0.52608514 0.015978087 0.48024228 0.08682993 0.07471036 -0.21883708 -0.12666205 -0.055738576 -0.3171104 -0.05029328 -0.010746888 -0.3460422 0.13359553 0.7130252 -0.38650453 0.08672772 0.31233636 -0.16048813 0.65284026 0.030881908 0.6274424 0.62765956 -0.22479436 -0.2764706 -0.34293565 -0.9203709 -0.07266887 0.15427147 -0.10369127 0.07856172 0.4710247
9685 -0.08304645 -0.5345768 -0.6164182 0.732771 0.04589937 -0.33976287 -0.6174707 -0.12098229 -0.90406126 -0.12586136 0.3277689 -0.7138469 -0.63882554 -0.5919274 -0.3667447 0.23157617 0.18871354 0.2487765 0.53733444 0.017025929 0.2862944 0.7369148 1.6105113 0.28953114 0.29897106 0.010901033 -0.82055473 0.089518525 -0.114831194 -1.1673998 -0.05896172 -0.11303378
7098 0.14062746 -0.4740211 0.37339586 0.24325892 0.21641722 -0.36866438 0.2674386 -0.099156104 -0.018112913 0.12749186 -0.02813213 0.020603422 -0.18947731 -0.28235674 -0.27897558 0.056654412 0.21000224 0.37000033 0.30280083 0.26373342 0.27622634 0.476506 0.5134562 -0.32597938 -0.0015778244 -0.05407598 -0.5588928 -0.10967218 -0.1226808 -0.4661971 -0.4531301 0.009324697
10279 -0.20524411 -0.5579813 0.36756945 0.29627553 0.34584212 0.78024465 0.79765964 0.1897594 0.5754179 0.13561188 0.6142324 -0.4653812 1.6017344 -1.6816554 0.32025975 0.16112144 0.5679579 0.22862527 -0.8090389 0.041131865 0.38764113 1.604645 0.48156354 0.106584944 0.61923987 -0.1738375 -0.41580692 -0.25130686 -0.4196523 -0.59538454 -0.61517125 -0.12695573
9172 -0.44186717 -0.528235 0.2901318 0.49706542 0.08148372 -0.21177506 0.15553539 0.23326512 0.09338441 -0.14224377 0.22867015 -0.45041618 -0.18140492 -0.1317542 -0.4106497 -0.027742764 -0.08836829 -0.2490338 -0.12615274 0.5661291 0.19673234 0.2570469 0.9397489 -0.00029157382 0.12527618 0.06801564 -0.7328789 -0.25614315 0.17377645 -0.42354617 -0.29748884 -0.26644295
10192 -0.24420275 0.015440703 0.4702136 0.519769 -0.4813243 -0.700937 0.7616636 -0.5633368 0.21728788 -0.73261315 0.34778768 0.4961686 0.7789591 -1.2522666 0.5128214 -0.74310255 0.2134602 0.12062449 -0.09246895 0.2139199 0.72403544 0.88230634 1.1550694 0.0624006 0.553899 0.20167929 -1.1722598 0.29280743 0.141828 0.08509437 -0.5448709 1.1080784
10180 -1.081921 0.043172278 0.10167635 0.7382716 0.15044674 -0.5260085 0.4620693 -0.41818863 0.50450593 -0.54848415 0.46930614 -1.2240547 1.6487409 -0.92223084 -0.114052825 -0.2043303 -0.5555239 -0.082103714 -0.84065694 1.0189853 -0.16931397 0.7871487 0.4629784 0.021238662 -0.3242682 -0.870098 -1.4283644 0.26108405 -0.6393429 -0.35102463 0.48938933 -0.26500383
9517 0.0052687693 -0.7783543 0.34379277 0.6278878 -0.082122 -0.27202517 1.2517354 0.66448414 0.26368135 0.4012726 0.021623736 0.24278396 -0.11065207 -0.046109743 -0.45145828 -0.57532114 0.32945505 -0.19664882 0.16208053 0.7862151 -0.124077275 0.7287347 0.87649506 0.0045660036 0.21104947 0.59239686 -0.0075971587 0.52621865 0.086141445 -0.25987163 -0.059402205 0.034496028
10104 0.21504539 -0.23583594 1.1916548 0.17323399 -0.13077073 -0.20696658 0.24156322 0.48125744 0.0683432 -0.3171817 0.6776093 -0.24442384 1.0229625 -0.56272453 -0.49748388 -1.3625857 0.1939283 0.41689914 -0.09489499 0.5219548 0.7895551 0.08013278 0.99444693 0.6701379 -0.63126963 -0.40269303 -0.9591345 -0.0716105 -0.49570352 -0.77187604 0.12810907 0.15667497
10270 0.0381849 -0.6998688 0.6010279 -0.14736935 0.28296444 0.77024657 1.3067431 -0.3020666 0.6985105 0.28090483 1.1690018 -0.45151776 1.1944067 -1.2801982 -0.045299266 -0.078739166 -0.530741 0.4832127 -0.20703623 -0.113879584 -0.24978177 0.61705476 1.5722877 -0.5730088 0.3088578 0.058419835 -0.858755 -0.7853598 -0.2469394 -0.420494 -0.20705017 -0.048625734
9794 0.47950378 -0.6509686 0.8281287 0.5803863 0.21031946 -0.49830607 0.5608061 1.3606933 -0.46982256 0.19083387 0.3804314 0.003037735 0.11397624 -0.17383353 -0.1716262 0.15988751 0.49157473 -0.22910596 0.042357147 0.27122158 0.4659836 0.7124537 0.77262324 -0.2373662 0.023371942 0.19382945 -0.28559408 -0.43695158 0.08207094 -0.24410687 -0.019557528 -0.5029396
10230 -0.23643383 -0.38658556 0.07605069 0.2703916 -0.18928885 0.7390225 0.86864483 0.273923 -0.33344612 -0.006967672 0.051933005 -0.55139136 -0.3926069 -1.6254396 0.056602035 0.69866467 -0.4721917 -0.43784586 -0.13102141 1.4166131 1.2242461 1.1617877 0.4879716 0.3015292 0.9693475 -0.7344156 -0.46517888 -0.26398692 -0.33672273 -0.20763136 -0.03548068 0.2541092
10184 -0.43648934 -0.23994125 0.5259286 0.28024885 -0.15944308 -0.77480805 0.8260171 0.74212664 1.1223823 -0.37732786 0.85742587 -0.77250624 0.7811124 0.26502633 0.4066861 -0.7312454 -0.22001225 0.23877594 -0.42052302 0.2752665 0.2198827 1.4169658 0.8778312 0.39449158 -0.08707832 0.5146025 -0.26908654 0.38883618 0.39368102 -0.6524745 0.35862696 0.71403843
9692 -0.10832889 -0.58241063 -0.7729235 0.41995886 0.32418445 -0.4518877 -0.19937022 0.20564866 -0.38576445 -0.50431615 0.1317225 -0.9238607 0.061238125 -0.9338903 0.012544983 0.6018171 0.39428306 0.633959 -0.0025793975 0.3059726 -0.03862336 0.46269763 1.9667655 -0.58919865 -0.45308316 0.18853821 -0.17223756 -0.2547497 0.2034824 0.19528665 -0.60665214 -0.33391386
10214 0.03793244 -0.2554719 0.21561667 -0.107170805 0.27898338 -0.48953468 -0.10636929 0.42200947 -0.34782243 -0.36434743 1.052771 -0.27168044 0.7448215 -0.34384975 -0.5802754 -0.9394036 0.541027 0.98609173 0.26535586 1.5937504 1.6015848 0.8628215 1.0647204 0.6335887 -1.2284497 -0.15224989 -0.62640023 -0.6760336 -0.94020694 -0.52361566 1.0430436 -0.5388782
10178 0.11700121 -0.67958874 0.47941628 0.35365477 -0.6501164 -0.7480653 -0.16851114 0.32050696 0.00948949 -0.5669479 0.61256 0.0077144 -0.4217421 -0.77201533 0.5679719 0.6483233 -0.56391686 0.3985979 0.35611996 1.3255403 0.8358812 0.06704553 1.0003663 0.39864916 0.99161154 -0.39306986 -0.9571896 0.65875095 0.48941156 -0.11314371 -0.21078317 -0.51447755
8095 0.3596476 -0.53544503 0.42499325 0.28202868 0.1240324 -0.147404 0.25706866 -0.052630864 0.18545441 0.11696205 0.108800836 -0.70880467 0.3369633 -0.38370135 -0.42621356 -0.06496814 0.056948114 0.7288241 -0.16159524 0.40806654 0.4969026 0.409651 0.44050744 -0.63239276 -0.08449455 0.046665117 -0.087353215 0.15654363 -0.059614368 -0.31272104 0.09637465 0.42250314
5450 -0.18067802 -0.5223007 0.021645086 0.18390012 0.1675745 -0.2635429 0.04275186 0.017124897 0.013270965 0.003174921 -0.10429887 0.03832496 0.02810328 -0.16360769 0.108864605 -0.08866367 0.17811543 0.20514122 -0.36499393 0.93930286 0.33412495 0.22783901 0.38507798 -0.50812817 -0.23293245 -0.045914352 -0.35668036 -0.23951901 0.4613187 -0.44421414 -0.059419762 0.22216241
9964 -0.018659033 -1.0177999 1.1584448 0.7362098 0.4109633 -0.2997012 1.0873189 1.3251262 0.08032189 0.91683763 0.17973036 -0.14781316 -0.47267428 -0.49032283 0.79182625 -0.4723884 -0.020120531 0.16483726 -0.40896502 0.56957155 0.24951583 0.1251825 1.1064185 -0.5218624 -0.4291363 -0.18211813 0.0067486293 -0.005920785 0.042221688 -0.23868012 -0.4146998 -0.0738058
10162 0.11069271 -0.22594601 0.3350103 -0.20608157 0.2380884 -0.35338667 0.13546659 0.36675763 -0.38949737 -0.21010461 0.8372879 -0.4608828 0.6103656 -0.19180837 -0.45269996 -0.8341247 0.47195297 0.78313106 0.414391 1.4163736 1.3322767 0.68471 1.0449402 0.5919325 -0.8801776 -0.13311891 -0.71140707 -0.36165312 -0.87916774 -0.4103075 0.62519324 -0.44723737
10194 -0.8283833 -0.5139113 0.5926819 0.16396904 0.3125696 -1.0181609 0.4612136 -0.67050123 0.21132863 0.29200083 0.41023058 0.3621977 -0.5850359 -0.4182352 0.3217422 -0.17580855 -0.06771995 0.823598 0.3444167 0.6152796 1.5377587 0.51225173 1.1294049 -0.11810713 0.44102213 -0.0667989 -1.1690149 -0.2781544 -0.49939921 -0.32021233 0.5162911 -0.5566619
8775 0.32825083 -0.511504 0.5321895 0.28057986 -0.102082096 -0.5080637 0.41261432 0.11381547 0.24311912 0.06711758 0.3098353 -0.13912855 -0.19945341 -0.28088436 -0.3067044 -0.49830285 0.27576092 0.17265674 -0.000807939 0.197955 0.1590305 0.4513431 0.49813956 -0.36787015 0.16668372 -0.033054896 -0.37415946 -0.13310552 0.097642966 -0.20093738 -0.5163098 -0.019593302
9802 0.21846065 -0.2554172 0.06329755 0.64257145 -0.14282195 -0.64219964 -0.6917556 0.22317392 0.010357685 0.26207244 0.09341496 -0.6120397 0.0021828674 0.1121852 -0.7755702 0.26784012 0.37428004 0.33475444 0.9372595 0.17507422 0.31543624 0.8598138 1.4117365 0.51939195 0.5593626 0.38066947 -0.8554509 -0.36282825 0.018489996 -1.023066 -0.13808335 -0.21013705
9533 -0.2634913 -1.0212169 -0.48624963 -0.070674166 0.16798091 0.29345286 -0.73277986 -0.3923353 -0.4895269 0.5254262 -0.40970662 -0.090402186 -0.20031637 -0.3461154 1.1076686 -0.5781922 -0.01731276 0.10659087 -0.01829097 0.7851009 -0.19031721 1.244191 0.32866243 0.17522275 -0.3668632 -0.4931745 -1.2639582 0.40885016 0.09459588 -0.22372346 0.14854932 0.9290866
9803 -0.38344777 -0.9577741 0.6629901 1.1002692 -0.49269027 -0.14876835 0.29029557 1.0975046 0.37155595 0.16825876 -0.32259685 -0.46793664 -0.14772741 -0.31637406 0.046824694 -0.17588055 0.6614749 0.39158088 -0.031220146 0.9172267 -0.39334652 0.03790172 0.5518226 0.3227959 0.35671535 -0.56579125 -0.8420003 0.035097513 -0.32377324 0.095967695 -0.4889281 0.08698636
9311 0.09064342 -0.6636708 0.4266706 0.06314264 -0.49289316 -1.0241442 0.9857992 0.25980917 -0.4437661 0.11553923 0.3564938 0.013018176 -0.18841681 0.06138755 -0.26134735 -0.3488816 0.112855226 0.27398404 -0.15404662 0.30434787 0.40368837 0.7241701 0.27311605 -0.5229138 0.61026305 -0.067491904 -0.41039503 0.37932873 0.3910185 0.05646434 -0.40055364 -0.08793452
9969 -0.14092368 -0.918053 0.61828226 0.16203251 -0.07615666 -0.54627204 0.5816527 1.1987069 0.13446417 0.08610136 0.31240937 -0.56387377 -0.50589293 0.33563626 0.46534058 -0.72889215 -0.37641993 0.13653651 -0.142456 0.5039221 0.7574586 0.21782233 1.3195739 -0.36594623 -0.19995517 0.2653792 -0.2964011 0.2650843 0.5434217 0.47554484 -0.17414434 0.2130977
7373 -0.0130405035 -0.4236106 0.14440782 0.2511362 0.15860833 -0.4084396 0.23991026 0.2145953 0.07568422 0.20476104 0.23809516 -0.39745206 0.018520705 -0.24247812 0.043026283 -0.06458193 0.207454 0.29076222 0.029150316 0.40677467 0.11013866 0.5084467 0.4542248 -0.20834048 -0.10725536 0.26026076 -0.32455233 -0.2506479 0.17851734 -0.44774306 0.081491716 -0.20443903
9607 -0.8677743 -0.23433506 0.46543714 0.8450611 -0.1288451 -0.44949788 0.30146074 0.5586435 -0.18777987 0.1871736 0.26444376 -0.7745674 -0.5188045 -0.35212255 -0.5417592 0.03323667 0.3281699 -0.050137907 0.011721482 0.6967652 0.19334815 0.58898044 0.647523 -0.11487148 -0.09610089 -0.14384146 -0.3243076 0.15101358 0.12474602 -0.18060464 -0.434877 -0.290153
5705 0.13038895 -0.5278066 0.25853914 0.08901338 0.21584319 -0.28872645 0.03973753 -0.10920617 0.03522945 0.016288934 -0.256855 -0.37010393 0.16504993 -0.14555766 0.07804031 -0.16313247 0.12213849 0.103103526 -0.30215076 0.779978 0.07075684 0.33134457 0.32504386 -0.1816806 -0.2538403 -0.11349791 -0.33247575 -0.07652255 0.38624993 -0.25410512 0.029294714 0.04272688
10073 -0.098319046 -0.8522923 0.39306328 -0.5296118 0.06445966 -1.2697922 0.6173746 0.30781382 0.035232298 0.097654015 -0.024446119 -0.34618846 0.31247866 -0.27624103 0.51550716 0.512095 -0.047977958 0.08846435 0.20290199 0.8039104 1.3923635 -0.1265949 1.8761067 -0.04780909 0.21577108 -0.017038668 -0.6368971 0.3774272 -0.32553923 0.31645098 -0.10839812 -0.22382124
10083 -0.6037975 -0.58754086 1.1235127 0.6582271 0.004330907 -0.21259896 0.8000354 0.31524456 0.47215855 0.0409446 -0.13559194 -0.51406085 -0.047102697 -0.2472217 0.89125645 0.22670817 0.24684371 0.5900772 -0.23830071 1.0178254 0.7049152 -0.1440624 0.95589066 -0.062228527 -0.23781088 -0.052271977 0.0024189586 -0.5900965 0.22298859 -0.9301213 0.047126234 -0.10436177
9548 0.12213437 -0.5046149 0.55025315 0.7906186 -0.30174568 0.19878028 0.6461363 -0.047777105 -0.027182788 -0.33270484 0.17775115 -0.6196757 -0.26649252 -0.24931094 -0.4977454 -0.62583685 0.46324623 0.085255064 0.3936425 0.69415915 -0.119321264 0.64268225 0.82596934 0.14905213 -0.015374754 0.6574291 -0.53865486 -0.04838123 -0.27284145 0.11978712 0.027553061 0.12338664
9824 -0.06566182 -0.69015485 0.575131 0.34964138 0.18719672 -0.114609264 0.020178743 0.31517902 -0.13798118 -0.3625278 0.103767544 -0.030290231 -0.16759825 -0.19309624 -0.5004913 -0.1075548 -0.34044656 0.22029795 0.26457876 0.40230572 -0.05120677 0.6514409 0.93867576 -0.13599613 -0.08996259 -0.38701612 -0.9186727 0.16024055 -0.5538528 -0.25894448 -0.40420163 -1.075376
10249 -0.6859276 -0.22432633 -0.31156534 -0.20387049 0.16657865 -0.42620838 0.22150481 1.5343626 -0.25352222 0.16188124 0.68380874 -0.76099867 1.1495878 -0.91926306 -0.048521385 0.74618804 0.40984365 -0.18578906 -0.08009608 0.7104473 1.1582086 1.3952745 0.36521912 0.44115087 0.49881053 -0.45828354 -0.6393257 -0.43833667 -0.032752275 0.08748573 0.29309765 0.11628316
8736 0.09501258 -0.68393177 0.23274788 0.11083909 0.46401986 -0.20736383 0.57902414 0.33733866 0.0012234226 -0.105858594 -0.044354104 -0.511729 0.0071471576 -0.41807562 0.0233006 -0.19083083 0.44792882 0.055202916 -0.028811123 0.0029511838 0.012467644 0.48450127 0.8888045 -0.21468276 -0.09169582 0.13117033 -0.5400029 -0.18991019 -0.058193088 -0.28989956 0.10662785 0.12435254
10134 -1.0675316 -0.017775154 0.3404515 0.6668728 0.19267221 -0.6540005 0.5078038 -0.3915646 0.44662002 -0.63892156 0.542398 -1.2145144 1.4175231 -0.88829225 -0.46020904 -0.053164717 -0.33059645 -0.09323162 -0.80053365 0.9418252 -0.43605193 0.8078793 0.40353507 -0.022777071 -0.16088949 -0.7061212 -1.5275295 0.20010164 -0.67288715 -0.3978732 0.043052472 -0.54713327
8967 0.20303105 -0.40081006 0.27486345 0.76910895 0.0032656698 -0.5830357 0.2700444 0.14456697 -0.5703189 0.36058193 0.036553465 -0.9065361 0.05406063 -0.21631865 0.08943027 -0.28975347 0.4607003 0.095551595 0.045130085 0.4323965 -0.38494107 0.6884921 0.49781874 -0.34027302 0.8662719 0.15167952 -0.18096605 -0.09660924 -0.095508665 -0.44234845 -0.27729917 0.042767294
10175 -0.85779333 -0.5288206 -0.031076118 0.16048555 -0.21396498 -0.0036121514 0.89465606 0.76659167 -0.21509057 -0.24020018 1.1093898 -0.531801 -0.21333545 -0.35059127 -0.69745 -0.69009304 -0.8952481 1.0124445 0.5119413 0.9758919 0.29663575 1.2659959 0.53635687 -0.958683 -0.87054414 0.347139 -0.30369335 -0.27104175 0.081954785 -0.7635236 1.159518 -0.37662104
10034 -0.62433285 -0.53032213 1.7903917 1.5379097 0.37471512 -0.13599187 0.78095174 0.45900995 -0.10587405 0.2565015 -0.48096356 -0.45730504 0.22199874 0.24503791 0.78171504 0.025787078 -0.3013955 0.39652508 -0.65454227 0.7914689 0.13984956 0.3253071 0.696799 0.29126447 -0.2733902 -0.32508862 -0.42310295 -0.27347323 0.18002823 -0.24016728 -0.15921235 -0.39463514
10021 0.43870494 -0.4243434 -0.009901215 -0.35646063 0.859164 0.3328872 -0.40217775 0.5149439 0.75298595 -0.014523159 0.76051396 -0.09103855 -0.10649383 -0.9218727 0.17031075 -1.0845313 0.18407014 0.6396617 0.26682207 0.7164866 0.46289128 0.5816997 0.7266526 0.5509519 0.21799932 -0.011916429 -0.91030794 1.1202265 0.38902164 0.107378334 0.5404153 0.6622414
9942 0.2454029 -0.3481198 -0.21650153 0.8818887 0.19820608 -0.4184065 -0.42403388 0.43727234 -0.003394547 0.39948884 -0.26023653 -0.36585465 -0.015167326 0.22321379 -0.428562 0.3574962 0.3486699 0.22954719 0.58337283 0.8330822 0.14085725 0.49704507 1.6414258 0.9197425 0.6237847 0.81243014 -1.0520552 -0.5485141 -0.28300932 -1.0097605 -0.30539587 -0.5149973
3339 0.19593228 -0.31378788 0.19738065 -0.08120838 0.1631132 -0.33843753 -0.2882157 0.07170321 0.0026103489 0.18228042 -0.062376574 -0.38558227 -0.11134526 -0.4792678 0.31251922 -0.09318739 0.10779789 0.27603072 -0.08779751 0.66385543 -0.14315422 0.30306384 0.40584314 -0.026646385 -0.18177825 -0.40353534 -0.51012063 0.06940737 0.43528253 -0.40093127 -0.021470642 -0.054618172
10070 -0.6044338 -0.83521 -0.20658298 0.60042316 0.21652511 0.105374 0.95863986 0.23724832 1.2848059 -0.4549209 0.072433494 -0.43963116 0.31878254 -0.2207137 0.006021462 0.9903396 -0.28922874 0.6669371 -0.62731296 0.900985 0.7274858 0.93335193 0.7588899 -0.06145546 -0.9074239 0.35011876 -1.4079473 0.5846361 -0.29732844 -0.32307166 0.27860856 -0.8322953
9815 -0.019801745 -0.35366243 0.44859308 1.0777291 0.21479583 -0.21580513 0.3003632 0.72991997 0.21577916 0.34519285 0.2782582 0.056599133 -0.089776054 -0.41310823 0.10613178 -0.11442797 -0.104776666 -0.24224314 0.9150506 0.89826715 0.5083157 0.8174691 1.1082759 -0.35290632 0.42799202 0.9523315 -0.13371865 -0.015286643 0.25811014 -0.21908826 -0.59244645 -0.6448066
10209 0.42235777 -0.1952383 0.42522824 0.96519536 0.7437737 -0.6863091 1.1268574 -0.69063014 -0.6885694 0.036883716 0.7257537 0.34611854 0.689027 -0.47462887 0.76092035 -0.5896953 -0.043061282 0.200862 -0.46373838 0.20794126 0.26112145 0.7116751 0.9524043 -0.07991993 0.9042576 0.8961724 -1.7188562 0.24972351 -0.52329355 -0.68113786 0.009033544 0.44949123
10267 -0.34536588 -0.5377944 -0.031473372 -0.11599148 0.75891024 -0.17094176 1.1311316 0.39206088 -0.28992495 -0.15569553 0.17669563 -1.4196839 0.1555175 -0.13735063 1.4929725 -0.6569688 0.9450101 1.0591987 0.9532875 1.44519 -0.5032701 0.9357693 0.5648791 0.56880975 1.0579994 0.56470364 -0.40201572 -0.14098056 0.27320275 -0.7513423 0.7339184 -0.3495514
10241 -0.32165235 -0.5982107 0.646662 -0.2013894 0.047395464 -0.8059404 0.10201889 0.7408119 0.7614558 -0.07106854 1.2503244 -0.17253043 -0.0792446 -0.8033357 0.6497514 1.3118825 -0.11573533 0.6283063 0.6750691 1.5359473 0.8717524 0.06741603 0.7680543 0.4547571 0.6730564 -0.09318663 -1.0841494 0.103649676 0.52785313 0.52933884 -0.19695283 0.029448355
9587 -0.5755291 -0.5941161 0.5911848 0.9380264 0.031159831 -0.30381292 0.34176177 0.4307971 0.2002084 0.1536531 0.024212845 -0.6614654 -0.49198368 -0.38836917 -0.63696486 -0.38945833 0.26296836 -0.16249831 0.19235824 0.31881192 -0.07085274 0.22382994 0.7892885 -0.107968375 -0.06146118 0.19318707 -1.0132612 -0.19025625 0.17215562 0.17686488 0.21184346 0.12879102
8471 -0.14869598 -0.28885585 0.39520094 0.12086941 0.21420999 -0.23894705 0.24932939 0.12044175 -0.072659776 -0.061331466 0.117311776 -0.2123026 -0.33645332 -0.15797266 0.094054945 -0.13996997 -0.03628723 0.07613364 0.15428904 0.22314444 0.103863046 0.86731184 0.7217283 -0.056153197 0.19742097 0.056298856 -0.5752944 0.13004427 -0.011135702 -0.25855058 -0.068045095 0.062202707
9972 -0.4761848 -0.8418727 1.2418345 0.93186295 -0.44259566 -0.5851294 0.18823443 0.14765811 0.8036091 -0.6111577 0.14204513 -0.5673526 0.065127715 0.34736204 -0.3699452 -0.14514197 -0.043529164 0.10929278 0.28881973 0.79687285 0.3710288 0.9893416 1.2037998 0.15730006 0.61748964 0.23630777 -0.2963786 0.55452716 -0.43907422 0.041642077 -0.10591292 -0.31438395
10059 -0.43321168 -0.87230843 0.61447966 1.0946845 0.14047632 -0.9350593 0.8252026 0.20283888 -0.14948821 -0.20538755 0.3379699 0.2587526 0.19046672 0.12737547 0.016084421 -0.26964226 0.2582207 0.46680635 1.0729716 -0.1130072 0.48129353 0.74351317 1.073148 0.67230976 -0.12305542 -0.1790467 -0.46074075 -0.16166687 -0.017049875 -0.88300663 0.23896429 0.790865
9123 -0.13793375 -0.6144239 0.4486875 0.124359116 0.3214098 0.5326789 0.018583601 0.046385437 -0.065495774 0.2936626 0.24114183 -0.052490342 -0.71530414 0.121500276 0.59219897 -0.50919694 -0.07938634 0.10161617 -0.05242555 0.4617468 -0.33306444 0.7138091 1.1638631 -0.14914617 -0.47086945 -0.62181383 -0.8305344 0.11869897 -0.24916853 -0.7163249 0.026512332 -0.021257982
9481 -0.2908259 -0.40256917 0.5109898 0.48478127 0.16052048 -0.10043787 -0.08969109 0.8216874 -0.0026385598 0.40672114 0.39903265 -0.8057741 -0.21208194 -0.16481265 -0.26366544 0.3117498 0.13531126 -0.050436717 -0.20056495 0.44239205 0.039674662 0.59962636 0.6484797 0.021327175 -0.01358279 -0.06727228 -0.48596057 -0.5697268 -0.22470863 -0.7715553 -0.10380092 -0.3666942
3561 0.3830178 -0.42506036 0.3425761 0.04539325 0.012905713 -0.31976345 0.0739092 -0.1265268 -0.048060168 0.12994213 -0.030724349 -0.18669313 0.11854848 -0.30263045 0.06564456 -0.028849669 -0.08598273 0.17996994 -0.1425087 0.74139726 0.2583149 0.3371492 0.18571866 -0.39897108 -0.3656011 -0.20080148 -0.2800957 -0.21007001 0.41850105 -0.35010272 -0.38546062 0.051116575
9937 0.14784262 -0.39477795 -0.23945977 0.6415599 -0.49118012 -0.16921374 0.5971359 -0.3773143 -0.59820586 -0.052396603 0.120065436 0.35555175 0.43233675 0.36085454 -0.029707748 -0.2637904 -0.38623375 0.5552424 -0.64151603 0.35429454 1.829218 1.0867118 0.097929254 -0.8267817 -0.12507051 -0.6786071 -0.75017565 -0.12428902 0.57219094 -1.0139166 -0.37828144 0.3201103
10257 0.161353 0.14085774 0.33328342 -0.53908193 -0.2187952 -0.4761699 0.41188496 0.13327134 -0.2101841 -0.36143044 0.30645055 -0.83759993 1.3440266 -0.8053851 0.50639987 -0.62247646 0.50788033 0.59733975 -0.0018520635 -0.21834092 -0.36107138 0.8305057 1.3003097 -0.16085231 0.16505587 0.14951998 -1.861484 -0.49443957 -0.6030817 -1.2936912 0.06743152 0.05974037
9504 0.34563908 -0.28214404 0.42461145 0.0022742525 0.18595436 -0.39587343 0.004595793 -0.02531197 -0.42357874 0.031466544 0.4456389 -0.62077576 -0.1576138 -0.12700307 -0.24370481 -0.6382219 0.58049506 -0.15207843 0.17138341 0.23877785 0.33780098 0.99964136 1.2235875 0.51828194 0.25203162 0.22182101 -0.3736927 0.41380292 -0.14871964 -0.20217109 0.0058910404 -0.0032148398
7417 0.16599536 -0.534403 0.3741731 0.42849633 -0.0017299633 -0.03370748 0.20607583 -0.18714684 0.03335254 -0.2128564 -0.15123759 -0.031234588 -0.050971065 -0.10414392 0.243281 -0.0882698 0.066529 0.16821148 -0.23089841 0.5285219 0.26200148 0.5406716 0.47251326 -0.039572284 -0.26187268 -0.30289745 -0.7928701 -0.13940525 0.090954386 -0.20963454 -0.1814422 0.3565378
9495 -0.6532136 -0.06961499 0.192115 0.4208873 0.5527946 0.2742221 -0.11441989 0.6317009 0.51363677 -0.050777506 0.1482284 -0.6810771 -0.14784749 -0.44917417 -0.65847915 -0.3731661 0.5235273 0.30710617 -0.16506723 0.43171927 0.19528833 0.24118666 1.305079 -0.1509474 -0.43577135 0.022747688 -0.88190585 0.33317614 0.13137433 -0.18921731 -0.397036 -0.41301477
8387 -0.0084884865 -0.47719568 0.15899321 -0.08664446 0.09854908 -0.12871751 0.46280575 0.35677898 -0.2694833 -0.027032712 0.24076496 -0.3175843 -0.11412209 -0.25317103 -0.3502436 -0.32611603 0.4172017 0.073963 0.21322592 0.41475937 0.20965914 0.60150325 0.5714234 -0.27327377 0.015055344 -0.06877314 -0.38383916 -0.18989657 -0.05441784 -0.22504151 -0.05328591 0.23785003
10264 -1.1845913 -1.1694252 0.13052145 -0.47911248 0.22602358 -0.61288804 1.2320433 0.036258724 -0.15915367 -0.24211165 0.16095436 -0.87708974 0.662805 -0.34072396 0.82996243 -0.8202012 0.42681754 1.1295103 0.80325013 1.0296062 -0.73811954 0.83015656 1.370198 0.39323997 0.51792735 0.19004229 -0.009094706 -0.7097804 0.16316344 -0.69999814 1.0696223 -0.3196749
8888 0.18794185 -0.19813846 0.39571822 0.124919094 -0.0027646818 0.081315175 0.40774578 0.17125055 0.031521216 0.24326344 0.29945537 -0.3722395 -0.018991666 -0.2359743 -0.34044886 -0.25166637 0.19097745 -0.048852567 -0.108830996 0.43037096 0.26092106 0.5031109 0.92937976 0.19493051 -0.1138939 -0.17972027 -0.7438256 0.39589047 -0.12188691 -0.15352766 -0.44526613 0.40025187
10163 -0.5363009 -0.5527061 0.2624215 -0.26882848 0.12446554 -0.2772575 -0.16677658 0.6795042 0.12538797 0.5809947 0.6417551 -0.34514922 -0.5482552 -0.51512784 0.1298645 -0.6099612 -0.10371073 0.913 0.03391498 0.22407383 1.6903423 0.1633711 0.7983598 -0.6239032 0.35783044 -0.9821591 -1.0585619 -0.6178043 0.2479148 -0.8452676 1.0278713 -0.35502422
10208 0.046857692 -0.19847836 0.08342685 0.79954207 0.370508 -0.218005 1.5523789 0.4165828 0.36087215 -0.68819636 0.12026643 -0.6791965 0.3192782 -0.8107018 -0.23068471 0.41178876 0.13453287 -0.42569295 0.4455525 0.274799 0.51754975 0.870673 1.0900879 -0.33869255 0.074325 0.39622554 -0.5657205 0.82980585 -0.20236757 -1.1246339 0.7404453 0.14104159
10205 -0.5331165 0.012139621 0.2608126 0.40621445 0.087777875 -0.31399518 0.70614517 0.69756603 0.11815607 -0.4347274 0.5064332 -0.6965437 1.3381039 -1.2848094 0.98604864 -0.16117872 0.25789228 0.4330041 -0.6329618 0.53508013 -0.5685918 0.7129543 1.4084948 -0.22689123 -0.2402778 -0.31882724 -0.45857322 0.42605603 -0.21810432 -0.6624384 0.18827192 0.47649488
9098 -0.13168092 -0.62374985 0.48099765 0.14251326 -0.012412 0.062088367 0.30269074 0.53921556 0.28391528 -0.092052944 0.22376944 -0.2488335 -0.21626046 -0.304165 -0.2778661 -0.30986091 0.2346827 0.064465605 -0.09048494 0.094772175 0.070657335 0.36117494 0.9024112 0.15014991 0.087299645 -0.18471156 -0.90354854 -0.116096176 -0.009267468 -0.22245775 -0.21625252 0.18186846
4984 0.07564684 -0.4752592 0.32067445 0.17094895 0.22492684 -0.28242505 0.13801014 0.016846072 0.14401501 -0.048274945 0.19285347 -0.10399904 0.06588731 -0.316458 0.030875763 -0.29489616 0.25838035 0.15979722 -0.17093602 0.43977976 0.09554121 0.50592726 0.47990197 -0.2223516 -0.09916798 -0.18009026 -0.20407017 -0.043281093 0.34648725 -0.4883513 -0.032472406 0.057121437
9479 0.11243305 -0.06225727 0.81325215 0.7078028 0.25711787 -0.13896157 -0.053347114 0.4067242 -0.10899686 -0.1324576 -0.024468029 -0.6736167 -0.27736637 -0.15930063 -0.15459111 -0.11966792 -0.14869468 0.0048061977 0.2507504 0.7679169 -0.08154212 1.0811126 0.8498767 0.0676764 0.3390683 0.52071303 -0.35369226 -0.52373976 0.07610588 -0.27360156 -0.00989335 -0.35570264
9006 0.26224825 -0.5594214 -0.37791964 0.28667933 0.016387694 -0.046005372 0.3211926 -0.16835201 -0.82669437 -0.24702005 -0.33108613 -0.2367116 0.032073263 -0.28430876 0.32681042 -0.41988248 0.6566112 -0.048963476 0.2564539 0.33284843 -0.019425333 1.4747338 0.75812024 -0.52121186 -0.432133 -0.837721 -0.7447825 0.07547862 -0.61373764 -0.11140546 0.09807013 0.57660943
4374 0.015935035 -0.39310542 0.17116758 0.39089027 0.17366056 -0.41751027 0.0050974637 0.102127686 0.16485217 0.09265475 0.18013354 -0.16296907 -0.1480568 -0.14717916 -0.15744774 -0.083804674 0.2695883 0.105310895 0.22072095 0.4249758 0.11310209 0.55707246 0.6997438 -0.096866764 0.063048504 -0.018125838 -0.34509903 0.025706645 0.044376895 -0.48761386 -0.071948394 -0.119711794
9424 -0.40152615 -0.38301203 0.6147575 0.6902185 0.26049381 -0.102396086 -0.20694223 0.5751819 0.37451276 0.10753419 0.026560897 -0.4715451 -0.5864337 0.063767456 0.7384973 0.12116335 0.36197168 0.72517234 -0.16079623 0.50392485 -0.049645983 0.41840285 1.051282 0.07697135 -0.65276396 -0.12931943 -1.0007508 -0.5072364 -0.19710438 -0.3500959 0.13958302 -0.31469566
9576 -0.48704472 -0.23058581 0.47676954 0.21231338 0.24918935 0.4020785 0.47244722 0.6749473 0.44193864 -0.27694577 0.57709914 -0.24509768 -0.7869229 -0.045625784 -0.100146405 -0.69784343 0.57355654 0.37615484 0.13036442 -0.12625319 0.15429065 0.7599831 1.4182185 0.09832797 -0.24467666 0.25114962 -1.1905007 -0.27366576 0.18167865 -0.70042205 -0.06880292 -0.14147297
8810 0.33632573 -0.5002618 0.53843606 0.35151535 0.52238584 -0.1840856 0.8329076 0.4885315 -0.40314665 -0.056666438 -0.37114796 -0.53578794 0.38576016 -0.12229826 -0.32979804 -0.3090797 -0.29169235 0.20194083 0.4960546 0.81869996 0.38951105 0.5901781 0.3451358 -0.5042498 -0.037366293 0.5422827 -0.16232726 -0.11383152 -0.095847264 -0.1291041 0.11872926 -0.20217338
9538 0.16735929 -0.37478152 0.30512953 0.029017232 0.29128566 -0.6287382 -0.3827848 0.7118298 -0.2300156 0.302732 0.48815194 0.043654956 0.056829736 -0.43097258 -0.23517849 -0.3913463 0.7450371 0.42538527 0.06603199 0.9135113 0.18532763 0.41569045 1.5188594 0.3559815 0.06700843 0.015434323 -0.25104567 1.0328984 -0.22543877 0.17050026 -0.47443047 -0.08219127
7305 -0.14139931 -0.40946877 0.31611836 -0.010671269 0.16014975 -0.5467857 0.3205929 -0.2545591 0.22995862 -0.0050378293 -0.23500128 -0.54689735 -0.2324156 0.14694706 0.20985593 -0.025783747 0.13973226 0.16146894 0.08306809 0.24961613 0.020407144 0.8242816 0.54492414 0.014197566 0.21861109 0.13217716 -0.5501333 -0.04558882 0.27153 -0.418366 -0.12348044 0.0065244683
9373 -0.23053783 -0.091047205 0.70529205 0.7071371 0.6186273 0.10541978 -0.26732716 0.34370053 0.40344477 -0.44224688 0.017158506 -0.36126304 -0.8239963 -0.14351855 0.08706033 0.40139633 0.6756173 0.5536031 0.111788504 0.70338243 0.24823457 0.6060227 1.3690852 -0.19348073 -0.011247262 0.07358347 -0.33872506 0.07031804 -0.22625437 -0.28930953 -0.21171686 0.275959
10235 -0.38346985 -0.5433923 0.75170034 -0.15434782 -0.12637432 0.06340966 0.97128433 0.08082416 0.12495448 -0.13358676 0.85333794 -0.19502121 0.58878326 -0.6854558 0.14914358 -0.41998586 0.45861745 0.6269084 -0.8582555 0.424252 0.9428871 1.1689517 0.6425476 1.3314922 -0.26512906 -0.124895215 -0.4503018 0.039526228 -0.21018001 -0.6111279 0.18744019 0.31698504
5625 0.0783468 -0.45512125 0.37447387 0.12670662 0.14511465 -0.3414066 0.18341117 0.042501472 -0.046159245 -0.025921328 -0.032707997 -0.3763399 -0.099861324 -0.3051536 -0.24513002 -0.2999954 0.17425035 0.24114373 0.22574882 0.72782665 0.31305748 0.25714505 0.41836035 -0.14225586 -0.11778398 -0.37499914 -0.20606166 -0.2009527 0.21255633 -0.06539801 -0.41061017 0.07303643
8924 -0.47129157 -0.22765407 -0.2432322 0.1502746 0.28864977 0.17001884 0.146003 0.5297485 -0.3638027 -0.08504132 -0.04323713 -0.4898912 -0.7171554 -0.6961355 0.2709677 -0.635956 0.54811865 0.3068037 0.12878302 0.35155258 -0.06719016 0.83666784 0.4375767 -0.674432 -0.036625203 -0.4411683 -0.8856925 0.2191857 -0.1979457 -0.62791944 -0.09363119 0.1829537
9423 0.0671245 -0.5623531 0.0028903312 -0.0031536387 -0.5896293 -1.147838 0.9757156 1.3167514 0.067121446 0.06336313 0.65705734 0.2964057 0.5422812 -0.5912633 -0.009099223 -0.60486543 0.34952942 0.6033075 0.71886855 0.82116723 0.49151775 -0.31314614 -0.008980243 -0.60362434 0.07696114 -0.7018117 -0.33180952 0.127529 0.84046805 -0.13280812 -1.0263579 0.03183144
10055 0.117778264 -0.27522862 0.82179695 0.81247026 0.15767385 0.4330298 0.70914465 0.8503508 0.15151767 0.072412215 0.34203303 -0.008446617 0.6956329 0.31687033 0.8238174 -0.17005673 -0.53545773 1.2839686 -0.9779236 1.4440916 -0.18235525 1.0914503 0.2747705 0.46534 -0.36089566 0.5790294 -1.0649043 -0.3267646 0.0004020296 -0.22837749 0.6856703 0.09485624
10158 -0.2964794 -0.5408947 0.09374505 -0.58121866 0.6535996 -1.1446389 0.37068304 0.44676834 0.7889601 -0.13471927 -0.042161487 -0.3902693 0.84710336 -0.64495105 1.1570338 0.97887737 0.3926323 0.7189152 -0.058990348 1.2941988 0.60844743 -0.059373293 1.4020561 0.2171112 0.065328024 0.4577446 -1.4018928 0.005534868 -0.29609704 0.0015311074 -0.0745488 -0.20286264
10138 -0.49810106 -0.14952686 0.44925252 0.21038306 0.09718943 -0.5033568 0.07490421 0.9646616 0.9180581 -0.52269816 0.79710656 -0.66426283 0.9307027 -0.84562343 0.9755636 -0.116028525 -0.03717137 0.1899222 -0.49056134 0.74005187 -0.46592343 0.92224324 1.1051592 -0.41226664 -0.1023968 0.25769055 -0.28893265 0.0954541 -0.21356809 -1.081444 0.18140309 0.24895367
10054 -0.34952527 -0.80318224 0.35373312 1.2560911 0.56365764 -0.6066413 1.1553175 0.56014574 0.11742264 -0.07628692 0.2721869 0.36732405 -0.05646181 -0.23723897 0.25681877 -0.06954784 0.44347382 0.12651905 0.76293176 0.24772006 0.7816914 1.0836531 1.0359497 0.6879662 -0.30153036 -0.37984014 -0.15614687 0.45778984 0.15168244 -1.1473562 0.5050355 0.51337326
3198 0.19448866 -0.6038311 0.11935091 0.09093517 0.24647596 -0.19305442 -0.026431931 -0.22840934 0.21277696 0.18907362 -0.034124296 -0.121945836 0.09368637 -0.20575799 0.26689017 -0.120599076 0.09723104 0.106216736 -0.0039658067 0.5895777 -0.013073808 0.26178735 0.29666418 -0.09951331 -0.15995815 -0.074611075 -0.61175406 -0.17880225 0.4090999 -0.32958037 -0.107613556 -0.028592216
10093 -0.34222382 -0.64981174 0.944686 -0.3809934 0.114595905 -1.2822529 0.34858775 0.47287405 0.24614272 0.5586296 0.6462433 -0.7581117 -0.24609765 -0.49894154 0.3883814 -0.8661463 0.1357652 0.23595434 0.1462174 0.91853774 1.3731198 0.12767209 1.1435883 -0.21494433 0.18780781 -0.40493506 0.049198274 0.08378887 -0.052292373 -0.12689246 1.1935021 -0.10076845
7895 0.023203839 -0.3157226 0.25529575 0.12293823 0.165551 -0.27282828 0.1796308 0.25419265 -0.08101429 0.02775624 -0.068383396 -0.3018266 -0.12806664 -0.26780012 0.12246669 -0.5625216 0.53541905 0.19219004 0.032232806 0.54583603 0.11448686 0.55886567 0.6736596 0.05003406 0.09194773 -0.10146925 -0.36342052 -0.023934074 0.09702975 -0.29235792 -0.04447585 -0.10082447
6917 0.3101736 -0.44864726 0.17195985 -0.00018344261 0.16013087 -0.3604048 0.02854107 -0.21728247 -0.014707948 -0.114786424 -0.15540731 -0.07196681 0.17207386 0.03663183 -0.0868171 -0.33200935 0.34409913 0.11435301 -0.1925524 0.52522844 0.45777762 0.4765669 0.34955183 -0.3480051 -0.38088536 -0.6067467 -0.75345093 -0.02146498 -0.049628403 -0.26151547 0.05933014 0.17612243
9961 0.36619112 -0.21924272 0.9106853 0.64866316 0.114727736 0.113990724 -0.38272694 0.83073735 0.7021891 -0.5482456 0.28505185 -0.24694106 0.24231386 0.014700852 -0.383501 -0.37264982 0.6052907 0.20530966 -0.49556708 1.1440766 0.37460104 0.83455133 0.90517104 0.1257218 -0.45196435 -0.6519949 -0.046933252 -0.57696086 -0.31303504 -0.7618138 0.3648864 0.20994082
8441 0.053682625 -0.61330867 0.40504134 -0.045611404 0.39273724 -0.30651397 0.19446465 0.30086204 0.056525797 -0.09514041 0.25385168 -0.32418972 -0.19629622 -0.059595864 -0.14005949 -0.07098929 0.3094721 0.3032475 -0.04955599 0.2545724 0.32809398 0.64454573 0.698711 -0.10605846 -0.047955096 0.16215695 -0.42193866 0.064979754 0.05291279 -0.46373963 -0.12182374 -0.116354585
8367 -0.12280595 -0.45209283 0.16991837 0.3167188 0.44522372 0.46407557 -0.06852863 0.35513327 0.031023975 -0.07643077 0.05077011 -0.2498784 -0.43124992 -0.14369732 0.5191108 -0.5495942 0.16978957 0.22139296 0.069602706 0.16765729 0.077910006 0.6209638 0.770634 0.1039928 -0.2649483 -0.17720957 -0.842961 0.02182502 0.14725004 -0.48579574 0.16583367 0.1718746
10281 -0.15290353 -0.5914934 1.5070803 0.24633463 0.1302183 0.6564256 0.19120313 0.3095774 -0.2908107 -0.2614944 0.21469055 -0.7843183 -0.13270718 -0.80171186 0.25751856 0.6400633 -0.26095507 0.25117365 0.40248477 1.6162899 0.8756728 0.34636918 0.4599076 0.43130216 0.9699849 -0.2853003 -0.5005489 -0.8572559 -0.2177847 0.0012009108 -0.07965339 0.65800935
10098 -0.4627229 -0.23538303 0.41270733 0.68184507 0.45001465 -0.26802507 0.23564169 0.32731068 -0.39055398 -0.051798 -0.34352046 -0.40701506 0.33830473 -0.50045 0.20475589 0.7626535 0.21926738 0.019609127 0.04747712 0.8107364 0.24354127 0.36153615 1.3127142 0.49216235 0.304602 0.81171614 -0.34963283 -0.48110944 0.10585763 -1.3609473 -0.2702779 -0.06048086
9899 -0.5452667 -0.42359787 0.41794673 0.49494186 -0.22971378 -0.0005020783 0.105640724 1.084079 0.07469163 -0.39401254 0.06052178 -0.56391597 0.6437155 0.2675592 -0.48148882 -0.3175533 0.17406331 0.34466714 0.049285762 0.741807 0.12193084 0.8074682 1.1456671 -0.21022451 0.067774154 -0.49431276 -0.12541272 -0.09022174 -0.48335174 -0.5812097 -0.63463056 0.11564036
10111 -0.9311828 -0.6754785 0.94057083 0.044377588 0.0855391 -0.5953426 0.84865767 0.37481028 0.73594826 -0.29516548 0.038418557 0.38779572 -0.04370181 -0.1191857 0.58075744 -0.46451938 0.22794314 0.8049398 0.36380708 0.746791 1.026821 -0.1334986 1.1362939 -0.13948885 -0.6461226 -0.1216388 -1.1488787 -0.4079894 -0.17207076 -0.22152017 0.42843437 -0.15057306
9848 -0.2299542 -0.61444825 0.5953614 0.7692276 0.06525463 -0.14548539 0.6076034 1.8896464 -0.31743988 0.8013762 0.20676473 -0.29822308 -0.25907433 -0.282236 -0.2713971 -0.31563088 0.5625982 -0.037143227 -0.21066123 0.32346115 0.18960711 0.21930918 0.53421396 0.119129285 0.022445511 -0.38210186 -0.69508106 -0.013073041 0.6278992 -0.88997304 -0.017042292 -0.0815434
9898 -0.35198572 0.139409 0.31638166 0.51217926 -0.24039945 0.01401767 0.39008677 1.2737935 -0.61173993 -0.2408448 0.24561222 -1.0805551 0.16593681 -0.5105333 -0.43072516 -0.042364057 0.3400955 0.3454165 0.22309624 0.57300913 0.12990332 0.50177974 0.6862884 -0.36363217 0.2311959 -0.32371885 -0.61780584 -0.51408756 0.4981314 -1.0111653 -0.5341324 -0.12180002
9985 0.32168567 -0.6825738 0.5143007 1.4365039 0.12465575 0.3388951 0.8095928 1.7057685 0.02430921 -0.36939618 0.043261264 -0.12001933 -0.13447213 -0.6007243 0.25345194 -0.4117565 0.7196584 0.8855519 -0.013754745 0.5096 0.56576645 0.41050535 1.159703 -0.60507995 -0.07044612 -0.8940403 -0.082299724 0.16450094 0.15828168 0.0854495 -0.5560246 0.09486964
9355 -0.15786843 -0.30775 0.40612814 0.43299598 0.08281857 -0.026294071 -0.12839596 0.40096015 -0.4135108 -0.025666047 0.3533348 -0.7752176 -0.03644564 -0.4245609 0.024242243 -0.15238094 0.18008178 0.5227464 0.16504721 0.14575972 0.08072889 0.5689599 0.7569381 0.007874669 0.23904069 -0.37664542 -0.54766124 0.56563216 -0.2120442 -0.5731155 -0.56720454 -0.019058917
10004 -0.31377438 -0.8682273 0.9208798 0.69602644 -0.3107103 -0.1910398 0.51257384 0.14936484 0.71998173 -0.44379377 -0.28007916 -0.4733316 -0.4149232 0.029718649 0.56240314 0.17745638 0.4226464 0.5804088 -0.4416203 0.9377901 0.78464586 0.46506965 1.1155603 0.09024996 -0.39343566 0.0671586 -0.033852752 -0.5856107 0.12516388 -0.63856536 -0.06403102 0.3575556
9525 -0.2778406 -0.27602306 -0.41753098 0.19517301 -0.18532194 -0.23618543 0.4841263 0.30190513 0.042205736 0.002700748 0.5021508 -0.28880584 -0.4867593 0.28013003 -0.4015045 -0.16258305 0.26544192 0.24986997 -0.102146015 0.9619167 -0.17164388 0.77712417 0.9003022 -0.44074357 0.20976144 -0.17767178 -0.45022324 0.48828742 0.011133343 -0.5800855 -0.36711878 0.011003135
5681 0.10146637 -0.52360153 0.4021533 0.05475456 0.17812707 -0.23561956 0.09801386 0.10383072 0.100944996 -0.11242584 0.042691234 -0.31251815 -0.030740768 -0.2297014 0.030119736 -0.14525865 0.117688134 0.19626075 0.36621493 0.7240048 0.15484804 0.38827807 0.3827917 -0.1319341 -0.090886 -0.18144512 -0.32434067 -0.0091828 0.11477644 -0.14527482 -0.20701352 0.04329973
9579 0.062832996 -0.9278455 0.197942 -0.050146855 -0.07146419 0.36681286 0.1166306 0.29665625 0.096134804 0.12157633 -0.2799865 -0.42569152 -0.19620723 0.14276685 0.18566456 -0.4378345 0.2536916 0.054428197 0.020780524 -0.16282457 0.6546616 0.61340207 1.0970085 -0.33305115 0.07996915 -0.10719238 -0.8416124 -0.29637933 -0.23877612 -0.6081596 -0.238484 0.13156222
10041 -0.6801256 -1.0016899 -0.1976693 0.4187459 -0.20883456 0.120439604 1.0063285 0.54719645 0.05647506 -0.5684004 0.5114829 -0.49164823 0.07271843 -0.1980472 -0.43789417 -0.8629785 -0.935176 0.97682863 0.4829305 0.8959518 0.829244 1.1836696 0.70255977 -0.47336146 -0.5389609 -0.24329259 -0.07950389 -0.4096681 0.28315517 -0.35326493 0.79651767 -0.029542588
10258 -1.1161221 -0.896666 -0.39919955 0.6593649 -0.41746998 0.1255995 1.2942138 0.84603894 0.030405246 -0.50872743 1.095869 -0.32453632 0.22475545 -0.56724703 -0.44059384 -0.83013546 -0.9703424 1.0871757 0.014179806 1.1302807 0.6047032 1.5136155 0.68791884 -0.8591406 -0.4817381 0.015527949 -0.28647238 -0.47488457 0.18745749 -0.3921726 1.0476282 -0.15709855
10293 -0.31936705 -0.46943602 0.9062599 0.06977282 -0.18253915 -0.4202598 -0.48826846 0.26756784 0.301553 -0.6630962 0.82518584 0.27314287 0.49078003 -0.66039234 -0.34236234 0.3897136 -0.52074504 0.67162293 0.42209932 1.2494766 0.7317978 0.06482744 0.8766424 0.900948 1.1095049 0.26239097 -1.2657069 0.44971868 0.7574732 -0.45747623 -0.6208011 0.24312016
10228 -0.18342383 -0.7090956 0.014506764 0.5207855 0.7011958 -0.15810588 1.580534 0.31643948 -0.60116976 -0.0968175 0.11750472 0.18021885 -0.16154529 -0.48330095 0.32362625 0.09051642 -0.049713396 0.25798765 0.16062587 0.5224952 1.6189172 1.0768064 0.70877576 0.03309788 0.38179332 -0.32782596 -0.6659783 0.9917397 -0.042884648 -0.6827542 0.30170327 0.7642206
10261 -0.48687857 -0.22806613 0.872213 0.037795648 -0.14919439 -0.69877064 0.40672782 0.36120823 1.018765 -0.16368952 0.032746892 -0.38840365 0.2846452 -0.060833007 1.225532 1.1144929 0.34748474 -0.5833091 0.13892743 0.78825194 0.9821416 0.11494468 1.0502657 0.05829686 0.41938627 -0.0710307 -1.6994287 -0.87374383 0.5251469 -0.97980845 0.31471345 -0.17432785
7533 -0.32697815 -0.4612846 0.403805 0.1336395 0.03259083 0.03128188 0.34772375 0.11024005 -0.056135412 0.14877659 -0.08023794 -0.34330285 -0.10714508 -0.19813345 -0.03353425 -0.19341189 0.20219296 0.11209754 0.18142647 0.40378898 0.19694197 0.3673559 0.6522208 -0.23134474 -0.11345198 -0.011248733 -0.66102046 -0.17780195 0.12788779 -0.41838077 -0.11822916 0.065525085
10100 -0.036684476 -0.6621405 0.35674003 1.1091543 0.625165 -0.09838394 1.0635947 0.16925417 -0.5446735 -0.15049821 -0.063070685 0.11337411 -0.2527806 -0.41262355 0.32357818 -0.6754441 -0.6528981 0.15094724 -0.05608442 -0.31263208 1.3666342 0.6710911 1.1866189 -0.64260876 0.56479913 0.003204259 -0.97930175 0.38085538 0.21627042 -0.3780545 -0.2358469 -0.07882823
5700 0.3381998 -0.5617216 0.15124187 -0.02262329 0.19801375 -0.36311528 -0.30469373 -0.11665268 -0.047319915 0.0648099 -0.2241632 -0.33346644 0.23746039 0.014179406 0.077519715 -0.0790135 -0.2518513 0.0016194787 -0.4571439 0.8367166 0.08850927 0.61367947 0.26370355 -0.025077779 -0.1342974 -0.2496745 -0.72179806 -0.20532122 0.5631454 -0.1112251 0.0049615866 0.089452416
10253 0.36882272 -0.7357457 -0.032186326 -0.90873975 -0.6974882 0.4829443 0.7824083 -0.7604171 -0.20161313 -0.09712568 0.5424785 -1.2137283 0.3309499 0.079512775 0.47527364 -0.46639538 0.22627547 0.51805824 -0.43900284 0.8878662 -0.46640825 1.7096155 0.3127663 -0.81575435 -0.23627137 0.39461595 -0.18573107 0.020420324 -0.0053814896 -0.5366228 0.33157635 0.5034314
10096 -0.77514654 -0.3223515 0.7079825 0.48732394 0.41250935 -0.34249213 1.464594 0.41461152 -0.015518773 0.016560458 -0.53839684 -0.8465104 -0.041867014 0.023077043 0.38313952 -0.36759144 0.5588572 0.5207615 0.45970622 0.6300179 0.6985409 0.6826958 0.79872423 0.036799368 0.5588607 0.6381271 -0.2661285 -0.27907085 0.027362801 -1.5213133 0.6336695 -0.33937335
8768 0.0841024 -0.43130416 0.32575214 0.48307168 0.2320164 -0.13509367 0.15521145 0.31830123 -0.2591354 -0.025758155 0.27824116 -0.18024302 -0.1863728 0.16378763 -0.27993253 -0.31683183 0.13571265 0.0391929 0.050536152 0.43197194 0.027570302 0.69140375 0.87058336 0.13880235 0.26263475 -0.33042592 -0.42124698 -0.10276709 0.04264247 -0.18361011 -0.10009021 0.09308627
5906 0.17981583 -0.33873728 0.31202406 0.35393173 0.15763086 -0.25822115 -0.030139923 0.008810645 0.0053516184 -0.17203422 -0.10342766 -0.12796262 -0.11318269 -0.19247565 0.19456069 0.0051494096 0.23924501 0.06545883 -0.0067780316 0.86026734 0.081785515 0.25359014 0.2563791 -0.07411892 0.023507934 0.028869973 -0.71221226 -0.027955972 0.38491496 -0.34239945 -0.28539106 -0.046054807
9203 -0.12067384 -0.58865714 0.19941963 0.09283039 -0.14083478 -0.31989524 0.09641557 0.74608374 0.747574 -0.025359677 0.23900227 -0.090425715 -0.6917713 -0.3747462 -0.016482517 0.05809831 0.28843734 0.48948464 0.20257342 0.18906815 0.32359913 0.41535676 0.9610212 -0.23730926 0.2264489 -0.11817427 -0.6658832 0.11202604 0.08706097 -0.25498572 0.004598817 -0.13744742
5152 0.0014047632 -0.50163865 0.20276311 0.11826415 0.21973245 -0.2785085 -0.27423626 0.2039626 0.050476637 0.18902682 -0.16519597 -0.13666709 0.03921197 -0.5027049 0.07392203 -0.261752 0.13864183 -0.0111788735 -0.05845448 0.6636301 0.11179741 0.32060808 0.30025655 -0.22963394 -0.27957392 -0.40759328 -0.6479298 -0.10531979 0.36757934 -0.31412295 -0.047509402 0.11642431
9810 0.044129986 -0.7543693 0.6478527 0.78048664 -0.1476072 -0.07100427 0.47203925 1.3681566 0.038143463 -0.054862 0.049396764 -0.11113413 -0.29156646 -0.065128334 0.44985074 -0.12776737 0.38574883 0.73183084 -0.2693885 0.48145655 -0.049374644 0.3030748 0.8488107 0.12676948 -0.2413361 -0.48660666 -1.0398505 -0.60254794 -0.18361987 -0.14261986 -0.1109239 -0.040361762
9691 0.39161003 -0.87256163 -0.1066437 0.6273114 0.45779204 0.14566255 0.99731326 0.61337465 -0.32911396 -0.3257892 0.18013014 -0.24544841 -0.5615401 -0.4087472 0.36547247 -0.72655267 -0.098539084 0.25305074 -0.29611987 -0.49866143 0.86745423 0.3938677 1.0849308 -0.8253997 -0.16288963 0.12640633 -1.2700559 0.052473843 0.2621003 -0.6595223 -0.4115937 -0.331102
9916 0.101045914 -0.62703156 -0.00535847 1.2010592 0.4886887 -0.35546005 0.7172646 0.811234 0.21221481 0.02608364 0.26834336 0.6271349 -0.7119761 -0.82395107 0.06935034 0.47347486 -0.014236281 0.15863584 0.35983822 0.67022467 0.37495992 0.4498813 1.5115347 0.21348596 -0.15288918 -0.41986153 -0.38786224 0.30082926 0.1379202 -0.23916128 -0.10269088 0.17133082
10239 0.108362906 -0.42840716 0.2516957 0.22324589 0.14408807 -0.5508988 -0.051623777 0.68381125 -0.050061174 0.12203174 1.4120868 -0.2878507 -0.056987964 -0.79266626 0.065083385 0.4945465 -0.39873722 0.63447624 -0.16168046 1.0339803 0.9612954 0.7756083 0.60384405 0.8518441 1.1804309 -0.569951 -0.8205139 0.718678 0.41995883 0.16193473 -0.63775104 -0.13421412
10145 -0.034625787 -0.60656047 0.25007507 0.21110776 0.0688876 0.28980425 0.62405 1.1480101 0.39421797 -0.2571098 1.196303 -0.24135612 0.048191577 -0.29816496 0.0008872943 0.0073206397 0.37823662 0.9617241 -1.2175989 0.73695713 0.34631944 2.345364 0.88269 0.2868547 -0.49865407 0.18867293 -0.011126137 0.5687814 0.078254744 -0.3907104 0.7245007 -0.107712604
10221 -0.8468713 -0.22524804 -0.22257923 0.6246596 0.22353148 -0.32818168 1.4143549 -0.13635004 -0.9509155 0.37440386 -0.20473985 0.53938687 -0.13651377 -0.3975641 0.29422557 -0.1785662 -0.5718608 0.557261 -0.1082682 0.8149611 0.7816477 0.6490591 0.8576037 -0.42684564 0.89617336 0.24469472 -1.5692096 0.2798709 -0.13873021 -0.45438856 0.006304701 0.5461889
7112 0.31882268 -0.45144615 0.18607937 0.091136836 0.19256048 -0.38304597 0.05736395 0.00032665674 -0.08521106 0.10651536 -0.10492632 -0.33787125 0.24167533 -0.02945786 0.08449209 -0.34740636 -0.07443006 -0.009514767 -0.010785739 0.28642207 0.18822531 0.45659426 0.39526096 -0.19844618 -0.090491675 -0.053765062 -0.43509945 -0.18706731 0.73030704 -0.45085585 -0.1140037 -0.05986856
10017 -0.28064293 -0.7325893 -0.3924679 0.5919508 0.48445517 0.22767809 0.789335 0.20885032 1.0813683 -0.362554 -0.012957491 -0.6654771 0.2110204 -0.3787567 0.008742792 0.6745603 -0.31741777 0.23882261 -0.59275514 0.87599576 0.9972741 0.6129786 0.8039539 0.11131472 -0.8474748 0.16564758 -1.5076979 0.6911356 -0.15021797 0.02204928 0.1288853 -0.42990085
10113 -0.4723471 -0.2353599 0.20321558 0.83819234 0.5008393 -0.036572237 0.71173805 -0.23912372 -0.3445142 -0.24885802 -0.0897924 -1.1482078 0.85442126 -0.24936447 0.40254506 0.25466114 -0.23245981 0.78739864 -0.9323049 1.6943216 -0.6189261 0.9721102 0.33956668 0.6757969 0.0021977676 -0.030844511 -1.4379946 0.41980794 -0.80300796 -0.09024728 0.15558732 -0.2119552
10296 -0.69194466 -1.0974549 0.6798338 -0.03203652 0.4397306 -0.47882652 0.502389 0.710928 -0.17875461 0.26735327 0.5738 -1.1691998 0.4868182 -0.41240332 0.5575918 0.109788656 1.0090034 0.6557208 0.20860799 0.7637511 -0.23328133 0.37918416 0.6270533 1.0146959 0.7520082 -0.11147315 -0.2798186 0.2891026 0.8703091 -0.1480827 0.47183883 0.48795944
6986 -0.1338863 -0.28112987 0.32917327 0.07428597 0.019957231 -0.07615181 0.057610653 -0.07014261 0.10868423 -0.09924791 -0.20927729 -0.43373954 0.052404154 0.15912251 0.21742913 -0.2170024 0.07010731 0.20268787 -0.15905644 0.6615965 0.30205196 0.5204985 0.54589397 0.04743952 -0.06125997 -0.08820967 -0.5703696 -0.33563793 0.06998167 -0.32476354 -0.2041917 -0.14567782
9920 -0.50025123 -0.5787779 0.18687263 0.17018309 -1.0043756 -0.70491886 0.85427773 0.6744602 0.3408686 -0.3556416 0.017668897 -0.7377369 0.004321201 0.15033652 0.15049015 0.22025882 0.5759659 0.6556687 0.29712403 0.809731 -0.07946397 1.0828443 0.7952066 -1.0490468 0.47791758 -0.022538748 -0.18869932 0.26587296 -0.44797403 -0.24513116 -0.5424677 0.08559057
9915 -0.923155 -0.1905264 0.7150858 0.65050215 -0.4053582 -0.38270095 0.17094551 0.1434709 0.5765972 -0.3664456 0.24111716 -1.0542829 0.32643706 -0.10046144 -0.56859076 -0.79000145 0.7279259 0.848799 0.040382266 0.43302047 0.45002985 0.040507935 0.44700617 -0.44707352 0.5223245 -0.753914 -0.9224537 -0.3557158 0.26389676 -0.5584789 -0.36367488 -0.037333123
6074 0.21159701 -0.64084023 0.1428383 -0.000855539 -0.04172507 -0.36111283 0.27117226 -0.2207818 0.24996714 0.054294296 -0.21796727 -0.049526535 0.17521718 -0.0938819 0.019215131 -0.032103576 0.26909146 0.17437136 -0.102050394 0.7108318 0.3782276 0.46619573 0.1270502 -0.2598797 -0.5209006 -0.22833294 -0.46546507 -0.22143471 0.5160226 -0.29572466 0.08183252 0.25272077
10038 -0.42602155 0.10576927 1.4134358 1.2163467 0.22024235 -0.22738186 0.5347066 0.47085172 -0.67373496 -0.33045468 0.17484508 -0.95955896 0.3333555 -0.1943323 0.5001688 0.13887355 -0.28973645 -0.0038389442 0.14933357 0.59033674 0.31048024 0.5992874 1.0360241 0.5578309 0.6900878 0.017832562 -0.46192756 -0.1367165 0.6063233 -0.9036568 -0.051737007 -0.24156524
10144 -0.22979158 -0.17241573 0.3231499 0.2599176 -0.006426513 -1.056816 0.788455 0.19561858 0.66670007 -0.16292334 0.62102354 -0.2871479 0.691774 -0.72390074 0.48269203 0.44453377 0.1072955 -0.12548335 -0.14898309 0.6195531 0.23862989 0.10607316 1.5661532 0.06792798 0.27696583 0.25998068 -1.3813909 0.24904789 -0.40755546 -0.21973442 -0.06919191 0.08233607
8498 -0.52274466 -0.5200691 0.021076223 0.4828403 0.31172407 0.06324739 -0.15612036 0.26235062 -0.0034660492 0.22119425 0.17570321 -0.2667468 -0.29860362 -0.27127606 -0.18152946 -0.15894178 0.28471538 -0.044973917 -0.1439355 0.6466334 -0.25517377 0.5391997 0.69261694 -0.045269042 0.18878685 -0.16434288 -0.7581208 0.07697006 0.14485213 -0.36426136 0.06086957 -0.08348563
9889 -0.16062912 -0.99345744 -0.13084094 0.49072585 0.38580865 0.02066211 0.16514319 0.6992261 -0.18962546 -0.2669327 -0.11246364 -0.10361462 0.23738135 -0.69800025 0.19838348 -0.17338812 -0.4084104 0.7007626 0.38287324 0.18945746 0.5213632 0.57198596 1.5098504 -0.5477462 -0.3329484 0.080689035 0.038979467 0.16342309 -0.00051571114 0.058063127 0.06501526 0.14821158
4669 -0.00010916032 -0.5787649 0.20318237 0.048406553 0.009908702 -0.30460823 0.085020475 0.16527016 -0.05036725 0.17793532 -0.13422433 -0.18714032 -0.07669654 -0.32429722 0.15697186 0.12617113 0.10991874 0.091181114 -0.1569664 0.6465019 0.11526129 0.5921034 0.24633938 -0.14371246 -0.07995915 -0.28771055 -0.46951964 0.029232264 0.4573934 -0.1588627 0.03829251 0.20518512
10097 -0.41028333 -0.2720599 1.0100753 0.67009383 0.09391062 -0.51352704 1.3567346 -0.43386963 -0.49911496 -0.5369501 -0.084450684 -0.18595523 0.5204754 0.30317843 0.5211468 -0.1581398 0.22419022 0.5127873 -0.16137029 0.21001029 1.0883191 0.87124246 0.9092748 -0.09849387 0.48635918 -0.18471667 -0.7477695 -0.34952384 0.16717948 -1.3749254 -0.50691724 0.20806606
9608 0.57181865 -0.2186854 0.4216229 0.13188691 0.23680764 0.4168236 0.8010309 0.4000625 -0.3726511 -0.070308544 -0.027744642 -0.56389517 -0.16854504 -0.18646641 -0.3361385 -1.2232879 0.09926697 0.24137658 0.12640484 0.3583987 0.45729393 0.85548925 1.5437956 0.24758285 -0.5536808 0.3455121 -0.7618009 0.029256873 -0.41098028 -0.37694895 -0.115078345 -0.29218465
2803 -0.023796609 -0.47371083 0.25500843 0.115699545 0.0055246004 -0.2909397 -0.119649194 -0.094914764 -0.04808288 0.29283482 -0.18722986 -0.39057586 -0.11403987 -0.20999242 0.29177174 -0.08627281 -0.20243555 0.278045 -0.2957578 0.66517115 0.11302394 0.3643551 -0.109151624 -0.075900435 -0.19688743 -0.37289846 -0.48610398 0.047031667 0.43476534 -0.4951663 -0.28267357 0.023231441
8259 0.01789616 -0.5171736 0.50121814 0.59262294 0.24158305 -0.20114478 0.12167725 0.030572895 -0.09270476 -0.21251251 -0.01724091 -0.1255865 0.09179857 -0.1202229 -0.27956966 -0.071707785 0.20306054 0.2554651 0.44170788 0.42997816 0.2676438 0.59213203 0.5014016 0.012721898 -0.14153065 -0.05960919 -0.58537 -0.14335905 -0.1544616 -0.4259216 -0.0960621 0.012947513
7633 -0.15652238 -0.26701126 0.2878041 0.37610075 -0.08309066 -0.2236496 0.09240704 -0.004898031 0.053666987 0.05059133 -0.19335136 -0.35424235 0.034306325 -0.30873358 0.21309379 0.024148202 0.19851625 0.24537928 0.06236926 0.33125964 0.061094772 0.5261639 0.58889836 -0.35691825 -0.04674748 -0.28974444 -0.33200642 -0.25127274 0.17634693 -0.565926 -0.08623788 0.2258237
9823 -0.17686844 -0.44286582 -0.20894316 0.14342187 0.24394579 -0.10181027 -0.20021729 0.27414277 0.9469797 -0.53133756 0.65209043 -0.07929081 -0.3305573 -0.21135345 -0.98700017 -0.04569056 0.35150695 0.07115862 -0.1230404 0.29330233 0.7829194 0.5542122 1.2713261 0.12447905 -0.18172383 -0.15420951 -1.2617614 0.09320733 0.20007195 -0.68287504 -0.40872085 -0.40142888
9448 -0.07346951 -0.85099685 -0.59457713 0.026486697 0.028266588 -0.7194564 0.21829073 0.016939599 -0.10951897 0.09306877 0.16325039 -0.11600523 -0.0008295318 -0.28861755 -0.5067923 -0.29934198 0.20770907 -0.19182082 -0.16174378 0.60862017 -0.20780325 0.88080406 0.9643195 -0.38793176 0.78742266 -0.094872974 -0.16575822 0.4269256 0.019440237 -0.26246464 -0.2002908 -0.07728565
3608 -0.10831681 -0.44589436 0.093275696 0.06438911 -0.04714306 -0.18932132 -0.15174045 0.008332718 0.16625823 0.17637406 -0.06251751 -0.15428586 0.11739736 -0.31213668 0.05881992 0.036661685 0.0074630524 -0.045801044 -0.2459925 0.8520465 0.28497717 0.27564842 0.33063 -0.026287138 -0.17556773 -0.29397163 -0.5450772 -0.2409744 0.48719466 -0.3581133 0.05277632 0.120707035
9635 -0.6636465 -0.7169541 0.7362575 0.7388435 0.10004498 -0.08836561 0.50798714 0.156619 -0.10761535 0.01059763 0.24286962 -0.97478735 -0.08593934 0.09284759 -0.061789475 -0.205713 0.33391604 0.49709037 -0.13664858 -0.06719661 0.41997415 0.65120625 1.1477087 -0.3169587 0.03189969 0.28275895 -0.1926668 -0.32454365 0.009364411 -0.84590036 -0.017394304 -0.12779282
9550 0.01966739 -0.2541847 0.4312078 0.039548613 -0.23622748 -0.051277835 0.116634056 0.6781653 0.08075225 0.21507269 -0.067590475 -0.8860963 0.37752956 -0.68223196 0.19356363 -0.4006491 0.7561941 0.49424356 0.47646847 -0.14991033 0.2783725 0.4929216 0.9746537 -0.54363686 0.4301324 -0.35109088 -0.7427991 0.019140495 -0.5607518 -0.53974205 -0.21304609 0.11027426
10081 0.0030209266 -0.93234545 1.1655614 0.44880226 -0.13718006 0.03830981 0.5444201 0.16114758 0.16486317 -0.105234936 -0.032932878 0.41043577 -0.11729502 -0.24857235 -0.14781773 -0.736807 0.027276754 0.59435946 0.021079622 0.51703346 1.3225714 0.0044699768 1.5223836 0.1645546 -0.4962278 -0.53707594 -1.0635512 -0.6901164 -0.6333165 -0.08388176 -0.13667108 -0.17172107
8084 0.06637866 -0.5829662 0.34212577 0.42062598 0.110849276 -0.3296296 0.13552362 0.25098342 0.14799134 0.23929085 0.2589931 -0.2812088 -0.23054034 -0.24711463 -0.27780977 -0.36267215 0.017943991 0.08014262 0.12169545 0.32658508 -0.144063 0.3822468 0.7984971 -0.25545436 -0.029619832 -0.13071975 -0.39305633 0.07255212 -0.010526754 -0.27981445 -0.054862678 -0.025304254
10053 -0.70213604 -0.77536356 0.78097266 0.472279 -0.56921184 -0.5087404 0.33774838 -0.22047304 0.34646982 -0.5600988 -0.52589285 -0.8423685 -0.038307965 0.2777149 -0.01624471 -0.26105562 0.4172868 0.8135871 0.1361589 0.98083156 -0.16350906 0.88374585 0.83261234 0.5644642 0.6044408 -0.09644542 -0.08872717 -0.31872022 -0.013537275 -0.69153386 -0.117705524 -0.20240435
9297 -0.35782254 -0.43112117 0.14237602 0.6248369 -0.15065263 0.09337753 0.29535532 0.4746337 -0.13430811 -0.1389593 -0.045553546 -0.50040007 -0.157742 -0.46123222 0.4257158 -0.25055844 0.41278282 0.4847369 0.080629826 0.039170098 -0.22091685 1.0750235 0.8145348 -0.45853207 0.3076285 -0.42780918 -0.5534159 0.43994054 -0.27758336 -0.14506774 -0.3649856 0.34632128
10108 -0.2289023 -0.5718127 0.39789373 0.4422989 -0.58509725 0.04000622 0.007024222 1.1511616 0.29617527 0.050902385 -0.33242866 -1.3561088 -0.4036046 -0.17612064 0.33004317 -0.46845296 -0.2687021 -0.08011847 -0.40470713 0.7774257 0.79130536 0.9680254 0.58737326 -0.41030657 0.69608647 -0.11614836 -0.2117785 -0.093365245 0.429968 -0.19894288 0.16470909 0.51668596
2521 0.23876677 -0.31503782 0.1027351 0.22766906 0.20607467 -0.3607357 -0.091918826 0.017927723 -0.05295211 0.13660468 -0.06924798 -0.24019243 0.07992572 -0.13515845 -0.13838896 -0.030545805 0.011570508 -0.0074609267 -0.09384841 0.8102473 0.13563262 0.60831815 0.09600499 -0.24074833 -0.19704792 -0.16212142 -0.4623423 -0.039214946 0.49746585 -0.24728881 -0.2692039 -0.06848449
10044 -0.5993825 -0.25472277 0.046643864 0.4251606 0.17116117 -0.36660156 -0.10569658 -0.13317871 -0.015936397 -0.091883525 0.2757154 -0.8560879 0.9152348 -0.60030514 0.15822753 0.118783385 -0.41991687 0.90267605 -0.7073453 -0.04378365 -0.53408086 1.4717727 1.2564037 -0.15370646 -0.8506446 -0.28896937 -0.5391379 0.9425969 -0.1961526 -0.79240674 -0.3384951 -0.878194
9858 -0.07083727 -0.5064518 0.1307125 0.89922273 -0.20435172 -0.43012783 0.32017708 1.0820222 0.60980016 -0.050738495 0.33060732 -0.22948222 -0.63110054 0.023782864 -0.8064737 0.3156826 0.2142998 0.12729718 0.43200237 0.9678975 0.8478315 0.4026221 0.7637975 0.18759967 0.6138658 -0.49754697 -0.63600945 0.21811366 0.10608065 -0.5398745 0.34075168 0.20934547
6373 0.008595565 -0.43728155 0.23698871 0.3031542 0.30041954 0.0047928793 0.07956656 0.18128437 -0.14842972 -0.006098358 0.050366875 -0.22343141 0.0017280173 0.001368653 0.114097536 -0.21509185 0.1681901 0.11583514 0.104857326 0.43710956 0.20395157 0.6294895 0.33967555 -0.08830897 0.059659623 -0.16781947 -0.5620961 0.16202751 0.41857293 -0.2559971 0.0026686094 0.21546103
9895 0.109055035 -0.10757311 0.93582255 0.46843728 -0.31769323 -0.37780923 -0.3829923 0.35522926 0.13339272 -0.62270266 0.31109035 0.20345886 0.66498166 0.5417809 -0.4113298 -0.76191765 0.043182276 0.34409913 0.32240137 1.0513508 0.09837227 1.2685747 1.3633329 0.3077231 -0.43448374 0.4950628 -0.2281515 -0.014726957 -0.33882165 -0.65225095 -0.15200001 -0.7046835
9628 0.082361944 -0.5980767 -0.14057654 0.45626128 0.49717808 -0.45859367 -0.043444775 0.27261168 -0.27151173 -0.19984981 0.5885622 -0.5667511 -0.10391045 -0.084044665 -0.14826573 0.1114093 0.17870778 0.4712356 0.6221576 -0.26322678 0.5403736 0.7739794 1.3795995 -0.07734896 0.28108886 0.59496635 -1.0543337 0.58751005 -0.15550303 -0.57250565 0.21843699 0.022308921
3262 0.18130471 -0.4136886 0.25365677 0.037436098 0.17077395 -0.3028863 0.037800483 -0.17230132 0.0023281104 0.05822049 -0.16397226 -0.39096996 0.46751103 -0.3082537 0.08364526 -0.038898677 0.12738244 0.34389773 0.025755404 0.77861863 0.08828143 0.4629155 0.2909319 -0.14137353 -0.008570983 -0.1336938 -0.21707873 -0.07758292 0.35992384 -0.3459211 -0.04196645 0.13149437
10016 -0.49230605 -0.69733006 0.13515694 0.4149731 -0.39303577 -0.11683853 0.8400055 0.8648689 0.5150406 -0.22585095 0.7485244 0.28014496 0.07115033 -0.24769671 -0.29043457 -0.018548157 -0.25574124 0.9327775 -0.28671348 0.84696466 0.05801695 1.1470394 0.7697223 -0.18905926 -0.10066204 0.4073806 -0.09136732 0.3757622 0.20168124 -0.38945675 0.7351936 -0.6119157
9638 0.80658686 -0.43579102 0.36163458 0.75210375 -0.017240694 -0.28354064 -0.59218234 -0.06012016 -0.020271283 -0.4214126 0.21899438 -0.38029274 0.08327049 -0.39632127 -0.3024464 -0.54721385 -0.026591612 -0.23206447 0.43445823 -0.14377382 0.24964096 1.4304154 0.8968441 0.2624107 0.13569745 -0.6171469 -0.3450685 -0.085114904 0.44286066 -0.4678306 0.3539001 0.40823397
7720 -0.05671525 -0.41178602 0.09296311 0.22176714 0.21758528 -0.2370954 0.09933916 0.15436399 0.127987 -0.21693122 0.037375018 -0.4373533 0.12283317 -0.3540623 0.31879264 -0.36028942 0.37038422 -0.03434627 -0.20270233 0.43331468 0.25889033 0.40625194 0.61891425 -0.21901305 0.14624316 -0.32584432 -0.80586207 0.018701488 -0.048126906 -0.035244144 -0.017447904 0.12982586
10071 0.18132426 -0.31972328 0.4457401 0.48633316 -0.11410845 0.0916373 0.85706 0.47526252 -0.33074698 -0.80956876 -0.16730718 -0.7833684 0.11713588 -0.686658 0.34733808 -0.72103757 -0.007992379 -0.045649607 0.8742826 0.22117507 0.55394477 0.21710989 1.4299592 -0.2752675 0.7841394 -0.07829775 -0.61883116 -0.43387845 0.2554743 -0.87703353 0.3066427 -0.014908159
8483 0.26244625 -0.49182492 0.5832786 0.25290126 0.5992693 -0.09254038 -0.022777438 0.023737803 0.38960868 -0.32677707 -0.08354265 -0.6290589 -0.49205545 -0.22993979 0.11310194 -0.42449766 0.29713818 -0.31738043 -0.07515006 -0.13737829 0.12728502 0.6700548 1.1093676 0.29874456 -0.3169261 -0.2879159 -0.8589227 0.15280856 0.14823285 -0.46533406 0.3521422 -0.22417977
10005 -0.22725692 -0.16973141 0.75686073 0.61441004 -0.11848546 0.104634546 0.5275157 0.9984779 -0.76525205 -0.050041754 -0.06413367 -1.127365 0.033240005 -0.1965015 -0.13956337 -0.44073835 0.0980193 0.1728099 0.7791379 0.61899054 0.9948605 0.37609783 0.5593034 0.16279298 0.7491381 -0.06849315 -0.64042085 -0.54809195 0.6315318 -0.97279185 -0.21628033 -0.17671518
2861 0.41846094 -0.50651604 0.26002768 -0.10131775 0.083670676 -0.42083704 -0.26688352 -0.18767978 0.22041771 0.04260084 -0.16139236 -0.25131947 0.12577544 -0.46559703 0.13361782 -0.25993234 -0.034848433 -0.0050106063 -0.008740481 0.7762267 -0.03708528 0.38544476 0.13204303 -0.005762564 -0.104739115 -0.263299 -0.47479764 -0.1862248 0.5787385 -0.42644227 -0.09194352 0.12736507
9764 0.45197228 -0.25240934 1.3398638 1.5639461 -0.10340541 -0.44854563 -0.32930985 0.14259057 -0.8783886 -0.18784715 0.31211904 -0.7953177 -0.3169669 -0.7771828 0.021039842 -0.23643367 -0.291061 0.26391777 -0.24619433 0.5880918 0.5310821 0.9051838 1.2926784 -0.27257028 1.3776878 -0.44993192 0.046004716 -0.2169531 0.4670729 -0.3302897 0.033893377 -0.48088902
9847 -0.22212802 -0.58833814 0.5176185 1.0469943 -0.33136916 -0.3703744 0.31220353 -0.039526 -0.00971444 -0.35330454 -0.14266706 -0.84678745 0.45017895 -0.008625691 -0.35285714 -0.16237037 0.47487187 0.58093846 0.16723575 0.24857326 -0.19083478 0.74684733 0.8383279 0.19543962 0.54462636 0.1834347 -0.27732694 -0.09551705 0.18226402 -0.46381128 -0.30773637 0.006866819
10240 0.15802823 -0.56288874 0.42006564 -0.05649702 0.39780492 0.36798382 0.32108274 0.51315236 0.049010355 0.054088153 0.60717547 -0.45970905 0.28450722 -0.56249195 0.18672167 -0.19740441 0.10738685 0.6335207 0.025550721 0.5363698 0.42873478 0.58293587 0.421701 -0.21748486 0.15161444 -0.20895135 -0.3468076 0.25963122 0.5654643 0.15763468 0.42449546 0.80634445
8043 -0.0696739 -0.40572923 0.048678093 0.4100224 0.14890043 -0.15430109 0.27054653 -0.023477754 -0.10965555 -0.08507896 -0.09579073 -0.2611016 -0.06957039 -0.0082946615 0.008943622 0.02188615 -0.043744855 0.19839326 -0.12645327 0.54175663 0.07215263 0.71561253 0.7710882 -0.12937272 -0.2305776 -0.2955847 -0.36317748 0.18072523 -0.18211743 -0.33697736 -0.13999751 0.100086905
6950 0.024093477 -0.269405 0.3804608 0.42067015 0.07397127 0.0028981445 0.102454916 0.18126732 -0.064381264 0.1348318 0.049957566 -0.20957404 0.038752966 -0.32372376 -0.033177137 -0.28608748 0.20660153 0.1977044 -0.014999713 0.21901804 0.09867554 0.6865165 0.5290645 -0.042724222 0.1304296 -0.2605965 -0.45734224 0.113362625 0.3640307 -0.41992876 -0.28898296 0.41224417
10082 -0.44333285 -0.23330031 0.6653447 0.5993796 0.20428318 -0.027549021 1.059357 -0.21453793 -0.8961317 -0.14553201 0.055396717 0.011042202 -0.02390888 0.2129381 0.051399603 -0.55384153 -0.08513369 0.6435659 0.016235441 -0.010808735 1.5011839 0.6871948 0.6553977 -0.5224296 0.36381993 -0.20019832 -0.92381734 -0.16256803 0.10891758 -1.1072998 0.10684036 0.48462296
8622 0.020291258 -0.5874004 0.045396764 0.5878107 0.21852301 0.279828 -0.22921793 0.17245162 0.1410505 -0.008156777 -0.08317387 -0.47687805 0.09300654 0.034826323 -0.028053306 -0.18064968 0.012759988 -0.050358795 0.15825886 0.35497442 0.2693276 0.84543437 0.905148 -0.045661718 -0.04262227 0.15357926 -0.56311774 0.038980376 0.091513656 -0.43364823 0.14957312 0.118606165
10130 -0.578017 -0.55606616 -0.117295355 -0.25280067 0.31546363 0.4627917 0.6552242 0.8037711 -0.9908193 0.44608337 0.7018149 -0.94929147 -0.21785335 -0.54185504 -0.21809065 -0.35894182 -0.1043719 -0.23043166 0.57079744 0.89024687 0.24838987 0.5236459 0.19563647 -0.52261406 0.3573411 0.07695182 -1.0873288 -0.022687541 0.51072365 -0.22267397 0.43925697 0.31762487
9694 0.008730799 -0.5814025 -0.2181684 -0.18292373 -0.24810685 -0.44931334 0.47928694 -0.47944596 -0.5522967 -0.118928805 -0.8007169 -1.1297601 0.34609425 -0.18276396 0.45056626 0.03613551 0.19610973 0.23633209 -0.20417888 1.1153309 0.45842278 0.5654609 0.9408333 -0.45841262 -0.13016418 -0.33314213 -0.84964293 0.11981162 -0.8930906 -0.034271356 -0.22430673 -0.13584815
9781 0.269474 -0.68235916 0.9263415 0.34080166 0.4230742 -0.14437525 0.07753337 0.7448521 0.046410374 0.43381515 0.3179776 0.15294653 0.15875138 -0.4948682 0.33113763 -0.03125572 0.034469895 0.37370223 -0.35501716 0.22989129 0.25970292 -0.11746404 1.8066704 0.0846849 -0.27207783 -0.6329578 -0.8655092 -0.18482214 -0.23227863 -0.32368252 -0.6293211 -0.618831
10236 -0.08388741 -0.8045491 -0.1583041 0.1965568 0.0065938793 -1.0775971 0.42054486 0.50410885 0.32293966 0.37401077 1.1920065 -0.35055414 0.1662213 -0.39044878 0.8498363 1.3760304 0.4231338 0.24702176 -0.41057414 1.0946698 1.1442839 0.46283913 0.73753345 0.6927455 0.8942481 -0.2309139 -1.0402533 0.1411549 -0.2844527 -0.03852403 -0.07922953 -0.29056728
3858 0.16193958 -0.18982737 0.09890726 0.024675343 0.35995913 -0.40560162 -0.1706122 -0.12697423 -0.21999381 0.15099697 -0.2767257 -0.23846169 -0.09395152 -0.31454685 0.034938514 -0.045403708 -0.16158582 0.27393958 0.13514593 0.7175524 0.005895773 0.49220628 0.24694054 -0.09273011 -0.19040738 -0.24763535 -0.6286898 0.24113451 0.57053185 -0.5378897 0.040288936 -0.018415961
9873 -0.28523684 -0.46350017 1.1493721 0.48559138 -0.8708565 -0.32936373 -0.17013235 0.39756018 -0.36524475 0.025214048 0.05198156 -0.5204336 -0.20416015 -0.2218729 -0.55515754 -0.9452642 -0.20049024 0.26032352 -0.14145926 0.6906347 0.48063126 0.4293282 0.7837857 0.37384552 0.11335153 -0.9754037 -0.26559502 -0.4039706 0.11796991 -0.19794565 -0.506714 0.28614646
5259 0.19362587 -0.3623452 0.22629005 0.12656921 0.014504064 -0.2813954 -0.030994296 0.26197487 0.1922663 0.06299989 0.106522985 -0.16572204 0.13573223 -0.23410553 -0.18378541 -0.2139175 0.015343813 0.17861496 0.12622032 0.6847566 0.055024326 0.6727515 0.38188198 -0.19884326 -0.1644779 -0.03862653 -0.4296298 0.06330387 0.18689963 -0.34245026 0.026527874 0.012737893
6317 0.21483357 -0.5045104 0.27375674 0.07339187 0.056347188 -0.25000465 -0.04315974 -0.05971928 0.11418241 -0.119494386 -0.17854702 -0.22453475 0.04834564 -0.16824801 0.09496894 -0.23951535 0.23280562 0.21428952 -0.08245343 0.45214668 -0.052041873 0.55176425 0.3489957 -0.1411796 -0.44212204 -0.22062577 -0.47603035 -0.08054837 0.60017073 -0.4401022 0.0061701806 0.39351788
8118 0.20387027 -0.5150439 0.21896943 0.35681188 0.1611514 -0.08521349 0.11904543 0.04590782 -0.034159485 -0.0867342 0.08879196 -0.090070695 -0.26750964 -0.053150356 0.47122473 -0.28688547 0.041078024 0.0434799 0.18050747 0.39585164 0.07414951 0.7626397 0.74895555 -0.20654377 -0.20453782 -0.17196926 -0.63249 -0.06284515 0.016599592 -0.1886119 -0.16385677 0.17364766
10064 0.05442966 -0.6520696 -0.040179804 0.19672987 0.22421667 -0.3641631 0.0023847856 0.5121144 0.20534372 0.39842716 1.1432765 -0.49664143 -0.49524418 -0.20213206 0.20173377 -0.6642335 0.28224748 0.56504005 -0.29622775 0.41252717 1.4748943 0.54146534 0.53574175 -0.34000462 0.29302323 -0.9697178 -0.56040025 -0.267299 -0.14584917 -0.6064298 0.60370743 0.1379918
10020 0.14361368 -0.56682587 -0.4093394 0.37821293 0.49902403 -0.93494636 0.28516588 0.18627861 -1.0771633 0.48716787 0.019598886 -0.9756763 0.32010487 -0.36373457 0.004491592 0.26962855 -0.18129154 -0.18784843 -0.089777865 1.4772129 0.22258985 0.5019586 0.91269314 -1.0036343 0.32823652 0.3894273 -0.74129397 -0.35765046 -1.1028472 -0.5130931 0.72661585 -0.8380469
8979 -0.025420483 -0.58109605 0.20406578 0.4106612 -0.17281908 -0.42578563 0.650197 0.34146738 0.041459367 -0.033172887 0.15453444 -0.3300656 -0.18444882 -0.016427096 -0.39563456 -0.05641199 0.31111184 0.11747169 0.17610249 0.66012603 0.29912913 0.47330403 0.29464656 -0.32180092 0.22394511 -0.29735902 -0.083553284 -0.23500998 0.28881013 -0.45904413 -0.097797245 0.016917376
9705 0.07912093 -0.16987014 0.9169092 1.0127892 0.02411177 -0.3868544 -0.46930015 0.561424 -0.59794414 0.40376338 0.09764415 -0.37630242 -0.38525215 -0.26311234 0.54753566 -0.051086437 -0.015856627 0.114462785 0.04467575 0.42004335 0.6092288 0.89215624 1.0733492 -0.028851222 1.1419911 0.39620268 -0.413209 -0.30842257 0.7077894 -0.65755737 -0.07250523 -0.28377149
9092 0.31497806 -0.6294367 0.43346998 0.5230703 0.20225447 -0.26753166 0.39879438 0.53934985 -0.29722518 0.025128916 -0.012848945 -0.42842233 -0.036100745 -0.24444942 0.22076623 -0.43771598 0.12899522 0.102840975 0.18352744 0.48895597 0.10310697 0.8065199 0.84454167 -0.10627145 0.41850543 0.6934319 -0.082437485 -0.124787636 -0.18313755 -0.03230623 -0.11354388 -0.13194063
6728 0.11586994 -0.50799304 0.38247398 0.03217288 0.13205875 -0.109804854 -0.15676531 -0.077427246 0.07676636 -0.075755484 -0.22505906 -0.2928812 0.06616865 -0.09136588 -0.1723898 -0.07164302 0.18538003 0.1300987 -0.0058359588 0.7397039 0.09697709 0.5439379 0.46866918 -0.1135011 -0.33140445 -0.3135247 -0.534552 0.0018516975 0.17741033 -0.0915638 -0.21216506 0.2801189
10120 -0.08853524 -0.36705956 0.47397098 0.15925449 -0.050381623 0.48973534 0.89189345 1.1884736 0.46400234 -0.28922367 1.0337197 -0.36328095 -0.044010334 -0.13281989 0.0061586387 0.0762397 0.23889779 0.83247495 -1.171294 0.8065796 0.39420012 2.0138354 0.8411058 0.03321808 -0.41348612 0.06893412 -0.27066067 0.7271234 -0.0150691 -0.4062541 0.6019136 0.0008645528
