34 128
34 0.13934828 -0.055137243 0.123647936 0.048749067 -0.03453197 -0.1790419 0.10980959 0.14028637 -0.13134229 -0.10313395 0.17151095 -0.11436636 -0.13042724 0.13111943 0.16763 -0.052312233 0.09327251 -0.0680755 -0.20841919 0.026654763 0.1349732 0.16877264 0.11170367 0.08696885 -0.049974505 0.124964386 -0.036518686 0.10932789 -0.082914405 -0.13241349 -0.30908638 -0.10011377 0.13303268 -0.042116866 -0.095425956 -0.041455965 0.17728966 -0.008247224 0.06559113 0.012065894 -0.13738894 0.10188777 -0.025972346 0.014880909 0.057092153 0.00012045918 -0.027503802 0.051552553 0.14120194 0.1680521 -0.10109634 0.16366732 0.23962204 0.037466884 0.11836446 0.09322966 0.20231262 -0.014931221 -0.04202377 0.10194637 0.09821639 -0.116431415 -0.004376431 0.03911569 0.13447054 -0.05311956 0.09321696 0.05140729 -0.12976438 -0.0816195 0.2825038 0.015141838 -0.097416595 -0.20256114 0.09872377 -0.045776468 0.017242761 -0.10507865 -0.08427338 0.10132568 0.13357289 -0.14912802 0.07026336 0.2835507 -0.1316283 0.072403304 0.16462426 -0.08300214 0.09521907 0.18263626 -0.08163589 -0.07193311 0.03134267 0.05676562 0.14646907 0.19864535 -0.3428755 -0.2449939 -0.00506535 -0.09338312 -0.19306454 -0.09238234 0.16042754 0.21149799 0.10200933 -0.063078105 0.14708999 -0.034834065 -0.018236253 -0.1239893 0.014069332 0.027670586 0.020319687 0.06975285 -0.04355664 0.032855082 -0.014034767 0.121003196 0.109097935 0.048949685 -0.06038099 -0.09292644 0.06274851 0.035544455 0.06357567 -0.13282345 -0.06332362 0.08841639
1 -0.028140133 -0.07686251 0.09187365 0.090855874 -0.002486825 -0.16348225 0.094322674 0.004727852 -0.02557334 0.0641544 0.25435784 -0.096344545 0.06466791 -0.121390305 0.011692823 -0.09307855 0.15248027 0.12656239 -0.05706009 -0.016310956 0.08641776 0.2596011 0.09285917 0.08602086 -0.06379605 0.06477514 -0.08554444 0.04211171 0.011310766 -0.11338938 -0.28873926 0.038737766 -0.028280683 0.020921119 -0.050567433 0.073895715 0.23702557 0.022062082 0.21761395 -0.039140273 -0.057331413 0.026336754 -0.05151387 -0.09369242 0.07356049 0.084582426 -0.071218446 -0.08116236 0.031019747 0.15743299 -0.055075727 0.07884805 0.19334005 0.14436525 0.06929636 -0.024078384 -0.0336775 -0.0048112394 -0.1254187 0.0814801 0.14301436 -0.09273664 0.11606302 0.049318876 0.119072706 -0.12980482 -0.005545175 0.09198288 0.0060746446 -0.111339204 0.14164701 -0.003157464 -0.14305404 -0.049840365 0.00033713994 -0.11623937 -0.043469347 -0.020436546 -0.055285335 0.2365129 0.03029106 -0.06303208 0.03523069 0.32216224 0.052378517 0.124686666 0.17178102 -0.12488804 0.120153226 0.122670285 -0.04341412 -0.065779924 -0.026729979 0.08770658 0.23177223 0.08651262 -0.2244441 -0.21811172 0.027957328 -0.08964668 -0.17653446 -0.10502697 0.077867925 0.09721902 -0.024644421 -0.08712111 0.06330431 0.00805022 0.044540122 -0.11530368 0.015900766 -0.02166607 0.10136662 0.123838685 -0.102229275 -0.06597057 0.046871647 0.14110552 -0.01910393 0.06616326 -0.037335645 -0.02932474 0.018319951 0.02778533 0.015776366 -0.16110931 -0.017424557 0.08046029
33 0.12001754 -0.06246096 0.109547056 0.045945704 -0.022522843 -0.18333691 0.10843196 0.12576848 -0.118587516 -0.075785846 0.18785729 -0.108591475 -0.10685829 0.099702895 0.15922625 -0.054308336 0.10165866 -0.042910624 -0.19534536 0.035245746 0.13264297 0.18371575 0.10471955 0.086550914 -0.0563469 0.11432388 -0.048992213 0.09717308 -0.0642698 -0.13385952 -0.31425464 -0.09262559 0.1113118 -0.0305272 -0.094449446 -0.018086473 0.1914459 -0.0028004334 0.09777708 0.01637427 -0.12367122 0.089156635 -0.011167648 -0.0015393505 0.055189367 0.017625853 -0.031024693 0.026974037 0.137626 0.16638076 -0.09483603 0.16092548 0.25442258 0.049392972 0.11647673 0.092683315 0.17633802 -0.01565601 -0.044878524 0.095825896 0.11511939 -0.11818676 0.0021703504 0.052081622 0.14318709 -0.06818337 0.093207315 0.061779927 -0.122394815 -0.0868544 0.27372566 0.006987301 -0.10601911 -0.18394946 0.088552125 -0.065150626 -0.002857993 -0.09592376 -0.07343505 0.14181286 0.13160813 -0.15351915 0.06138907 0.3034378 -0.10481096 0.08641107 0.17086422 -0.087121956 0.11342895 0.17528483 -0.076921955 -0.07804629 0.017783957 0.06599139 0.16011553 0.18948951 -0.34151596 -0.2529405 -0.008822977 -0.10374506 -0.18711019 -0.090381995 0.15092635 0.19569807 0.08102006 -0.05777308 0.14860576 -0.042432975 -0.009555807 -0.12435356 0.015367208 0.03837961 0.037540413 0.07164417 -0.047719132 0.009230377 -0.019358033 0.12502861 0.09958431 0.04537977 -0.06783209 -0.07816616 0.04879313 0.047130954 0.052022908 -0.13923576 -0.046905976 0.0859834
3 0.041769873 -0.07989118 0.11012434 0.0698511 -0.012858424 -0.1750406 0.085245624 0.057425916 -0.062396742 -0.015438862 0.22358648 -0.106633276 -0.012731119 -0.024676947 0.07709509 -0.08504313 0.11703876 0.042607 -0.12529536 -0.0056956913 0.105555065 0.22023855 0.09571873 0.08822811 -0.06132444 0.097288296 -0.06447178 0.07203109 -0.03315691 -0.11698483 -0.29948172 -0.02706694 0.035412665 0.0031267586 -0.059165232 0.029230418 0.20479123 0.0032268276 0.15830167 -0.0055911336 -0.09454362 0.051596276 -0.038825314 -0.03834365 0.061853368 0.03992116 -0.040640797 -0.026612988 0.081449635 0.15179709 -0.0705096 0.10489552 0.20844923 0.103524275 0.08627851 0.029126603 0.064057104 -0.01395772 -0.09944198 0.10007754 0.12788051 -0.103591494 0.0694456 0.042689115 0.12604584 -0.09483972 0.0399886 0.07403366 -0.044515505 -0.09661454 0.20089853 -0.011937589 -0.13147691 -0.11958673 0.043284845 -0.094760805 -0.015773151 -0.061943326 -0.056297623 0.176997 0.07164072 -0.10517247 0.062078413 0.31121543 -0.02958199 0.10557058 0.15311721 -0.09801458 0.102894574 0.13799088 -0.051281802 -0.055518854 -0.003407124 0.08336109 0.19723551 0.12391227 -0.27937347 -0.23116462 0.0066605583 -0.09549996 -0.18508449 -0.107156344 0.11114202 0.15058997 0.024498038 -0.078754455 0.09967365 -0.027434347 0.020694114 -0.11921395 0.014134869 -0.0046178782 0.07741497 0.10732366 -0.07839156 -0.024593286 0.0035576832 0.12430325 0.032861583 0.050295997 -0.054640204 -0.05334677 0.037440706 0.043721687 0.03241033 -0.15067787 -0.03405652 0.08476162
2 0.039987866 -0.08152761 0.10242956 0.053264655 -0.017636312 -0.17050941 0.0907507 0.059210215 -0.07274957 -0.019808004 0.22032322 -0.0942118 -0.03252282 -0.012466746 0.08212233 -0.08002676 0.12203368 0.034912884 -0.11881428 -0.009045846 0.09603229 0.20231842 0.09583624 0.08855791 -0.051611397 0.096535556 -0.05443285 0.065405175 -0.024036057 -0.12388175 -0.29645678 -0.034607768 0.036159005 -0.005680321 -0.06517366 0.03707591 0.20006858 0.0024326597 0.14740981 -0.019559259 -0.08474171 0.05899768 -0.0414159 -0.038807366 0.075383686 0.027902018 -0.04829348 -0.033083633 0.09053494 0.15556523 -0.063439906 0.105288364 0.21303737 0.09192308 0.09219659 0.03028175 0.07317626 -0.01793736 -0.08314349 0.09501721 0.12627356 -0.09533854 0.05713415 0.047224153 0.11380234 -0.08488993 0.045858536 0.07570498 -0.05353981 -0.09581349 0.2146782 -0.012415135 -0.12431257 -0.12564608 0.04212637 -0.07935369 -0.013878795 -0.06062872 -0.05093701 0.17937805 0.074271224 -0.10885883 0.06306293 0.31090516 -0.034558047 0.09050765 0.1592588 -0.1051966 0.11259373 0.13560855 -0.05460395 -0.06383244 2.002767e-05 0.07244096 0.19455382 0.13427229 -0.27765894 -0.22537658 0.0069936477 -0.090361625 -0.17413184 -0.08902787 0.10321048 0.15498565 0.05148562 -0.06938452 0.10282278 -0.0333248 0.015338263 -0.1195984 0.021695819 0.0068120104 0.069250025 0.10056106 -0.074670084 -0.02413299 0.008048402 0.12188487 0.04511498 0.060263272 -0.048034698 -0.047650646 0.029882183 0.041668195 0.03498336 -0.15083656 -0.041329037 0.0795117
32 0.06908855 -0.07602571 0.11304286 0.069863215 -0.010934114 -0.17055917 0.08905134 0.06886869 -0.08283829 -0.023448542 0.21009158 -0.13204229 -0.03575253 0.009439947 0.09634547 -0.089210376 0.122719385 0.022249093 -0.14815652 0.0017653931 0.11433014 0.21938089 0.1053152 0.09761801 -0.064848125 0.1037964 -0.066608086 0.06901319 -0.043965656 -0.1333557 -0.3177825 -0.02352795 0.055575497 -0.005033507 -0.06581097 0.013600383 0.21838576 0.02083111 0.14251794 -0.0013495766 -0.10130518 0.054789606 -0.04077993 -0.029062767 0.060275253 0.042191505 -0.04384206 -0.018998345 0.089363575 0.17349426 -0.09390931 0.13574734 0.23379819 0.09974053 0.0900881 0.045881096 0.08702203 -0.0064064823 -0.09168911 0.10379967 0.13207653 -0.10901602 0.07401553 0.055021495 0.13413331 -0.09101054 0.047134005 0.06093054 -0.06619221 -0.1047869 0.2153688 0.0028148908 -0.12129899 -0.12956518 0.05428014 -0.086020485 -0.021330278 -0.062699676 -0.07977974 0.16915609 0.08685018 -0.108368784 0.058640685 0.29761744 -0.045656342 0.10569405 0.1617344 -0.09358407 0.09489257 0.15298586 -0.06712802 -0.06261213 0.0011308882 0.07538618 0.18274967 0.14765073 -0.29538816 -0.23311067 -0.0008125881 -0.09828148 -0.17947392 -0.11039091 0.11637446 0.16414557 0.041593898 -0.08067321 0.10322585 -0.019796237 0.020832365 -0.117079034 0.0035526326 0.0041667684 0.07843144 0.092524 -0.086293444 -0.016012127 -1.2236706e-06 0.13072728 0.046597987 0.06991619 -0.042873416 -0.06867195 0.03774682 0.044844937 0.04878587 -0.14276053 -0.03689242 0.10148999
4 -0.007196695 -0.08542377 0.09042345 0.08837095 0.0003373745 -0.16483219 0.08627709 0.022880979 -0.035105877 0.033648554 0.23522113 -0.11387829 0.032233674 -0.083125114 0.03411347 -0.08736413 0.14636412 0.09506907 -0.0741398 -0.004046142 0.100061186 0.24488766 0.0883908 0.08739349 -0.06856743 0.07625534 -0.07843085 0.045122195 -0.009415423 -0.12549774 -0.29319412 0.011882058 -0.0048152516 0.018512256 -0.04783002 0.07181131 0.23146996 0.019093601 0.19984585 -0.033500817 -0.078846216 0.03561394 -0.0465058 -0.07470006 0.07439287 0.070842735 -0.058235753 -0.060089428 0.047314625 0.16244017 -0.07358512 0.09771661 0.20928198 0.13913245 0.08054022 -0.010414998 -0.0048158327 0.0024269365 -0.118416846 0.085752085 0.13677645 -0.09891734 0.1119072 0.044034027 0.12376847 -0.10438132 0.007437959 0.08746098 -0.012998637 -0.09680324 0.16563793 -0.011772804 -0.1382134 -0.06829737 0.01807351 -0.10717712 -0.046165038 -0.037264284 -0.059230026 0.21797965 0.047261234 -0.081967466 0.04410705 0.31919262 0.026920084 0.10910632 0.16702819 -0.117326885 0.107362 0.11647592 -0.03799331 -0.06479753 -0.02185394 0.08500945 0.22526392 0.10396207 -0.2486075 -0.2167745 0.012123815 -0.09092523 -0.18133767 -0.10551054 0.07866693 0.11854779 -5.9602156e-05 -0.07645709 0.0721215 -0.0019062837 0.03302615 -0.122417025 0.0041512107 -0.015728645 0.092023715 0.10807006 -0.094583794 -0.05557079 0.039253224 0.13309504 -0.004428583 0.06387379 -0.040903736 -0.031980883 0.021947041 0.03124251 0.03221914 -0.15203783 -0.0039539505 0.095716976
24 0.09928728 -0.055971462 0.111956425 0.06368147 -0.02457833 -0.17862402 0.0908341 0.10769187 -0.098825924 -0.054114368 0.17974924 -0.119963855 -0.06661943 0.05232065 0.13374665 -0.07247843 0.10856449 -0.004843628 -0.171915 0.026009133 0.12930264 0.19540644 0.1085706 0.08769118 -0.060518183 0.110999964 -0.058902927 0.080797404 -0.043176737 -0.13504842 -0.31960982 -0.043638527 0.08621289 -0.027921421 -0.077569835 -0.004485555 0.2066431 0.018783085 0.1115303 0.008528326 -0.11476295 0.079081126 -0.028341869 -0.010063062 0.05769816 0.04289422 -0.04830294 0.005140031 0.10937359 0.17297979 -0.101182915 0.15436475 0.24870671 0.088167846 0.09651369 0.076387934 0.11930727 0.0046668733 -0.07053541 0.093127966 0.11527391 -0.11242676 0.04578983 0.053813905 0.1399929 -0.07736757 0.06801695 0.055203132 -0.09072694 -0.10088667 0.23156928 0.003529321 -0.11321766 -0.15376003 0.072899915 -0.070350535 -0.025338292 -0.08194607 -0.08052805 0.14905271 0.10776282 -0.13158104 0.06547481 0.28963923 -0.06625111 0.08965402 0.16389804 -0.08329012 0.100210115 0.15460362 -0.080302276 -0.066512756 0.0153363645 0.07930142 0.15747263 0.17236196 -0.3018975 -0.22969928 0.0071682744 -0.10668204 -0.19299327 -0.09807164 0.14178397 0.17756632 0.055390764 -0.07205038 0.1314634 -0.02872266 -0.0014942922 -0.12071549 0.007257087 0.01938753 0.05026576 0.08121341 -0.06383795 -0.0075611575 0.0043110633 0.123519726 0.07787418 0.066837676 -0.054393966 -0.083688356 0.052187886 0.03375694 0.050677788 -0.14884064 -0.030467318 0.08591615
14 0.0075020464 -0.075189285 0.09936334 0.069630995 -0.0033092692 -0.15569633 0.08724213 0.031250324 -0.040002484 0.020118564 0.23677005 -0.09862133 0.01296509 -0.060240086 0.046098515 -0.08627747 0.13100721 0.07156341 -0.108278766 -0.0044892263 0.086909704 0.23064369 0.0923627 0.088949695 -0.07140398 0.08568405 -0.07575863 0.054691598 -0.021961894 -0.1163865 -0.29986602 -0.0019479629 0.0033871694 0.004740646 -0.050530266 0.057187863 0.21437038 0.010677418 0.18179367 -0.0198249 -0.09071529 0.042426907 -0.049240854 -0.06902944 0.07433271 0.04837622 -0.052581552 -0.04742509 0.061973475 0.16614176 -0.06315368 0.106092624 0.21578467 0.11064097 0.07719713 0.016879668 0.036215913 -0.0027087198 -0.10253307 0.10008274 0.12345379 -0.096321344 0.08135814 0.050698336 0.12503088 -0.09865972 0.031183725 0.082249336 -0.038573608 -0.09920895 0.18536325 -0.008413921 -0.13136798 -0.09542486 0.03446512 -0.1087447 -0.018334243 -0.04227716 -0.051930062 0.20933999 0.065998904 -0.098574094 0.054128367 0.3304936 -0.007787683 0.10598404 0.16671725 -0.10660134 0.113101885 0.1273809 -0.04242956 -0.06607581 -0.011331074 0.07638541 0.21261247 0.11085494 -0.27194458 -0.23428574 0.011834352 -0.10634707 -0.18698665 -0.111229 0.08883798 0.14530513 0.021511784 -0.08009356 0.08999261 -0.023952764 0.027378311 -0.12032128 0.01832062 -0.0032529666 0.090630345 0.11618889 -0.09066119 -0.048918497 0.013721524 0.12869431 0.016707592 0.06955495 -0.037528835 -0.04268934 0.03694708 0.042158067 0.03078042 -0.1467194 -0.025757613 0.08070792
30 0.13601995 -0.05042834 0.108492844 0.04399651 -0.024606016 -0.16728291 0.09647475 0.12641203 -0.11596205 -0.08860021 0.16559747 -0.11551526 -0.11625234 0.11630675 0.16971582 -0.048227638 0.08293053 -0.051619843 -0.19554454 0.03996975 0.12896533 0.1721916 0.103961386 0.089527905 -0.060441528 0.12644891 -0.04194417 0.091819905 -0.07001285 -0.11601651 -0.30563593 -0.08799339 0.121124744 -0.03414551 -0.093393914 -0.039927956 0.18017669 0.0073185386 0.07751769 0.012216075 -0.13141863 0.094514966 -0.010566643 0.009722624 0.046708833 0.0057227565 -0.032545634 0.034401383 0.13022093 0.154625 -0.0871614 0.14741786 0.2435052 0.050676286 0.10329826 0.09997954 0.18530032 -0.008957165 -0.048631884 0.08687505 0.09405665 -0.115697905 0.00022219913 0.037487067 0.13655217 -0.05840342 0.089591704 0.044426274 -0.12050291 -0.08304816 0.26166594 0.013690031 -0.09713785 -0.17671122 0.08096597 -0.046559602 -0.000984797 -0.08932505 -0.0863945 0.11777864 0.12634361 -0.14654057 0.059900768 0.2629501 -0.116901346 0.06654038 0.15976067 -0.07549669 0.09509561 0.17585264 -0.083707355 -0.06951433 0.013998684 0.053746838 0.14485887 0.18054011 -0.32736477 -0.22797519 -0.0007445522 -0.10585283 -0.1819189 -0.10026622 0.15052503 0.19265504 0.078338824 -0.056685176 0.14913791 -0.03158284 -0.022624524 -0.12010866 0.020826941 0.033983663 0.027167419 0.069732696 -0.044032533 0.017590573 -0.027007122 0.116685085 0.11057916 0.056304265 -0.061158933 -0.093971685 0.056029662 0.04221411 0.060434602 -0.14522389 -0.05625295 0.085765935
6 -0.101894975 -0.079339296 0.05419686 0.1575474 0.015448276 -0.14300181 0.09192289 -0.057125974 -0.0033830758 0.1460855 0.25320923 -0.124011226 0.16119422 -0.21598406 -0.032088798 -0.10461257 0.19981042 0.21250561 0.0081785545 -0.011151936 0.068300486 0.3248337 0.067946225 0.10350259 -0.07696386 0.02515663 -0.11748663 -0.008575174 0.022357348 -0.13027243 -0.30104136 0.107752405 -0.06921639 0.0379283 -0.0244567 0.12563354 0.27991787 0.039669953 0.27005398 -0.06447243 -0.038534284 -0.011398099 -0.061462328 -0.11980443 0.06432775 0.15040676 -0.11410736 -0.12290949 -0.010943745 0.18254147 -0.055348616 0.08838505 0.21897903 0.19904687 0.040210787 -0.07242201 -0.15791254 0.029474095 -0.1717743 0.09475338 0.15901765 -0.086025625 0.20320061 0.067926936 0.11988585 -0.16851024 -0.05803161 0.10539014 0.071292005 -0.12830377 0.087964274 0.008443399 -0.16806765 0.01900943 -0.030788269 -0.1413399 -0.0990447 0.005590713 -0.076314084 0.30129072 0.0050380044 -0.019809278 0.023351727 0.35054776 0.13419831 0.1451791 0.18251188 -0.13268967 0.10664938 0.080800936 -0.020322414 -0.06441923 -0.049385794 0.11460839 0.27457651 0.06467806 -0.17724925 -0.1898607 0.044697337 -0.10451574 -0.16594025 -0.14066923 0.0553163 0.061316166 -0.08393196 -0.09880751 0.048753943 0.07559543 0.08378778 -0.120116115 0.012117989 -0.040932734 0.14263624 0.13943115 -0.15411335 -0.1261248 0.09520889 0.15058178 -0.088829115 0.106455624 -0.012798292 -0.007424947 0.012906894 0.0030364871 0.028794412 -0.16615291 0.03068885 0.10889928
28 0.075379595 -0.0757863 0.11330512 0.06660615 -0.020587998 -0.18011579 0.089270055 0.0828809 -0.07164757 -0.028513566 0.2051283 -0.12444866 -0.026382124 0.014443565 0.10464361 -0.082040176 0.11623822 0.026576683 -0.14352193 0.0049135163 0.12064024 0.21430819 0.0926071 0.09051296 -0.062199708 0.09484811 -0.064609095 0.06869831 -0.03018892 -0.122295104 -0.31165782 -0.024418613 0.06474733 -0.011772678 -0.068319015 0.018061824 0.21449801 0.019687649 0.13724889 -0.0058684843 -0.10366888 0.06364264 -0.032874346 -0.024876792 0.06361472 0.03810536 -0.051325027 -0.019035796 0.09962242 0.1731453 -0.08973123 0.13434 0.22661182 0.093368985 0.09261227 0.05113428 0.08778692 0.0009239881 -0.091537155 0.09683219 0.12353773 -0.107677236 0.05885402 0.044475425 0.14095166 -0.092304215 0.044739436 0.056711286 -0.059095718 -0.09925984 0.21887884 0.005968965 -0.13068978 -0.12871931 0.05979592 -0.09264412 -0.019565634 -0.06364139 -0.06857138 0.17445204 0.085644126 -0.11941031 0.064089134 0.30064362 -0.03939082 0.10523636 0.1648923 -0.1008378 0.10182457 0.1542155 -0.07030381 -0.058535796 -0.0021486208 0.08409974 0.1841071 0.15582618 -0.29446563 -0.23644714 -0.0010678136 -0.09612604 -0.18990988 -0.10114474 0.11901945 0.15737048 0.03455402 -0.07331261 0.10701195 -0.024621997 0.00884991 -0.112373225 0.012422201 0.0089830095 0.066879384 0.102925755 -0.083736114 -0.018589644 0.00053308776 0.12628677 0.049047343 0.06961055 -0.048998173 -0.07475708 0.038663384 0.035474073 0.050013453 -0.14188975 -0.03499381 0.097455025
7 -0.03721998 -0.08069051 0.057092886 0.12799469 0.015493574 -0.15264091 0.07985546 -0.0045277686 -0.019291837 0.096292056 0.21978267 -0.12130658 0.09663307 -0.14370768 0.0034898387 -0.09180774 0.17285125 0.15328279 -0.035954017 -0.0009950534 0.091516994 0.2693657 0.08443002 0.10018508 -0.063216485 0.043210402 -0.094738156 0.017112609 0.0148139205 -0.12738256 -0.2848228 0.065635055 -0.020463312 0.03201154 -0.050578848 0.08397412 0.24475524 0.023282917 0.22431172 -0.0355548 -0.057675887 0.00948374 -0.052795887 -0.096435994 0.049366266 0.1069308 -0.08718447 -0.077250764 0.0123532815 0.17003381 -0.07004777 0.08467564 0.2123793 0.16873173 0.04728339 -0.032707233 -0.081681564 0.006065119 -0.14268173 0.09356106 0.14741933 -0.07557269 0.15336391 0.05882817 0.12097527 -0.14312427 -0.02122177 0.088153176 0.033873428 -0.109267205 0.11690259 0.0126121845 -0.14128296 -0.025973203 -0.008911386 -0.12543753 -0.0813899 -0.0065130875 -0.07989032 0.25349116 0.01502236 -0.049002483 0.026168067 0.3042646 0.082987085 0.1299017 0.16757989 -0.11797137 0.09857368 0.10641219 -0.026076635 -0.07040774 -0.033473384 0.096370324 0.23276606 0.07869781 -0.19492973 -0.20135349 0.033783842 -0.08903654 -0.15853375 -0.1219146 0.059100926 0.06998818 -0.04907766 -0.09300588 0.050746374 0.049550958 0.064669445 -0.10593672 -0.000337739 -0.032834552 0.11711724 0.121038735 -0.124501124 -0.09259185 0.06303627 0.13972399 -0.039435826 0.0828919 -0.034502186 -0.03669505 0.011165252 0.014094661 0.030895889 -0.14661196 0.010569362 0.099896565
8 0.04145546 -0.0715354 0.09891893 0.08319647 -0.0083335675 -0.17044123 0.100709826 0.06390702 -0.06526506 -0.004654079 0.22549783 -0.121936694 -0.004367196 -0.029345088 0.085397504 -0.08728844 0.13208526 0.04265779 -0.1297947 -0.0071161045 0.09987546 0.23236851 0.0945372 0.08910103 -0.06654813 0.089790076 -0.06282546 0.07119808 -0.02088816 -0.119465135 -0.31434467 -0.009510577 0.02747035 -0.0031601912 -0.070748664 0.03714275 0.22159167 0.018888539 0.16640928 -0.018291017 -0.09003719 0.046066046 -0.033178702 -0.045382988 0.06473065 0.047619026 -0.05781753 -0.03529384 0.08518104 0.1678417 -0.07547784 0.10926998 0.22627586 0.108432434 0.09408688 0.020405827 0.06177128 -0.0094254175 -0.105271615 0.09348508 0.12700355 -0.10626039 0.07493508 0.043097522 0.13319112 -0.10111631 0.033680845 0.07604002 -0.055249304 -0.1065662 0.20791456 0.006180927 -0.13948542 -0.10854835 0.04667184 -0.09967208 -0.018602258 -0.062402856 -0.06258152 0.19434309 0.07560325 -0.10743053 0.05028151 0.3145227 -0.019976094 0.10833412 0.17333765 -0.0976074 0.11582126 0.14114699 -0.049450997 -0.0672297 0.00039734383 0.083777204 0.20222896 0.13804995 -0.28561452 -0.23837067 0.005043281 -0.09665565 -0.181275 -0.10822602 0.11046343 0.15353954 0.030271495 -0.08720378 0.10211865 -0.019661255 0.022747695 -0.11358982 0.017375361 0.0025036961 0.08536088 0.111898474 -0.08084344 -0.023811312 0.011970804 0.14029445 0.035022467 0.06164685 -0.03992185 -0.052839383 0.042286884 0.04122753 0.047012035 -0.15273084 -0.023257906 0.09353991
9 0.068671815 -0.07103586 0.10979702 0.066420525 -0.016255733 -0.16101485 0.093656376 0.06636784 -0.06712053 -0.03732413 0.19053675 -0.103801906 -0.036084447 0.009854579 0.09551944 -0.06385959 0.10814654 0.012117369 -0.14102656 0.003667195 0.10800351 0.20715193 0.10112435 0.08462993 -0.05671409 0.102755696 -0.049487505 0.0759094 -0.0336505 -0.12486216 -0.29162443 -0.040029682 0.059367616 -0.010924798 -0.07541341 0.02129248 0.20157012 0.004854811 0.13642953 -0.005055281 -0.101953 0.059761614 -0.032903053 -0.033427484 0.06332594 0.03611965 -0.034705725 -0.018918062 0.08647597 0.15151693 -0.07379061 0.12466285 0.21371697 0.08818434 0.08572571 0.042529497 0.09942501 -0.010013495 -0.08363007 0.08469536 0.11509273 -0.10385394 0.053798415 0.051459145 0.12152367 -0.07972342 0.055263292 0.06599732 -0.069851376 -0.085949205 0.22151126 0.0048095444 -0.121189445 -0.11977338 0.060182918 -0.072735004 -0.015188474 -0.06513982 -0.060584337 0.15590578 0.09222835 -0.11018665 0.06268884 0.28962615 -0.050361916 0.09883096 0.15051511 -0.10013023 0.09749051 0.14606622 -0.061896782 -0.05713869 0.012831872 0.0703673 0.17989449 0.14569062 -0.2855576 -0.23222941 0.009029551 -0.097936735 -0.17508024 -0.093184106 0.11767513 0.16060165 0.04820135 -0.07429421 0.10852175 -0.022143878 0.015763283 -0.111904584 0.013199765 0.0126454085 0.057259023 0.09789827 -0.061519764 -0.018138917 0.006633818 0.11771909 0.05100841 0.057083275 -0.040028367 -0.060869597 0.040890716 0.040168773 0.047944993 -0.14350343 -0.039521098 0.081793144
5 -0.070939176 -0.076016955 0.053353693 0.13083643 0.005567392 -0.14190497 0.08451227 -0.039427996 -0.009856373 0.12041613 0.2362113 -0.11900617 0.12423522 -0.1694983 -0.020296175 -0.08732272 0.17220744 0.16695593 -0.019118313 -0.019603316 0.081511475 0.2988185 0.08107671 0.10498807 -0.06633513 0.03838788 -0.10177361 0.002645291 0.01875726 -0.12498868 -0.29892564 0.07269681 -0.046990782 0.026916495 -0.034192547 0.10869858 0.2568 0.031521726 0.2441733 -0.053687163 -0.04935706 -0.009784113 -0.061340008 -0.10917672 0.05738808 0.12829477 -0.09971008 -0.10239282 -2.5164452e-05 0.16795804 -0.06382664 0.08900766 0.20854758 0.17476489 0.041129492 -0.051110253 -0.103339545 0.021932269 -0.15680192 0.090044014 0.14349002 -0.082282 0.1725841 0.058299657 0.12399836 -0.14740428 -0.035115726 0.09307486 0.042567134 -0.12275877 0.105163366 0.008504339 -0.15635438 0.0008034664 -0.023820287 -0.13469648 -0.092173964 -0.0012581648 -0.066684745 0.27011403 0.0174112 -0.035234798 0.021330206 0.33384055 0.10141355 0.13801144 0.16542049 -0.12796034 0.10325576 0.08742595 -0.023882834 -0.06073055 -0.026643109 0.10563166 0.24798606 0.06784251 -0.18869253 -0.18849479 0.03162493 -0.09633251 -0.16533186 -0.12246908 0.05404613 0.07987741 -0.061503388 -0.10163588 0.056365333 0.054367196 0.064330034 -0.11793288 0.0051842867 -0.04324128 0.12322489 0.13152786 -0.13577633 -0.09902047 0.0774957 0.1534915 -0.059488047 0.09233811 -0.021139735 -0.02354522 0.009043833 0.017348904 0.025062688 -0.16402304 0.00852771 0.097447425
26 0.07282978 -0.062336672 0.111767836 0.059949476 -0.013586345 -0.16859852 0.084755495 0.08237284 -0.07303314 -0.03358218 0.18533655 -0.12100593 -0.038122807 0.023941925 0.10729471 -0.084469266 0.10271972 0.022718783 -0.1454452 0.0038397661 0.11564765 0.19883709 0.10146652 0.088562764 -0.06383987 0.098578356 -0.04996946 0.08093447 -0.03805241 -0.11618926 -0.3005488 -0.033448678 0.0567481 -0.009750425 -0.07117682 0.0072055776 0.19351086 0.02101321 0.13252626 -0.0032835978 -0.10639306 0.06711363 -0.039096378 -0.021568734 0.057128236 0.045710444 -0.03817596 -0.00947046 0.09523246 0.15949006 -0.0960873 0.12738043 0.22267456 0.09481644 0.09284537 0.057790447 0.0821149 0.0031308052 -0.08661514 0.09491995 0.1168007 -0.09696503 0.060528725 0.04939108 0.13787408 -0.083124064 0.041766565 0.051672358 -0.06030341 -0.09625412 0.20773105 0.0053748074 -0.11766521 -0.13277958 0.053906914 -0.07976214 -0.017284 -0.059047412 -0.07435551 0.16054285 0.09436659 -0.110610925 0.061270356 0.28272122 -0.043364186 0.08512528 0.15545365 -0.096462116 0.09024693 0.13293181 -0.06188852 -0.06330621 0.0014868556 0.07369713 0.16965878 0.13896088 -0.28551862 -0.22485173 0.00031290192 -0.09730729 -0.18555771 -0.10181681 0.12204815 0.16520399 0.030602597 -0.06974947 0.10137548 -0.030782366 0.011159346 -0.10981991 0.0031949854 -0.00023915348 0.058926214 0.095899425 -0.080775745 -0.008044381 0.0009840176 0.12013618 0.058422357 0.061829664 -0.05236655 -0.063661315 0.04557979 0.044284075 0.04382823 -0.14152488 -0.032184165 0.0822616
25 0.10239622 -0.05857202 0.120910615 0.07018867 -0.026725873 -0.18634059 0.1037178 0.10633437 -0.10596865 -0.05746002 0.19394718 -0.12602185 -0.07514621 0.061838984 0.14824255 -0.084026664 0.10704139 -0.012440316 -0.18253951 0.018671906 0.120961934 0.20859572 0.100237645 0.097636275 -0.062362965 0.11834938 -0.05029501 0.099869154 -0.05131297 -0.13659947 -0.3186286 -0.052535746 0.086728446 -0.030262006 -0.090919256 -0.015561419 0.21359177 0.017364314 0.12806416 0.014311803 -0.12814781 0.083615676 -0.021086646 -0.008227247 0.06276041 0.03823919 -0.048814557 0.019534813 0.1265277 0.18547563 -0.10865164 0.15828545 0.2573985 0.080283225 0.09364873 0.08335922 0.12299231 -0.010104717 -0.06942915 0.11050253 0.12863079 -0.11715833 0.02974761 0.061031096 0.14924003 -0.08294073 0.05930232 0.04958476 -0.09376262 -0.09797126 0.24308234 0.0051012407 -0.11600919 -0.16603795 0.08434017 -0.07588711 -0.018677812 -0.07204813 -0.07446237 0.15874417 0.10571356 -0.14194272 0.06557041 0.2925473 -0.088558584 0.08852922 0.16676512 -0.081796564 0.1063579 0.16229357 -0.078531966 -0.06864034 0.008893238 0.079625644 0.15683542 0.17109846 -0.3187851 -0.24825908 -0.008440931 -0.09855738 -0.20078821 -0.10442749 0.14250343 0.1908783 0.049101237 -0.06650259 0.13841188 -0.041165274 -0.0019060556 -0.11131777 0.01621022 0.018854717 0.06030107 0.08687938 -0.065295294 -0.005166628 -0.017667513 0.1274325 0.08104486 0.05152711 -0.059556272 -0.081288435 0.052239276 0.051407345 0.048196588 -0.15130661 -0.03331293 0.0814566
11 -0.05241641 -0.08261154 0.059083175 0.123447575 0.009164898 -0.15480977 0.0828653 -0.012279864 -0.025602344 0.0951634 0.24264187 -0.11006653 0.10293127 -0.14570163 0.014430385 -0.09066751 0.17843768 0.15144666 -0.029495733 -0.018825684 0.08299541 0.28733337 0.07986307 0.099190556 -0.05907964 0.04660026 -0.08681101 0.018363813 0.0012210989 -0.1329641 -0.2965118 0.050706077 -0.012940427 0.028779687 -0.051770248 0.093891986 0.25475037 0.0295164 0.22899655 -0.056503452 -0.056380022 0.0025756578 -0.062290624 -0.09673424 0.058148656 0.111699894 -0.08636787 -0.08431546 0.0236874 0.1797957 -0.07079716 0.10047862 0.21687512 0.17638892 0.058857627 -0.042166986 -0.08025215 0.014438846 -0.14737499 0.10171634 0.1475355 -0.08330839 0.15813948 0.047376607 0.1269234 -0.13297728 -0.024442935 0.09766848 0.023669774 -0.11929328 0.13178141 0.005889266 -0.1400595 -0.02604008 -0.009415116 -0.11856493 -0.08219995 -0.018158687 -0.074780814 0.25444815 0.024506692 -0.048891217 0.02029873 0.3335205 0.07439166 0.13549134 0.17406203 -0.13560323 0.096282266 0.09632677 -0.039029565 -0.057894316 -0.01983344 0.10153629 0.24151838 0.09398297 -0.20580427 -0.20199536 0.036784086 -0.10168138 -0.17662968 -0.12999718 0.07775855 0.086779214 -0.051448785 -0.101097405 0.062280007 0.053231258 0.06066721 -0.11649027 0.0018482018 -0.02645152 0.11279443 0.13257578 -0.1359659 -0.091669194 0.060851347 0.14537686 -0.04815808 0.091573335 -0.037225954 -0.035450432 0.022394245 0.0061865174 0.031091874 -0.16297282 0.013661896 0.10757602
31 0.08542225 -0.05897209 0.1092013 0.051830776 -0.011674511 -0.16956638 0.097986475 0.08842994 -0.08700387 -0.05038057 0.18821369 -0.10908093 -0.052408155 0.0365063 0.119371556 -0.06356818 0.10948608 -0.008460967 -0.14817214 0.020878518 0.111746505 0.18696328 0.100791864 0.08786043 -0.048851542 0.10692388 -0.044669863 0.08338603 -0.040502604 -0.11792827 -0.2859949 -0.050884012 0.0724605 -0.015120516 -0.08175623 -0.00544118 0.18525757 0.010783196 0.109379165 -0.0021981422 -0.101755545 0.06779781 -0.024714537 -0.013604028 0.060713932 0.028136866 -0.034666877 0.0031179574 0.107219495 0.15697607 -0.08563581 0.13249363 0.2226023 0.073304005 0.08928276 0.061856333 0.12197566 -0.004114754 -0.06817129 0.08601986 0.10886274 -0.10215182 0.038640194 0.0380174 0.13269971 -0.080322236 0.06584803 0.0492685 -0.075119525 -0.08277228 0.22842765 0.00078184414 -0.11113558 -0.14241198 0.060370836 -0.06641363 -0.0037877983 -0.07222391 -0.07240836 0.15095605 0.098537005 -0.1191795 0.052948583 0.2869082 -0.06379028 0.09308077 0.14805286 -0.09245856 0.0952042 0.14923137 -0.07080229 -0.0715027 0.009422389 0.06761721 0.15741706 0.15190654 -0.28969127 -0.21804695 0.0013590164 -0.09307149 -0.18126181 -0.1009123 0.12548812 0.17479792 0.060283512 -0.06874347 0.11846527 -0.03506434 0.003103844 -0.115871586 0.015978105 0.014542661 0.04874409 0.078438945 -0.063659154 -0.0098472135 -0.004527374 0.11306936 0.06395231 0.050463643 -0.05672836 -0.0700437 0.043684762 0.037334148 0.041678943 -0.1392203 -0.049461808 0.08345825
29 0.0930821 -0.067506954 0.111720756 0.052766476 -0.009580477 -0.16258317 0.10164389 0.08634787 -0.09443908 -0.05851182 0.18244773 -0.11319286 -0.0742594 0.04655672 0.12116776 -0.06844739 0.09540832 -0.0073451246 -0.15885179 0.019003492 0.11674065 0.19267865 0.098809436 0.087812565 -0.060043834 0.108934626 -0.043067027 0.09043361 -0.049122874 -0.11735289 -0.29998642 -0.059120294 0.08220828 -0.020516198 -0.07871346 -0.0069583533 0.18046814 0.01303936 0.10742601 0.007118413 -0.11450585 0.068857096 -0.032523118 -0.009202976 0.06698403 0.023737775 -0.028134933 0.0027321589 0.10142333 0.16584092 -0.08974785 0.14149791 0.23252818 0.0698474 0.08959289 0.06293791 0.13365969 -0.013961472 -0.06269936 0.08507426 0.11800562 -0.108647324 0.039714202 0.040067535 0.120175965 -0.077616155 0.0617719 0.06115929 -0.09164207 -0.08026136 0.23978423 0.0019487843 -0.107876785 -0.14311911 0.06672788 -0.0665359 -0.014035872 -0.075767875 -0.06724269 0.14743474 0.10875585 -0.13220571 0.058871485 0.29113424 -0.07409442 0.08204226 0.16118789 -0.09265477 0.10851152 0.15367043 -0.06472725 -0.06290715 0.012277314 0.06744021 0.15806657 0.16233018 -0.30271873 -0.234449 -0.00889428 -0.106470324 -0.17887948 -0.09930754 0.12266937 0.17245425 0.056141313 -0.06434484 0.12452367 -0.038782734 -0.006531055 -0.11141893 0.013982706 0.016666617 0.050408997 0.08422872 -0.06332529 -0.012252864 -0.0019438382 0.118664384 0.07050062 0.057858646 -0.05299283 -0.064659424 0.042868666 0.050896972 0.04607285 -0.1436008 -0.046142265 0.09104783
20 0.017914154 -0.07522622 0.101827085 0.07403413 -0.008315299 -0.16925053 0.084588826 0.031659834 -0.048064496 0.016823677 0.2262359 -0.10375518 0.014347332 -0.04789425 0.054222398 -0.07970697 0.14065187 0.06927573 -0.09305278 -0.010773377 0.10166653 0.23343052 0.09621124 0.0793268 -0.060939766 0.082836725 -0.073737904 0.051593475 -0.01604804 -0.12490681 -0.2982428 0.0031719091 0.014115271 0.013913964 -0.058072366 0.05230489 0.21550378 0.009797971 0.16552433 -0.022212457 -0.08563536 0.038251825 -0.038330685 -0.06363164 0.060688447 0.05373938 -0.060022105 -0.051056758 0.06193021 0.168471 -0.065452315 0.10091754 0.20240897 0.115228415 0.07339709 0.0055459663 0.024890738 -0.0033014237 -0.11139976 0.09530494 0.1302285 -0.09180809 0.08793512 0.037082933 0.12518218 -0.10654305 0.026622437 0.07868934 -0.026650304 -0.09878598 0.18179204 0.0012689104 -0.13675171 -0.09861788 0.033318892 -0.10072485 -0.032304376 -0.050018426 -0.07088767 0.19685781 0.061222695 -0.09018291 0.051467597 0.3173831 0.0037089358 0.101511315 0.1580282 -0.11548717 0.097967654 0.124663495 -0.050133243 -0.069421194 -0.012814624 0.07963053 0.21038574 0.11979227 -0.2515269 -0.22671078 0.009175926 -0.09401738 -0.17076774 -0.10510246 0.09926679 0.13465993 0.017093243 -0.08822289 0.08929638 -0.0029487684 0.032809958 -0.113076404 0.003323633 -0.008918526 0.08950855 0.10679392 -0.09641395 -0.036549415 0.020140503 0.13253622 0.016192336 0.059686303 -0.039323 -0.041331038 0.027156128 0.032442074 0.042213324 -0.14093767 -0.029986156 0.09586737
15 0.10361221 -0.060266495 0.10122157 0.051324084 -0.01088019 -0.16336723 0.09886409 0.10623197 -0.09032676 -0.05679837 0.17536701 -0.10497727 -0.067807235 0.06077315 0.13296828 -0.048230886 0.11256001 -0.021445422 -0.1619404 0.028386395 0.120347336 0.18391316 0.09525415 0.08200495 -0.06296439 0.11015428 -0.046468355 0.07264905 -0.048042834 -0.11492439 -0.2962035 -0.06714797 0.08664487 -0.011365855 -0.09049479 -0.0080232 0.17797962 0.002911281 0.10551606 -0.0022187745 -0.11062397 0.07182169 -0.027571136 -0.007122221 0.05791451 0.015752021 -0.038159624 0.012442024 0.097501755 0.15118979 -0.09175606 0.12935184 0.23758958 0.07456665 0.09688042 0.057936523 0.13794824 -0.0014121017 -0.0640536 0.08141117 0.104452014 -0.105039574 0.024659958 0.043797288 0.13294035 -0.08276822 0.060255826 0.062437147 -0.09914287 -0.095798746 0.24467781 0.0062759374 -0.11089203 -0.15478358 0.06423761 -0.065777004 -0.015727777 -0.08654449 -0.08149455 0.14318101 0.0983033 -0.13413166 0.0601906 0.2908857 -0.07682436 0.07964529 0.15832342 -0.09236437 0.111016735 0.16261481 -0.075968124 -0.07549456 0.006412544 0.06841781 0.15808374 0.16284837 -0.29244342 -0.21755996 0.008902217 -0.10360442 -0.17379567 -0.106825724 0.12457126 0.16446863 0.055469226 -0.06614515 0.12229209 -0.01787964 0.0042783655 -0.112429805 0.011112141 0.028747523 0.046949066 0.08085307 -0.06703439 0.0018140052 -0.007237683 0.11945217 0.08371076 0.0523395 -0.057576343 -0.08516451 0.047003143 0.04363556 0.041675024 -0.14680369 -0.0385604 0.0884862
16 0.0871462 -0.06266135 0.100169115 0.06803362 -0.020173086 -0.17273699 0.09907191 0.092467755 -0.09636988 -0.040740684 0.18548937 -0.11574223 -0.053751368 0.048842713 0.12705682 -0.062097594 0.11368822 -0.009221265 -0.1519637 0.026431652 0.11776146 0.19495635 0.097978465 0.08750054 -0.063778885 0.10699837 -0.05306491 0.08593022 -0.054565463 -0.1300339 -0.30499277 -0.05790122 0.08255956 -0.014276429 -0.0792682 0.0019209452 0.18953843 0.0052302266 0.109374724 0.0008945449 -0.10917754 0.077783376 -0.032502543 -0.011919482 0.060698785 0.03188146 -0.039697982 0.009269185 0.10503665 0.17063706 -0.0849824 0.14317696 0.23683149 0.071486324 0.0909782 0.06112015 0.11920808 -0.0016770479 -0.0709382 0.10164722 0.109664746 -0.106312856 0.046639524 0.048706524 0.1360717 -0.078023784 0.060104933 0.05285136 -0.08139172 -0.10032246 0.2336054 -0.00082562986 -0.11380634 -0.15253478 0.07069527 -0.076408714 -0.0052646017 -0.08616666 -0.07987477 0.15463632 0.10075528 -0.12192751 0.0560376 0.2955076 -0.07076756 0.085375905 0.16639453 -0.09363381 0.10565326 0.15043063 -0.06905197 -0.07648881 0.017283589 0.07552601 0.1645858 0.16850303 -0.3024119 -0.23542304 0.005037094 -0.095842354 -0.19042452 -0.10791818 0.13874558 0.17384602 0.05561851 -0.06881952 0.11954969 -0.01862586 0.007399286 -0.111759536 0.0067694145 0.018488174 0.056150544 0.08115864 -0.07593862 -0.0012023402 0.0080247335 0.11976735 0.07113256 0.060184203 -0.05834445 -0.07685473 0.041501492 0.04066024 0.050510865 -0.14963822 -0.041638225 0.08726874
27 0.12416801 -0.056341253 0.11851335 0.049200073 -0.026989568 -0.16193937 0.101125725 0.11556242 -0.1156932 -0.08134751 0.16423203 -0.10717194 -0.10849251 0.091261566 0.15327479 -0.056094475 0.10040398 -0.04333326 -0.18714683 0.03200909 0.12935716 0.1767414 0.11253529 0.08891461 -0.061747544 0.11690854 -0.049664848 0.087818176 -0.0655387 -0.13423972 -0.29357684 -0.07829217 0.10594655 -0.03532105 -0.09617171 -0.033663824 0.18991123 -0.00039716 0.09092618 0.008022931 -0.11719903 0.092200585 -0.020386571 -0.00029680727 0.057595506 0.01256921 -0.026498392 0.03241246 0.12710641 0.16558963 -0.09223174 0.14942485 0.25245416 0.057753395 0.098711245 0.09469832 0.16549721 -0.00010723012 -0.05170729 0.09949817 0.109356835 -0.11786412 0.009759615 0.055091683 0.14003691 -0.07158536 0.08179909 0.051816918 -0.11100199 -0.095247895 0.26770034 0.008030136 -0.097563885 -0.17333953 0.08099936 -0.05571828 -0.003540713 -0.09977681 -0.07298151 0.13836926 0.13062096 -0.14718959 0.057679266 0.2902058 -0.110017836 0.085831776 0.16560836 -0.07903606 0.10676936 0.17106535 -0.0801725 -0.07034116 0.027693395 0.058211174 0.15037721 0.1802487 -0.32024524 -0.23254539 -0.006356879 -0.09963409 -0.1923142 -0.09599491 0.15371661 0.1979773 0.073456176 -0.064773485 0.14673348 -0.027138796 -0.0050032884 -0.12285764 0.0141260605 0.022720125 0.033638816 0.07931502 -0.05987492 0.004946599 -0.0063719526 0.12798314 0.10500513 0.054702893 -0.069291234 -0.09248536 0.056425568 0.034654398 0.047989782 -0.14250603 -0.053080723 0.07833374
10 0.09408419 -0.06936853 0.10383104 0.052957706 -0.01946269 -0.1678571 0.09167853 0.10042512 -0.083993554 -0.057253014 0.19516982 -0.099957794 -0.0733755 0.049324676 0.121579155 -0.05805048 0.100894764 -0.01691411 -0.15223435 0.006408427 0.108569 0.18727441 0.103213206 0.078280866 -0.05131273 0.10568072 -0.047084477 0.089743905 -0.044840273 -0.11318205 -0.29472727 -0.061125733 0.08348146 -0.022906525 -0.07352658 -0.006692694 0.18031408 -0.0019810712 0.11242331 0.00077168865 -0.10746614 0.065255605 -0.031615395 -0.019296866 0.068762 0.0130594205 -0.03395642 0.00530593 0.10503985 0.16547881 -0.086153716 0.12525083 0.22092265 0.07352703 0.10497935 0.055561267 0.12978102 -0.0065152347 -0.06943475 0.095224254 0.10381031 -0.104524165 0.034721922 0.045817472 0.1235823 -0.07182302 0.06872848 0.065527886 -0.09459889 -0.08418114 0.23667556 0.003804765 -0.10359354 -0.15353507 0.06676874 -0.07562915 -0.0064851963 -0.076961294 -0.07144289 0.13676922 0.10270386 -0.12971205 0.053647824 0.2907945 -0.064845785 0.08838033 0.15930928 -0.08795143 0.10281133 0.16466981 -0.072580375 -0.06715433 0.015081215 0.0649353 0.16439888 0.16307364 -0.2911576 -0.23053226 0.0090280725 -0.09685328 -0.17544618 -0.0969222 0.1229698 0.17240761 0.057264447 -0.07153229 0.12084156 -0.023717197 -0.006596556 -0.12067069 0.0121697765 0.022395235 0.041626398 0.09266045 -0.0613338 0.0037086457 -0.004880696 0.11511394 0.074393965 0.055886533 -0.05820171 -0.072504304 0.045521457 0.04409477 0.052959047 -0.14237893 -0.040236074 0.07976083
23 0.107041754 -0.05325707 0.11477419 0.038045976 -0.0231859 -0.17525908 0.095224835 0.11294245 -0.10622699 -0.067324564 0.18133983 -0.10946556 -0.09504274 0.0738977 0.13599731 -0.052506942 0.104639575 -0.03134234 -0.17134716 0.024794016 0.11377065 0.17377546 0.10115141 0.08911919 -0.0580657 0.1064608 -0.039495155 0.09088824 -0.060965423 -0.12484083 -0.2928587 -0.07703616 0.08723544 -0.027298683 -0.086791545 -0.010471266 0.17707253 0.004098922 0.09070868 0.0026865404 -0.11086529 0.078953065 -0.018155258 -0.0027395943 0.053976797 0.012150049 -0.020639023 0.014101173 0.11134734 0.1553226 -0.08222702 0.1387808 0.23434275 0.05112599 0.10701458 0.0660826 0.16084123 -0.006111885 -0.05213349 0.08317451 0.1089405 -0.10157077 0.013820029 0.03219801 0.13468479 -0.06984437 0.0672966 0.053645942 -0.106190324 -0.09031233 0.2566854 0.0018714746 -0.103794016 -0.16542119 0.071302384 -0.06417711 -0.004589035 -0.09167661 -0.07754502 0.13708885 0.11673588 -0.13678406 0.06156845 0.27341458 -0.084798835 0.08727261 0.15660486 -0.09197527 0.099493004 0.16526721 -0.077368766 -0.06676651 0.026853886 0.06642914 0.14677356 0.17727853 -0.30934694 -0.23308912 0.0028977827 -0.10289476 -0.1822404 -0.09450803 0.12931968 0.18288475 0.07677859 -0.06781227 0.12348332 -0.03015893 -0.012008259 -0.12145335 0.012197791 0.025048109 0.04411748 0.078826256 -0.050188567 0.00017103495 -0.005719245 0.12116738 0.08852955 0.048798136 -0.059062105 -0.080764 0.04038635 0.036295295 0.051833075 -0.14259659 -0.042924102 0.08440706
18 0.022389159 -0.074470304 0.102015115 0.07574334 -0.0049720113 -0.16668226 0.09478135 0.03851401 -0.057381354 0.0243241 0.22470467 -0.10497378 0.009218397 -0.0509484 0.06760599 -0.083041385 0.14421922 0.07188357 -0.09302298 0.003223527 0.09836044 0.23825677 0.08643892 0.09769955 -0.063957796 0.084169686 -0.072653994 0.06365047 -0.012178852 -0.120163046 -0.29666555 0.0024486321 0.020849373 0.012580917 -0.062283587 0.046456806 0.22737902 0.009974824 0.17622241 -0.015669787 -0.09224887 0.038361005 -0.044314276 -0.056282725 0.07214374 0.055129644 -0.053778134 -0.04459235 0.057606366 0.16213782 -0.07294783 0.101735346 0.21519257 0.11642411 0.08628747 0.017781196 0.02711615 -0.0017936078 -0.10965357 0.09340198 0.12577488 -0.098248065 0.092363134 0.051525474 0.13218242 -0.10362331 0.026994633 0.07419054 -0.033619873 -0.10730673 0.19114287 0.005251904 -0.13743824 -0.09044856 0.034036778 -0.0985603 -0.03160145 -0.05295883 -0.055829797 0.19625804 0.057853222 -0.095335335 0.040973864 0.3160944 -0.0076883845 0.11105625 0.16222352 -0.11241572 0.11275387 0.13414954 -0.04729537 -0.065608054 -0.0013456424 0.08255891 0.21536832 0.12658057 -0.2692233 -0.23210971 0.022840735 -0.09412492 -0.1825177 -0.10646777 0.09750849 0.12953542 0.0031219583 -0.0773153 0.08903015 -0.009691725 0.024452318 -0.11423021 0.010811393 -0.012037902 0.08393953 0.11143333 -0.09399304 -0.044457965 0.027717818 0.13359898 0.01079236 0.06500813 -0.039847877 -0.053858574 0.025430458 0.03832033 0.027155772 -0.15284745 -0.030153548 0.09646068
21 0.09210664 -0.06740788 0.10169694 0.06279956 -0.010997785 -0.16331357 0.099043496 0.105298676 -0.093468 -0.051921036 0.18081658 -0.11694595 -0.06792316 0.06594907 0.12822728 -0.071072735 0.11254789 -0.0031511935 -0.17140375 0.023108082 0.1178687 0.20312762 0.10758248 0.08827878 -0.055067394 0.11303524 -0.048791442 0.077419475 -0.04790548 -0.12748188 -0.30929348 -0.053069398 0.08754434 -0.014039363 -0.08234091 -0.0074113756 0.19233274 0.00024686486 0.10503002 0.007551013 -0.12191409 0.07750497 -0.023673045 -0.018793657 0.05571375 0.025264362 -0.049849305 0.011193826 0.11789265 0.16217835 -0.09767794 0.15219639 0.24872142 0.083878845 0.09075521 0.06896075 0.122890435 0.00070747046 -0.06220792 0.08949171 0.11992979 -0.11828976 0.03974703 0.0524043 0.14241245 -0.07448711 0.061912037 0.06588813 -0.09736241 -0.0979316 0.2438545 0.00089468755 -0.11351537 -0.1533715 0.07859132 -0.07922338 -0.019562922 -0.0818191 -0.0847083 0.15208195 0.10927894 -0.13707939 0.056047253 0.30107442 -0.07266161 0.08617433 0.1746531 -0.08946258 0.104678676 0.17266785 -0.06477436 -0.06789966 0.012279246 0.07069992 0.17473768 0.17337486 -0.31241396 -0.24172375 0.0022654508 -0.10860224 -0.18289322 -0.11137111 0.13066961 0.17709364 0.056849055 -0.064883284 0.11996894 -0.018606765 0.0043054395 -0.11656491 0.020324707 0.021928353 0.056121767 0.0924757 -0.065894224 -0.005051116 -0.00038977066 0.1205298 0.08057317 0.054408643 -0.06012678 -0.079101905 0.055926666 0.042517718 0.05151464 -0.14951773 -0.038342 0.08960672
17 -0.090663955 -0.08516526 0.047781203 0.16017087 0.020834483 -0.13998075 0.09045918 -0.048985682 -0.018956548 0.14819519 0.25123313 -0.13320422 0.1546928 -0.18848965 -0.02355589 -0.101652786 0.18928383 0.20335668 -0.003998 -0.006741914 0.090435214 0.31337455 0.06500248 0.11176258 -0.07909484 0.02183955 -0.120274715 -0.0033778592 0.019899039 -0.13785699 -0.3069504 0.10407495 -0.037213612 0.029813156 -0.028381437 0.10516102 0.26924652 0.038808733 0.25769553 -0.063077554 -0.04340866 -0.011105533 -0.07521961 -0.1207952 0.046606395 0.15238397 -0.108925864 -0.11700824 -0.0028008104 0.18375485 -0.06300183 0.103977405 0.2210124 0.20667337 0.028302956 -0.066093095 -0.14985201 0.03006477 -0.17428038 0.104895644 0.1633993 -0.08931659 0.20528013 0.07390381 0.11783455 -0.15756464 -0.057177603 0.1114416 0.06674787 -0.12654762 0.08473342 0.013126585 -0.15674974 0.015915109 -0.019164901 -0.13915993 -0.11948749 -0.004168043 -0.08245908 0.29191056 0.008110935 -0.029742636 0.022402894 0.33996657 0.13074538 0.1506185 0.17123142 -0.13835874 0.09310713 0.07911744 -0.028404433 -0.056760125 -0.038331334 0.1230991 0.2603426 0.06574078 -0.17451853 -0.19144474 0.04465889 -0.10835191 -0.17443454 -0.13716526 0.05048883 0.052240945 -0.0940598 -0.09528454 0.05507608 0.0867694 0.09230464 -0.12393657 0.00864076 -0.0393629 0.14163552 0.13378558 -0.1462796 -0.1294118 0.09780278 0.16139878 -0.07891103 0.11192391 -0.016851172 -0.02105577 0.021038778 0.006047423 0.025925599 -0.16092451 0.032671846 0.10735036
22 0.01121029 -0.07953239 0.10053282 0.07382406 -0.00953767 -0.15876618 0.08876619 0.02288917 -0.038185835 0.017388694 0.22883949 -0.10322151 0.02426445 -0.06888639 0.041893695 -0.08529282 0.13028957 0.08126094 -0.097644344 -0.00917538 0.09255523 0.2309509 0.09440253 0.08805047 -0.06445064 0.072883375 -0.07038689 0.05600194 -0.017943908 -0.11063072 -0.28744563 0.0023018667 0.006370525 0.012298416 -0.05769194 0.055311494 0.22185984 0.018506292 0.18261565 -0.017889837 -0.08093344 0.031015065 -0.039358538 -0.06826381 0.06588218 0.053855017 -0.049986754 -0.056158174 0.060205545 0.15788381 -0.070475146 0.08865628 0.19593772 0.12270995 0.067251116 0.011477573 0.015704064 -0.014099809 -0.11392636 0.09898293 0.1286583 -0.0891718 0.0860696 0.04017846 0.112443455 -0.10106184 0.014122909 0.06908839 -0.031132938 -0.09938529 0.17782548 -0.012929842 -0.13625197 -0.08114124 0.028314646 -0.10658134 -0.023367176 -0.047758356 -0.050648477 0.20491354 0.0597564 -0.07899648 0.05628239 0.31144455 7.8062585e-05 0.112753026 0.14729103 -0.10915294 0.107833736 0.11531901 -0.0466285 -0.06072692 -0.007727698 0.08382921 0.20859547 0.1101818 -0.2508391 -0.21156257 0.005951823 -0.09151191 -0.17928341 -0.10310257 0.09169571 0.13231651 0.0073677814 -0.079417355 0.087574475 -0.015354198 0.028646274 -0.116038255 0.00833478 -0.0055957437 0.09443552 0.117542304 -0.08065301 -0.051875975 0.024050007 0.120727494 0.0031321568 0.055735476 -0.034058303 -0.040381934 0.02115794 0.042459663 0.03112527 -0.14444603 -0.026849736 0.08274853
19 0.09581284 -0.05932652 0.11813929 0.053872738 -0.017061437 -0.17506826 0.09783286 0.10745761 -0.1006726 -0.053183928 0.19096749 -0.12162375 -0.077089496 0.053871218 0.13126697 -0.07061425 0.11281061 -0.009491981 -0.17565182 0.021827772 0.120609894 0.19926584 0.10493006 0.088811435 -0.06552987 0.1100446 -0.05247182 0.08978517 -0.062391292 -0.124612994 -0.31462312 -0.063658856 0.08152825 -0.02506616 -0.08768875 -0.013928765 0.20030463 0.0002360819 0.113270946 -0.00092108606 -0.11068305 0.07707117 -0.033614352 -0.0089915255 0.055644915 0.023089532 -0.03495634 0.0038368658 0.10914985 0.16451104 -0.08729731 0.15203594 0.24669299 0.07708284 0.10415486 0.068566434 0.143985 -0.0025171582 -0.06726109 0.10827067 0.11118376 -0.113485344 0.040327147 0.049155094 0.13446084 -0.08046971 0.06699867 0.057953093 -0.09698332 -0.08934291 0.25092262 0.00655937 -0.119475365 -0.15517396 0.06981314 -0.081227124 -0.009730644 -0.08981824 -0.07833189 0.15399316 0.11333405 -0.13382687 0.06930588 0.30321267 -0.08025729 0.09184003 0.17196168 -0.08465176 0.10443609 0.16471808 -0.07779191 -0.07370151 0.0077545713 0.07130817 0.16695653 0.16680464 -0.31752396 -0.23983285 -0.008722216 -0.10114587 -0.18888988 -0.10007572 0.13623945 0.19504564 0.070532486 -0.069980726 0.1317145 -0.04062557 -0.002746473 -0.12207847 0.017055303 0.020116288 0.046199594 0.09392395 -0.070678025 0.0041727177 -0.0030580645 0.120279975 0.08087169 0.06264785 -0.062264252 -0.08329431 0.0576175 0.045815498 0.058441617 -0.15541033 -0.046081852 0.09384967
13 0.0047566057 -0.07877402 0.08645853 0.08567553 -0.009943831 -0.15571022 0.08922437 0.022072721 -0.04137897 0.027560458 0.2261304 -0.11145458 0.02977354 -0.073019125 0.050578646 -0.09089478 0.14732894 0.091858454 -0.08888621 -0.012706011 0.09875237 0.24475157 0.08334515 0.08731674 -0.06665713 0.07717286 -0.08161982 0.047099713 -0.0070958445 -0.12463049 -0.29103687 0.011683852 0.006459594 0.004730304 -0.054766577 0.05844898 0.21936452 0.012761489 0.17962216 -0.01891787 -0.08123973 0.038237948 -0.047603104 -0.06988297 0.062278684 0.06974565 -0.05929664 -0.05867576 0.049984593 0.15744771 -0.06785365 0.09903804 0.21069774 0.13006124 0.07730248 0.0047072894 0.0026130006 -0.0007120517 -0.11814416 0.0892196 0.139673 -0.098185085 0.093333356 0.052549504 0.1294353 -0.109812945 0.014168566 0.078157365 -0.023697758 -0.11048289 0.16429092 -0.007349618 -0.1397963 -0.071927875 0.032285914 -0.104702145 -0.042356826 -0.034391645 -0.060773708 0.20393915 0.057179302 -0.08217249 0.04236867 0.3089302 0.021458937 0.11757575 0.15711993 -0.1148455 0.10605625 0.1223905 -0.051262517 -0.052125834 -0.016761096 0.0904542 0.2202504 0.11177831 -0.24466193 -0.22106694 0.0075444165 -0.09518979 -0.17774515 -0.11678503 0.09802229 0.11775117 0.0014714028 -0.08596751 0.07704054 -0.005638086 0.04020003 -0.11932908 0.015140854 -0.013751486 0.09867069 0.11907081 -0.08913492 -0.044765428 0.024166219 0.12659806 -0.0014200123 0.06800475 -0.03529432 -0.03927352 0.028294204 0.036317866 0.029982937 -0.15652716 -0.0107882 0.08277219
12 -0.031233652 -0.090234354 0.092143886 0.099730544 0.0035412726 -0.16399413 0.0939884 -0.006816223 -0.025219662 0.06687822 0.25120908 -0.11406175 0.06489458 -0.12785791 0.021795217 -0.10157483 0.16084328 0.1271699 -0.047987536 -0.024715755 0.08742562 0.2655517 0.07728504 0.10047625 -0.06587541 0.067263596 -0.08610497 0.03813397 0.004742614 -0.117318824 -0.3018997 0.04742748 -0.011847666 0.021467617 -0.038950235 0.085623346 0.24189836 0.019350441 0.215504 -0.037628155 -0.05928377 0.024816133 -0.06277071 -0.08611534 0.060331527 0.08733028 -0.079198994 -0.07748069 0.030886434 0.16314885 -0.05752587 0.083476715 0.2024237 0.14968428 0.062344566 -0.031069027 -0.0533929 0.010434118 -0.13942903 0.09711648 0.14048275 -0.09146597 0.13494664 0.04388469 0.112537615 -0.12782496 -0.015924973 0.08685352 0.0071973 -0.1088455 0.14225799 -0.010713399 -0.14774247 -0.04808299 0.00019382259 -0.12076175 -0.059890427 -0.030936213 -0.06452151 0.22743492 0.03773475 -0.06951579 0.03546531 0.33103096 0.060259428 0.117758945 0.16848525 -0.12745002 0.10318979 0.110141784 -0.03791279 -0.046803694 -0.022138042 0.09691882 0.23816828 0.08283817 -0.22846305 -0.21784557 0.020946894 -0.100547224 -0.174816 -0.11969613 0.07667858 0.10197662 -0.019130982 -0.09721392 0.0634881 0.019577486 0.05785939 -0.11932418 0.010116438 -0.030453494 0.10794697 0.11783409 -0.11824946 -0.07212744 0.047954455 0.1428965 -0.037378885 0.07866389 -0.030921713 -0.032330703 0.02187046 0.030232053 0.021322232 -0.15551686 -9.159537e-05 0.096236736
